digraph Tree {
node [shape=box, style="filled, rounded", color="black", fontname=helvetica] ;
edge [fontname=helvetica] ;
0 [label="Attendace <= 48.5\ngini = 0.67\nsamples = 2545\nvalue = [621, 1251, 378, 152, 143]\nclass = 2", fillcolor="#d4f6be"] ;
1 [label="Attendace <= 36.5\ngini = 0.567\nsamples = 1960\nvalue = [153, 1222, 345, 121, 119]\nclass = 2", fillcolor="#b7f193"] ;
0 -> 1 [labeldistance=2.5, labelangle=45, headlabel="True"] ;
2 [label="Attendace <= 28.5\ngini = 0.704\nsamples = 643\nvalue = [83, 89, 307, 83, 81]\nclass = 3", fillcolor="#b1f5e8"] ;
1 -> 2 ;
3 [label="Attendace <= 23.5\ngini = 0.799\nsamples = 281\nvalue = [52, 58, 63, 54, 54]\nclass = 3", fillcolor="#fbfefe"] ;
2 -> 3 ;
4 [label="Class <= 0.5\ngini = 0.799\nsamples = 211\nvalue = [43, 45, 42, 36, 45]\nclass = 2", fillcolor="#ffffff"] ;
3 -> 4 ;
5 [label="Term <= 0.5\ngini = 0.796\nsamples = 110\nvalue = [25, 26, 21, 21, 17]\nclass = 2", fillcolor="#fdfffd"] ;
4 -> 5 ;
6 [label="Gender <= 1.5\ngini = 0.779\nsamples = 61\nvalue = [15, 15, 15, 11, 5]\nclass = 1", fillcolor="#ffffff"] ;
5 -> 6 ;
7 [label="Attendace <= 17.0\ngini = 0.76\nsamples = 22\nvalue = [4, 4, 4, 8, 2]\nclass = 4", fillcolor="#d4d3f9"] ;
6 -> 7 ;
8 [label="Attendace <= 11.5\ngini = 0.71\nsamples = 13\nvalue = [4, 1, 4, 4, 0]\nclass = 1", fillcolor="#ffffff"] ;
7 -> 8 ;
9 [label="Tuition <= 2.5\ngini = 0.64\nsamples = 5\nvalue = [0, 1, 2, 2, 0]\nclass = 3", fillcolor="#ffffff"] ;
8 -> 9 ;
10 [label="Tuition <= 1.5\ngini = 0.5\nsamples = 4\nvalue = [0, 0, 2, 2, 0]\nclass = 3", fillcolor="#ffffff"] ;
9 -> 10 ;
11 [label="gini = 0.0\nsamples = 1\nvalue = [0, 0, 1, 0, 0]\nclass = 3", fillcolor="#39e5c5"] ;
10 -> 11 ;
12 [label="Attendace <= 10.5\ngini = 0.444\nsamples = 3\nvalue = [0, 0, 1, 2, 0]\nclass = 4", fillcolor="#9e9cf2"] ;
10 -> 12 ;
13 [label="gini = 0.0\nsamples = 1\nvalue = [0, 0, 0, 1, 0]\nclass = 4", fillcolor="#3c39e5"] ;
12 -> 13 ;
14 [label="gini = 0.5\nsamples = 2\nvalue = [0, 0, 1, 1, 0]\nclass = 3", fillcolor="#ffffff"] ;
12 -> 14 ;
15 [label="gini = 0.0\nsamples = 1\nvalue = [0, 1, 0, 0, 0]\nclass = 2", fillcolor="#7be539"] ;
9 -> 15 ;
16 [label="Tuition <= 2.5\ngini = 0.625\nsamples = 8\nvalue = [4, 0, 2, 2, 0]\nclass = 1", fillcolor="#f6d5bd"] ;
8 -> 16 ;
17 [label="Tuition <= 1.5\ngini = 0.48\nsamples = 5\nvalue = [3, 0, 0, 2, 0]\nclass = 1", fillcolor="#f6d5bd"] ;
16 -> 17 ;
18 [label="Attendace <= 13.5\ngini = 0.375\nsamples = 4\nvalue = [3, 0, 0, 1, 0]\nclass = 1", fillcolor="#eeab7b"] ;
17 -> 18 ;
19 [label="gini = 0.0\nsamples = 1\nvalue = [1, 0, 0, 0, 0]\nclass = 1", fillcolor="#e58139"] ;
18 -> 19 ;
20 [label="gini = 0.444\nsamples = 3\nvalue = [2, 0, 0, 1, 0]\nclass = 1", fillcolor="#f2c09c"] ;
18 -> 20 ;
21 [label="gini = 0.0\nsamples = 1\nvalue = [0, 0, 0, 1, 0]\nclass = 4", fillcolor="#3c39e5"] ;
17 -> 21 ;
22 [label="Attendace <= 15.5\ngini = 0.444\nsamples = 3\nvalue = [1, 0, 2, 0, 0]\nclass = 3", fillcolor="#9cf2e2"] ;
16 -> 22 ;
23 [label="gini = 0.0\nsamples = 2\nvalue = [0, 0, 2, 0, 0]\nclass = 3", fillcolor="#39e5c5"] ;
22 -> 23 ;
24 [label="gini = 0.0\nsamples = 1\nvalue = [1, 0, 0, 0, 0]\nclass = 1", fillcolor="#e58139"] ;
22 -> 24 ;
25 [label="Attendace <= 18.5\ngini = 0.642\nsamples = 9\nvalue = [0, 3, 0, 4, 2]\nclass = 4", fillcolor="#dedefb"] ;
7 -> 25 ;
26 [label="Tuition <= 2.0\ngini = 0.444\nsamples = 3\nvalue = [0, 1, 0, 0, 2]\nclass = 5", fillcolor="#f29ce0"] ;
25 -> 26 ;
27 [label="gini = 0.0\nsamples = 1\nvalue = [0, 0, 0, 0, 1]\nclass = 5", fillcolor="#e539c0"] ;
26 -> 27 ;
28 [label="gini = 0.5\nsamples = 2\nvalue = [0, 1, 0, 0, 1]\nclass = 2", fillcolor="#ffffff"] ;
26 -> 28 ;
29 [label="Attendace <= 20.5\ngini = 0.444\nsamples = 6\nvalue = [0, 2, 0, 4, 0]\nclass = 4", fillcolor="#9e9cf2"] ;
25 -> 29 ;
30 [label="gini = 0.0\nsamples = 3\nvalue = [0, 0, 0, 3, 0]\nclass = 4", fillcolor="#3c39e5"] ;
29 -> 30 ;
31 [label="Attendace <= 22.0\ngini = 0.444\nsamples = 3\nvalue = [0, 2, 0, 1, 0]\nclass = 2", fillcolor="#bdf29c"] ;
29 -> 31 ;
32 [label="gini = 0.0\nsamples = 1\nvalue = [0, 1, 0, 0, 0]\nclass = 2", fillcolor="#7be539"] ;
31 -> 32 ;
33 [label="gini = 0.5\nsamples = 2\nvalue = [0, 1, 0, 1, 0]\nclass = 2", fillcolor="#ffffff"] ;
31 -> 33 ;
34 [label="Attendace <= 19.5\ngini = 0.75\nsamples = 39\nvalue = [11, 11, 11, 3, 3]\nclass = 1", fillcolor="#ffffff"] ;
6 -> 34 ;
35 [label="Tuition <= 2.5\ngini = 0.73\nsamples = 29\nvalue = [6, 9, 10, 3, 1]\nclass = 3", fillcolor="#f5fefc"] ;
34 -> 35 ;
36 [label="Attendace <= 10.5\ngini = 0.72\nsamples = 17\nvalue = [6, 5, 4, 2, 0]\nclass = 1", fillcolor="#fdf4ee"] ;
35 -> 36 ;
37 [label="gini = 0.0\nsamples = 1\nvalue = [0, 0, 0, 1, 0]\nclass = 4", fillcolor="#3c39e5"] ;
36 -> 37 ;
38 [label="Attendace <= 18.5\ngini = 0.695\nsamples = 16\nvalue = [6, 5, 4, 1, 0]\nclass = 1", fillcolor="#fdf4ed"] ;
36 -> 38 ;
39 [label="Attendace <= 11.5\ngini = 0.675\nsamples = 13\nvalue = [6, 3, 3, 1, 0]\nclass = 1", fillcolor="#f7d9c4"] ;
38 -> 39 ;
40 [label="gini = 0.0\nsamples = 1\nvalue = [0, 0, 1, 0, 0]\nclass = 3", fillcolor="#39e5c5"] ;
39 -> 40 ;
41 [label="Attendace <= 12.5\ngini = 0.653\nsamples = 12\nvalue = [6, 3, 2, 1, 0]\nclass = 1", fillcolor="#f6d5bd"] ;
39 -> 41 ;
42 [label="gini = 0.0\nsamples = 1\nvalue = [1, 0, 0, 0, 0]\nclass = 1", fillcolor="#e58139"] ;
41 -> 42 ;
43 [label="Attendace <= 15.5\ngini = 0.678\nsamples = 11\nvalue = [5, 3, 2, 1, 0]\nclass = 1", fillcolor="#f8e0ce"] ;
41 -> 43 ;
44 [label="Tuition <= 1.5\ngini = 0.625\nsamples = 4\nvalue = [1, 2, 1, 0, 0]\nclass = 2", fillcolor="#d3f6bd"] ;
43 -> 44 ;
45 [label="gini = 0.0\nsamples = 1\nvalue = [0, 0, 1, 0, 0]\nclass = 3", fillcolor="#39e5c5"] ;
44 -> 45 ;
46 [label="Attendace <= 14.0\ngini = 0.444\nsamples = 3\nvalue = [1, 2, 0, 0, 0]\nclass = 2", fillcolor="#bdf29c"] ;
44 -> 46 ;
47 [label="Gender <= 2.5\ngini = 0.5\nsamples = 2\nvalue = [1, 1, 0, 0, 0]\nclass = 1", fillcolor="#ffffff"] ;
46 -> 47 ;
48 [label="gini = 0.0\nsamples = 1\nvalue = [0, 1, 0, 0, 0]\nclass = 2", fillcolor="#7be539"] ;
47 -> 48 ;
49 [label="gini = 0.0\nsamples = 1\nvalue = [1, 0, 0, 0, 0]\nclass = 1", fillcolor="#e58139"] ;
47 -> 49 ;
50 [label="gini = 0.0\nsamples = 1\nvalue = [0, 1, 0, 0, 0]\nclass = 2", fillcolor="#7be539"] ;
46 -> 50 ;
51 [label="Attendace <= 17.0\ngini = 0.612\nsamples = 7\nvalue = [4, 1, 1, 1, 0]\nclass = 1", fillcolor="#f2c09c"] ;
43 -> 51 ;
52 [label="gini = 0.0\nsamples = 2\nvalue = [2, 0, 0, 0, 0]\nclass = 1", fillcolor="#e58139"] ;
51 -> 52 ;
53 [label="Gender <= 2.5\ngini = 0.72\nsamples = 5\nvalue = [2, 1, 1, 1, 0]\nclass = 1", fillcolor="#f8e0ce"] ;
51 -> 53 ;
54 [label="gini = 0.0\nsamples = 1\nvalue = [0, 0, 0, 1, 0]\nclass = 4", fillcolor="#3c39e5"] ;
53 -> 54 ;
55 [label="Tuition <= 1.5\ngini = 0.625\nsamples = 4\nvalue = [2, 1, 1, 0, 0]\nclass = 1", fillcolor="#f6d5bd"] ;
53 -> 55 ;
56 [label="gini = 0.5\nsamples = 2\nvalue = [1, 1, 0, 0, 0]\nclass = 1", fillcolor="#ffffff"] ;
55 -> 56 ;
57 [label="gini = 0.5\nsamples = 2\nvalue = [1, 0, 1, 0, 0]\nclass = 1", fillcolor="#ffffff"] ;
55 -> 57 ;
58 [label="Tuition <= 1.5\ngini = 0.444\nsamples = 3\nvalue = [0, 2, 1, 0, 0]\nclass = 2", fillcolor="#bdf29c"] ;
38 -> 58 ;
59 [label="gini = 0.0\nsamples = 2\nvalue = [0, 2, 0, 0, 0]\nclass = 2", fillcolor="#7be539"] ;
58 -> 59 ;
60 [label="gini = 0.0\nsamples = 1\nvalue = [0, 0, 1, 0, 0]\nclass = 3", fillcolor="#39e5c5"] ;
58 -> 60 ;
61 [label="Attendace <= 14.5\ngini = 0.625\nsamples = 12\nvalue = [0, 4, 6, 1, 1]\nclass = 3", fillcolor="#cef8f0"] ;
35 -> 61 ;
62 [label="Attendace <= 13.0\ngini = 0.5\nsamples = 6\nvalue = [0, 4, 0, 1, 1]\nclass = 2", fillcolor="#b0ef88"] ;
61 -> 62 ;
63 [label="Gender <= 2.5\ngini = 0.32\nsamples = 5\nvalue = [0, 4, 0, 0, 1]\nclass = 2", fillcolor="#9cec6a"] ;
62 -> 63 ;
64 [label="gini = 0.5\nsamples = 2\nvalue = [0, 1, 0, 0, 1]\nclass = 2", fillcolor="#ffffff"] ;
63 -> 64 ;
65 [label="gini = 0.0\nsamples = 3\nvalue = [0, 3, 0, 0, 0]\nclass = 2", fillcolor="#7be539"] ;
63 -> 65 ;
66 [label="gini = 0.0\nsamples = 1\nvalue = [0, 0, 0, 1, 0]\nclass = 4", fillcolor="#3c39e5"] ;
62 -> 66 ;
67 [label="gini = 0.0\nsamples = 6\nvalue = [0, 0, 6, 0, 0]\nclass = 3", fillcolor="#39e5c5"] ;
61 -> 67 ;
68 [label="Tuition <= 1.5\ngini = 0.66\nsamples = 10\nvalue = [5, 2, 1, 0, 2]\nclass = 1", fillcolor="#f5d0b5"] ;
34 -> 68 ;
69 [label="Gender <= 2.5\ngini = 0.64\nsamples = 5\nvalue = [1, 2, 0, 0, 2]\nclass = 2", fillcolor="#ffffff"] ;
68 -> 69 ;
70 [label="gini = 0.0\nsamples = 2\nvalue = [0, 2, 0, 0, 0]\nclass = 2", fillcolor="#7be539"] ;
69 -> 70 ;
71 [label="Attendace <= 22.0\ngini = 0.444\nsamples = 3\nvalue = [1, 0, 0, 0, 2]\nclass = 5", fillcolor="#f29ce0"] ;
69 -> 71 ;
72 [label="gini = 0.0\nsamples = 1\nvalue = [1, 0, 0, 0, 0]\nclass = 1", fillcolor="#e58139"] ;
71 -> 72 ;
73 [label="gini = 0.0\nsamples = 2\nvalue = [0, 0, 0, 0, 2]\nclass = 5", fillcolor="#e539c0"] ;
71 -> 73 ;
74 [label="Gender <= 2.5\ngini = 0.32\nsamples = 5\nvalue = [4, 0, 1, 0, 0]\nclass = 1", fillcolor="#eca06a"] ;
68 -> 74 ;
75 [label="Attendace <= 21.0\ngini = 0.444\nsamples = 3\nvalue = [2, 0, 1, 0, 0]\nclass = 1", fillcolor="#f2c09c"] ;
74 -> 75 ;
76 [label="gini = 0.0\nsamples = 1\nvalue = [1, 0, 0, 0, 0]\nclass = 1", fillcolor="#e58139"] ;
75 -> 76 ;
77 [label="gini = 0.5\nsamples = 2\nvalue = [1, 0, 1, 0, 0]\nclass = 1", fillcolor="#ffffff"] ;
75 -> 77 ;
78 [label="gini = 0.0\nsamples = 2\nvalue = [2, 0, 0, 0, 0]\nclass = 1", fillcolor="#e58139"] ;
74 -> 78 ;
79 [label="Attendace <= 20.5\ngini = 0.791\nsamples = 49\nvalue = [10, 11, 6, 10, 12]\nclass = 5", fillcolor="#fefafd"] ;
5 -> 79 ;
80 [label="Gender <= 1.5\ngini = 0.778\nsamples = 36\nvalue = [9, 6, 5, 5, 11]\nclass = 5", fillcolor="#fdf0fa"] ;
79 -> 80 ;
81 [label="Tuition <= 1.5\ngini = 0.724\nsamples = 14\nvalue = [6, 1, 3, 2, 2]\nclass = 1", fillcolor="#f8ddc9"] ;
80 -> 81 ;
82 [label="gini = 0.0\nsamples = 2\nvalue = [0, 0, 2, 0, 0]\nclass = 3", fillcolor="#39e5c5"] ;
81 -> 82 ;
83 [label="Attendace <= 17.5\ngini = 0.681\nsamples = 12\nvalue = [6, 1, 1, 2, 2]\nclass = 1", fillcolor="#f5cdb0"] ;
81 -> 83 ;
84 [label="Attendace <= 16.5\ngini = 0.74\nsamples = 10\nvalue = [4, 1, 1, 2, 2]\nclass = 1", fillcolor="#f8e0ce"] ;
83 -> 84 ;
85 [label="Attendace <= 13.5\ngini = 0.688\nsamples = 8\nvalue = [4, 1, 1, 1, 1]\nclass = 1", fillcolor="#f4c9aa"] ;
84 -> 85 ;
86 [label="Tuition <= 2.5\ngini = 0.72\nsamples = 5\nvalue = [2, 1, 0, 1, 1]\nclass = 1", fillcolor="#f8e0ce"] ;
85 -> 86 ;
87 [label="Attendace <= 10.5\ngini = 0.444\nsamples = 3\nvalue = [2, 0, 0, 1, 0]\nclass = 1", fillcolor="#f2c09c"] ;
86 -> 87 ;
88 [label="gini = 0.0\nsamples = 1\nvalue = [1, 0, 0, 0, 0]\nclass = 1", fillcolor="#e58139"] ;
87 -> 88 ;
89 [label="Attendace <= 11.5\ngini = 0.5\nsamples = 2\nvalue = [1, 0, 0, 1, 0]\nclass = 1", fillcolor="#ffffff"] ;
87 -> 89 ;
90 [label="gini = 0.0\nsamples = 1\nvalue = [0, 0, 0, 1, 0]\nclass = 4", fillcolor="#3c39e5"] ;
89 -> 90 ;
91 [label="gini = 0.0\nsamples = 1\nvalue = [1, 0, 0, 0, 0]\nclass = 1", fillcolor="#e58139"] ;
89 -> 91 ;
92 [label="gini = 0.5\nsamples = 2\nvalue = [0, 1, 0, 0, 1]\nclass = 2", fillcolor="#ffffff"] ;
86 -> 92 ;
93 [label="Tuition <= 2.5\ngini = 0.444\nsamples = 3\nvalue = [2, 0, 1, 0, 0]\nclass = 1", fillcolor="#f2c09c"] ;
85 -> 93 ;
94 [label="gini = 0.0\nsamples = 1\nvalue = [0, 0, 1, 0, 0]\nclass = 3", fillcolor="#39e5c5"] ;
93 -> 94 ;
95 [label="gini = 0.0\nsamples = 2\nvalue = [2, 0, 0, 0, 0]\nclass = 1", fillcolor="#e58139"] ;
93 -> 95 ;
96 [label="gini = 0.5\nsamples = 2\nvalue = [0, 0, 0, 1, 1]\nclass = 4", fillcolor="#ffffff"] ;
84 -> 96 ;
97 [label="gini = 0.0\nsamples = 2\nvalue = [2, 0, 0, 0, 0]\nclass = 1", fillcolor="#e58139"] ;
83 -> 97 ;
98 [label="Attendace <= 19.5\ngini = 0.736\nsamples = 22\nvalue = [3, 5, 2, 3, 9]\nclass = 5", fillcolor="#f9d0f0"] ;
80 -> 98 ;
99 [label="Attendace <= 16.5\ngini = 0.698\nsamples = 18\nvalue = [3, 4, 0, 3, 8]\nclass = 5", fillcolor="#f8c6ed"] ;
98 -> 99 ;
100 [label="Attendace <= 13.5\ngini = 0.653\nsamples = 14\nvalue = [1, 3, 0, 3, 7]\nclass = 5", fillcolor="#f6b7e8"] ;
99 -> 100 ;
101 [label="Tuition <= 1.5\ngini = 0.64\nsamples = 10\nvalue = [1, 3, 0, 1, 5]\nclass = 5", fillcolor="#f8c6ed"] ;
100 -> 101 ;
102 [label="Attendace <= 12.5\ngini = 0.625\nsamples = 4\nvalue = [1, 0, 0, 1, 2]\nclass = 5", fillcolor="#f6bdea"] ;
101 -> 102 ;
103 [label="Gender <= 2.5\ngini = 0.444\nsamples = 3\nvalue = [0, 0, 0, 1, 2]\nclass = 5", fillcolor="#f29ce0"] ;
102 -> 103 ;
104 [label="gini = 0.5\nsamples = 2\nvalue = [0, 0, 0, 1, 1]\nclass = 4", fillcolor="#ffffff"] ;
103 -> 104 ;
105 [label="gini = 0.0\nsamples = 1\nvalue = [0, 0, 0, 0, 1]\nclass = 5", fillcolor="#e539c0"] ;
103 -> 105 ;
106 [label="gini = 0.0\nsamples = 1\nvalue = [1, 0, 0, 0, 0]\nclass = 1", fillcolor="#e58139"] ;
102 -> 106 ;
107 [label="Tuition <= 2.5\ngini = 0.5\nsamples = 6\nvalue = [0, 3, 0, 0, 3]\nclass = 2", fillcolor="#ffffff"] ;
101 -> 107 ;
108 [label="Gender <= 2.5\ngini = 0.444\nsamples = 3\nvalue = [0, 2, 0, 0, 1]\nclass = 2", fillcolor="#bdf29c"] ;
107 -> 108 ;
109 [label="gini = 0.0\nsamples = 1\nvalue = [0, 0, 0, 0, 1]\nclass = 5", fillcolor="#e539c0"] ;
108 -> 109 ;
110 [label="gini = 0.0\nsamples = 2\nvalue = [0, 2, 0, 0, 0]\nclass = 2", fillcolor="#7be539"] ;
108 -> 110 ;
111 [label="Gender <= 2.5\ngini = 0.444\nsamples = 3\nvalue = [0, 1, 0, 0, 2]\nclass = 5", fillcolor="#f29ce0"] ;
107 -> 111 ;
112 [label="Attendace <= 12.5\ngini = 0.5\nsamples = 2\nvalue = [0, 1, 0, 0, 1]\nclass = 2", fillcolor="#ffffff"] ;
111 -> 112 ;
113 [label="gini = 0.0\nsamples = 1\nvalue = [0, 1, 0, 0, 0]\nclass = 2", fillcolor="#7be539"] ;
112 -> 113 ;
114 [label="gini = 0.0\nsamples = 1\nvalue = [0, 0, 0, 0, 1]\nclass = 5", fillcolor="#e539c0"] ;
112 -> 114 ;
115 [label="gini = 0.0\nsamples = 1\nvalue = [0, 0, 0, 0, 1]\nclass = 5", fillcolor="#e539c0"] ;
111 -> 115 ;
116 [label="Attendace <= 14.5\ngini = 0.5\nsamples = 4\nvalue = [0, 0, 0, 2, 2]\nclass = 4", fillcolor="#ffffff"] ;
100 -> 116 ;
117 [label="gini = 0.0\nsamples = 1\nvalue = [0, 0, 0, 1, 0]\nclass = 4", fillcolor="#3c39e5"] ;
116 -> 117 ;
118 [label="Tuition <= 2.5\ngini = 0.444\nsamples = 3\nvalue = [0, 0, 0, 1, 2]\nclass = 5", fillcolor="#f29ce0"] ;
116 -> 118 ;
119 [label="gini = 0.0\nsamples = 2\nvalue = [0, 0, 0, 0, 2]\nclass = 5", fillcolor="#e539c0"] ;
118 -> 119 ;
120 [label="gini = 0.0\nsamples = 1\nvalue = [0, 0, 0, 1, 0]\nclass = 4", fillcolor="#3c39e5"] ;
118 -> 120 ;
121 [label="Tuition <= 2.5\ngini = 0.625\nsamples = 4\nvalue = [2, 1, 0, 0, 1]\nclass = 1", fillcolor="#f6d5bd"] ;
99 -> 121 ;
122 [label="Gender <= 2.5\ngini = 0.667\nsamples = 3\nvalue = [1, 1, 0, 0, 1]\nclass = 1", fillcolor="#ffffff"] ;
121 -> 122 ;
123 [label="gini = 0.0\nsamples = 1\nvalue = [0, 1, 0, 0, 0]\nclass = 2", fillcolor="#7be539"] ;
122 -> 123 ;
124 [label="Attendace <= 18.0\ngini = 0.5\nsamples = 2\nvalue = [1, 0, 0, 0, 1]\nclass = 1", fillcolor="#ffffff"] ;
122 -> 124 ;
125 [label="gini = 0.0\nsamples = 1\nvalue = [1, 0, 0, 0, 0]\nclass = 1", fillcolor="#e58139"] ;
124 -> 125 ;
126 [label="gini = 0.0\nsamples = 1\nvalue = [0, 0, 0, 0, 1]\nclass = 5", fillcolor="#e539c0"] ;
124 -> 126 ;
127 [label="gini = 0.0\nsamples = 1\nvalue = [1, 0, 0, 0, 0]\nclass = 1", fillcolor="#e58139"] ;
121 -> 127 ;
128 [label="Tuition <= 1.5\ngini = 0.625\nsamples = 4\nvalue = [0, 1, 2, 0, 1]\nclass = 3", fillcolor="#bdf6ec"] ;
98 -> 128 ;
129 [label="Gender <= 2.5\ngini = 0.5\nsamples = 2\nvalue = [0, 1, 1, 0, 0]\nclass = 2", fillcolor="#ffffff"] ;
128 -> 129 ;
130 [label="gini = 0.0\nsamples = 1\nvalue = [0, 0, 1, 0, 0]\nclass = 3", fillcolor="#39e5c5"] ;
129 -> 130 ;
131 [label="gini = 0.0\nsamples = 1\nvalue = [0, 1, 0, 0, 0]\nclass = 2", fillcolor="#7be539"] ;
129 -> 131 ;
132 [label="Gender <= 2.5\ngini = 0.5\nsamples = 2\nvalue = [0, 0, 1, 0, 1]\nclass = 3", fillcolor="#ffffff"] ;
128 -> 132 ;
133 [label="gini = 0.0\nsamples = 1\nvalue = [0, 0, 0, 0, 1]\nclass = 5", fillcolor="#e539c0"] ;
132 -> 133 ;
134 [label="gini = 0.0\nsamples = 1\nvalue = [0, 0, 1, 0, 0]\nclass = 3", fillcolor="#39e5c5"] ;
132 -> 134 ;
135 [label="Gender <= 1.5\ngini = 0.686\nsamples = 13\nvalue = [1, 5, 1, 5, 1]\nclass = 2", fillcolor="#ffffff"] ;
79 -> 135 ;
136 [label="Tuition <= 2.5\ngini = 0.716\nsamples = 9\nvalue = [1, 4, 1, 2, 1]\nclass = 2", fillcolor="#d9f8c6"] ;
135 -> 136 ;
137 [label="Attendace <= 22.5\ngini = 0.667\nsamples = 6\nvalue = [0, 3, 1, 1, 1]\nclass = 2", fillcolor="#caf5b0"] ;
136 -> 137 ;
138 [label="Tuition <= 1.5\ngini = 0.625\nsamples = 4\nvalue = [0, 2, 1, 0, 1]\nclass = 2", fillcolor="#d3f6bd"] ;
137 -> 138 ;
139 [label="Attendace <= 21.5\ngini = 0.444\nsamples = 3\nvalue = [0, 2, 1, 0, 0]\nclass = 2", fillcolor="#bdf29c"] ;
138 -> 139 ;
140 [label="gini = 0.0\nsamples = 1\nvalue = [0, 1, 0, 0, 0]\nclass = 2", fillcolor="#7be539"] ;
139 -> 140 ;
141 [label="gini = 0.5\nsamples = 2\nvalue = [0, 1, 1, 0, 0]\nclass = 2", fillcolor="#ffffff"] ;
139 -> 141 ;
142 [label="gini = 0.0\nsamples = 1\nvalue = [0, 0, 0, 0, 1]\nclass = 5", fillcolor="#e539c0"] ;
138 -> 142 ;
143 [label="Tuition <= 1.5\ngini = 0.5\nsamples = 2\nvalue = [0, 1, 0, 1, 0]\nclass = 2", fillcolor="#ffffff"] ;
137 -> 143 ;
144 [label="gini = 0.0\nsamples = 1\nvalue = [0, 0, 0, 1, 0]\nclass = 4", fillcolor="#3c39e5"] ;
143 -> 144 ;
145 [label="gini = 0.0\nsamples = 1\nvalue = [0, 1, 0, 0, 0]\nclass = 2", fillcolor="#7be539"] ;
143 -> 145 ;
146 [label="Attendace <= 21.5\ngini = 0.667\nsamples = 3\nvalue = [1, 1, 0, 1, 0]\nclass = 1", fillcolor="#ffffff"] ;
136 -> 146 ;
147 [label="gini = 0.0\nsamples = 1\nvalue = [0, 0, 0, 1, 0]\nclass = 4", fillcolor="#3c39e5"] ;
146 -> 147 ;
148 [label="Attendace <= 22.5\ngini = 0.5\nsamples = 2\nvalue = [1, 1, 0, 0, 0]\nclass = 1", fillcolor="#ffffff"] ;
146 -> 148 ;
149 [label="gini = 0.0\nsamples = 1\nvalue = [0, 1, 0, 0, 0]\nclass = 2", fillcolor="#7be539"] ;
148 -> 149 ;
150 [label="gini = 0.0\nsamples = 1\nvalue = [1, 0, 0, 0, 0]\nclass = 1", fillcolor="#e58139"] ;
148 -> 150 ;
151 [label="Tuition <= 2.0\ngini = 0.375\nsamples = 4\nvalue = [0, 1, 0, 3, 0]\nclass = 4", fillcolor="#7d7bee"] ;
135 -> 151 ;
152 [label="Gender <= 2.5\ngini = 0.5\nsamples = 2\nvalue = [0, 1, 0, 1, 0]\nclass = 2", fillcolor="#ffffff"] ;
151 -> 152 ;
153 [label="gini = 0.0\nsamples = 1\nvalue = [0, 0, 0, 1, 0]\nclass = 4", fillcolor="#3c39e5"] ;
152 -> 153 ;
154 [label="gini = 0.0\nsamples = 1\nvalue = [0, 1, 0, 0, 0]\nclass = 2", fillcolor="#7be539"] ;
152 -> 154 ;
155 [label="gini = 0.0\nsamples = 2\nvalue = [0, 0, 0, 2, 0]\nclass = 4", fillcolor="#3c39e5"] ;
151 -> 155 ;
156 [label="Attendace <= 22.5\ngini = 0.791\nsamples = 101\nvalue = [18, 19, 21, 15, 28]\nclass = 5", fillcolor="#fdeef9"] ;
4 -> 156 ;
157 [label="Attendace <= 21.5\ngini = 0.792\nsamples = 93\nvalue = [18, 17, 17, 15, 26]\nclass = 5", fillcolor="#fceaf8"] ;
156 -> 157 ;
158 [label="Gender <= 1.5\ngini = 0.785\nsamples = 86\nvalue = [16, 16, 16, 12, 26]\nclass = 5", fillcolor="#fbe3f6"] ;
157 -> 158 ;
159 [label="Tuition <= 1.5\ngini = 0.749\nsamples = 25\nvalue = [3, 4, 8, 2, 8]\nclass = 3", fillcolor="#ffffff"] ;
158 -> 159 ;
160 [label="Attendace <= 14.5\ngini = 0.7\nsamples = 10\nvalue = [0, 4, 1, 2, 3]\nclass = 2", fillcolor="#ecfbe3"] ;
159 -> 160 ;
161 [label="gini = 0.0\nsamples = 3\nvalue = [0, 3, 0, 0, 0]\nclass = 2", fillcolor="#7be539"] ;
160 -> 161 ;
162 [label="Attendace <= 18.5\ngini = 0.694\nsamples = 7\nvalue = [0, 1, 1, 2, 3]\nclass = 5", fillcolor="#fad7f2"] ;
160 -> 162 ;
163 [label="Term <= 0.5\ngini = 0.444\nsamples = 3\nvalue = [0, 0, 0, 2, 1]\nclass = 4", fillcolor="#9e9cf2"] ;
162 -> 163 ;
164 [label="gini = 0.0\nsamples = 1\nvalue = [0, 0, 0, 1, 0]\nclass = 4", fillcolor="#3c39e5"] ;
163 -> 164 ;
165 [label="gini = 0.5\nsamples = 2\nvalue = [0, 0, 0, 1, 1]\nclass = 4", fillcolor="#ffffff"] ;
163 -> 165 ;
166 [label="Attendace <= 19.5\ngini = 0.625\nsamples = 4\nvalue = [0, 1, 1, 0, 2]\nclass = 5", fillcolor="#f6bdea"] ;
162 -> 166 ;
167 [label="gini = 0.0\nsamples = 1\nvalue = [0, 0, 0, 0, 1]\nclass = 5", fillcolor="#e539c0"] ;
166 -> 167 ;
168 [label="Attendace <= 20.5\ngini = 0.667\nsamples = 3\nvalue = [0, 1, 1, 0, 1]\nclass = 2", fillcolor="#ffffff"] ;
166 -> 168 ;
169 [label="gini = 0.5\nsamples = 2\nvalue = [0, 1, 1, 0, 0]\nclass = 2", fillcolor="#ffffff"] ;
168 -> 169 ;
170 [label="gini = 0.0\nsamples = 1\nvalue = [0, 0, 0, 0, 1]\nclass = 5", fillcolor="#e539c0"] ;
168 -> 170 ;
171 [label="Tuition <= 2.5\ngini = 0.631\nsamples = 15\nvalue = [3, 0, 7, 0, 5]\nclass = 3", fillcolor="#d7faf3"] ;
159 -> 171 ;
172 [label="Term <= 0.5\ngini = 0.568\nsamples = 9\nvalue = [3, 0, 5, 0, 1]\nclass = 3", fillcolor="#bdf6ec"] ;
171 -> 172 ;
173 [label="gini = 0.0\nsamples = 3\nvalue = [0, 0, 3, 0, 0]\nclass = 3", fillcolor="#39e5c5"] ;
172 -> 173 ;
174 [label="Attendace <= 12.5\ngini = 0.611\nsamples = 6\nvalue = [3, 0, 2, 0, 1]\nclass = 1", fillcolor="#f8e0ce"] ;
172 -> 174 ;
175 [label="gini = 0.0\nsamples = 1\nvalue = [0, 0, 1, 0, 0]\nclass = 3", fillcolor="#39e5c5"] ;
174 -> 175 ;
176 [label="Attendace <= 17.5\ngini = 0.56\nsamples = 5\nvalue = [3, 0, 1, 0, 1]\nclass = 1", fillcolor="#f2c09c"] ;
174 -> 176 ;
177 [label="gini = 0.0\nsamples = 2\nvalue = [2, 0, 0, 0, 0]\nclass = 1", fillcolor="#e58139"] ;
176 -> 177 ;
178 [label="Attendace <= 18.5\ngini = 0.667\nsamples = 3\nvalue = [1, 0, 1, 0, 1]\nclass = 1", fillcolor="#ffffff"] ;
176 -> 178 ;
179 [label="gini = 0.0\nsamples = 1\nvalue = [0, 0, 1, 0, 0]\nclass = 3", fillcolor="#39e5c5"] ;
178 -> 179 ;
180 [label="gini = 0.5\nsamples = 2\nvalue = [1, 0, 0, 0, 1]\nclass = 1", fillcolor="#ffffff"] ;
178 -> 180 ;
181 [label="Attendace <= 16.0\ngini = 0.444\nsamples = 6\nvalue = [0, 0, 2, 0, 4]\nclass = 5", fillcolor="#f29ce0"] ;
171 -> 181 ;
182 [label="Attendace <= 12.0\ngini = 0.444\nsamples = 3\nvalue = [0, 0, 2, 0, 1]\nclass = 3", fillcolor="#9cf2e2"] ;
181 -> 182 ;
183 [label="gini = 0.0\nsamples = 1\nvalue = [0, 0, 0, 0, 1]\nclass = 5", fillcolor="#e539c0"] ;
182 -> 183 ;
184 [label="gini = 0.0\nsamples = 2\nvalue = [0, 0, 2, 0, 0]\nclass = 3", fillcolor="#39e5c5"] ;
182 -> 184 ;
185 [label="gini = 0.0\nsamples = 3\nvalue = [0, 0, 0, 0, 3]\nclass = 5", fillcolor="#e539c0"] ;
181 -> 185 ;
186 [label="Tuition <= 2.5\ngini = 0.785\nsamples = 61\nvalue = [13, 12, 8, 10, 18]\nclass = 5", fillcolor="#fceaf8"] ;
158 -> 186 ;
187 [label="Term <= 0.5\ngini = 0.757\nsamples = 42\nvalue = [8, 9, 3, 7, 15]\nclass = 5", fillcolor="#fadbf4"] ;
186 -> 187 ;
188 [label="Attendace <= 10.5\ngini = 0.73\nsamples = 21\nvalue = [6, 5, 0, 3, 7]\nclass = 5", fillcolor="#fdf2fb"] ;
187 -> 188 ;
189 [label="gini = 0.0\nsamples = 1\nvalue = [0, 0, 0, 1, 0]\nclass = 4", fillcolor="#3c39e5"] ;
188 -> 189 ;
190 [label="Attendace <= 15.0\ngini = 0.715\nsamples = 20\nvalue = [6, 5, 0, 2, 7]\nclass = 5", fillcolor="#fdf1fb"] ;
188 -> 190 ;
191 [label="Gender <= 2.5\ngini = 0.568\nsamples = 9\nvalue = [3, 1, 0, 0, 5]\nclass = 5", fillcolor="#f6bdea"] ;
190 -> 191 ;
192 [label="Tuition <= 1.5\ngini = 0.625\nsamples = 4\nvalue = [2, 1, 0, 0, 1]\nclass = 1", fillcolor="#f6d5bd"] ;
191 -> 192 ;
193 [label="Attendace <= 12.5\ngini = 0.5\nsamples = 2\nvalue = [1, 0, 0, 0, 1]\nclass = 1", fillcolor="#ffffff"] ;
192 -> 193 ;
194 [label="gini = 0.0\nsamples = 1\nvalue = [0, 0, 0, 0, 1]\nclass = 5", fillcolor="#e539c0"] ;
193 -> 194 ;
195 [label="gini = 0.0\nsamples = 1\nvalue = [1, 0, 0, 0, 0]\nclass = 1", fillcolor="#e58139"] ;
193 -> 195 ;
196 [label="Attendace <= 12.0\ngini = 0.5\nsamples = 2\nvalue = [1, 1, 0, 0, 0]\nclass = 1", fillcolor="#ffffff"] ;
192 -> 196 ;
197 [label="gini = 0.0\nsamples = 1\nvalue = [1, 0, 0, 0, 0]\nclass = 1", fillcolor="#e58139"] ;
196 -> 197 ;
198 [label="gini = 0.0\nsamples = 1\nvalue = [0, 1, 0, 0, 0]\nclass = 2", fillcolor="#7be539"] ;
196 -> 198 ;
199 [label="Attendace <= 12.0\ngini = 0.32\nsamples = 5\nvalue = [1, 0, 0, 0, 4]\nclass = 5", fillcolor="#ec6ad0"] ;
191 -> 199 ;
200 [label="gini = 0.0\nsamples = 1\nvalue = [1, 0, 0, 0, 0]\nclass = 1", fillcolor="#e58139"] ;
199 -> 200 ;
201 [label="gini = 0.0\nsamples = 4\nvalue = [0, 0, 0, 0, 4]\nclass = 5", fillcolor="#e539c0"] ;
199 -> 201 ;
202 [label="Attendace <= 16.5\ngini = 0.727\nsamples = 11\nvalue = [3, 4, 0, 2, 2]\nclass = 2", fillcolor="#eefce6"] ;
190 -> 202 ;
203 [label="Tuition <= 1.5\ngini = 0.5\nsamples = 2\nvalue = [1, 0, 0, 1, 0]\nclass = 1", fillcolor="#ffffff"] ;
202 -> 203 ;
204 [label="gini = 0.0\nsamples = 1\nvalue = [1, 0, 0, 0, 0]\nclass = 1", fillcolor="#e58139"] ;
203 -> 204 ;
205 [label="gini = 0.0\nsamples = 1\nvalue = [0, 0, 0, 1, 0]\nclass = 4", fillcolor="#3c39e5"] ;
203 -> 205 ;
206 [label="Attendace <= 19.0\ngini = 0.691\nsamples = 9\nvalue = [2, 4, 0, 1, 2]\nclass = 2", fillcolor="#d9f8c6"] ;
202 -> 206 ;
207 [label="gini = 0.0\nsamples = 2\nvalue = [0, 2, 0, 0, 0]\nclass = 2", fillcolor="#7be539"] ;
206 -> 207 ;
208 [label="Tuition <= 1.5\ngini = 0.735\nsamples = 7\nvalue = [2, 2, 0, 1, 2]\nclass = 1", fillcolor="#ffffff"] ;
206 -> 208 ;
209 [label="gini = 0.0\nsamples = 1\nvalue = [0, 1, 0, 0, 0]\nclass = 2", fillcolor="#7be539"] ;
208 -> 209 ;
210 [label="Attendace <= 20.5\ngini = 0.722\nsamples = 6\nvalue = [2, 1, 0, 1, 2]\nclass = 1", fillcolor="#ffffff"] ;
208 -> 210 ;
211 [label="gini = 0.5\nsamples = 2\nvalue = [1, 0, 0, 0, 1]\nclass = 1", fillcolor="#ffffff"] ;
210 -> 211 ;
212 [label="Gender <= 2.5\ngini = 0.75\nsamples = 4\nvalue = [1, 1, 0, 1, 1]\nclass = 1", fillcolor="#ffffff"] ;
210 -> 212 ;
213 [label="gini = 0.5\nsamples = 2\nvalue = [1, 0, 0, 0, 1]\nclass = 1", fillcolor="#ffffff"] ;
212 -> 213 ;
214 [label="gini = 0.5\nsamples = 2\nvalue = [0, 1, 0, 1, 0]\nclass = 2", fillcolor="#ffffff"] ;
212 -> 214 ;
215 [label="Attendace <= 19.5\ngini = 0.753\nsamples = 21\nvalue = [2, 4, 3, 4, 8]\nclass = 5", fillcolor="#f9d0f0"] ;
187 -> 215 ;
216 [label="Tuition <= 1.5\ngini = 0.758\nsamples = 16\nvalue = [2, 4, 1, 4, 5]\nclass = 5", fillcolor="#fdeefa"] ;
215 -> 216 ;
217 [label="Attendace <= 18.5\ngini = 0.746\nsamples = 13\nvalue = [2, 3, 1, 2, 5]\nclass = 5", fillcolor="#fad7f2"] ;
216 -> 217 ;
218 [label="Gender <= 2.5\ngini = 0.736\nsamples = 12\nvalue = [2, 2, 1, 2, 5]\nclass = 5", fillcolor="#f7c4ec"] ;
217 -> 218 ;
219 [label="Attendace <= 16.5\ngini = 0.776\nsamples = 7\nvalue = [2, 1, 1, 1, 2]\nclass = 1", fillcolor="#ffffff"] ;
218 -> 219 ;
220 [label="Attendace <= 11.5\ngini = 0.72\nsamples = 5\nvalue = [1, 0, 1, 1, 2]\nclass = 5", fillcolor="#f8ceef"] ;
219 -> 220 ;
221 [label="gini = 0.5\nsamples = 2\nvalue = [1, 0, 0, 0, 1]\nclass = 1", fillcolor="#ffffff"] ;
220 -> 221 ;
222 [label="Attendace <= 13.5\ngini = 0.667\nsamples = 3\nvalue = [0, 0, 1, 1, 1]\nclass = 3", fillcolor="#ffffff"] ;
220 -> 222 ;
223 [label="gini = 0.0\nsamples = 1\nvalue = [0, 0, 1, 0, 0]\nclass = 3", fillcolor="#39e5c5"] ;
222 -> 223 ;
224 [label="Attendace <= 15.0\ngini = 0.5\nsamples = 2\nvalue = [0, 0, 0, 1, 1]\nclass = 4", fillcolor="#ffffff"] ;
222 -> 224 ;
225 [label="gini = 0.0\nsamples = 1\nvalue = [0, 0, 0, 1, 0]\nclass = 4", fillcolor="#3c39e5"] ;
224 -> 225 ;
226 [label="gini = 0.0\nsamples = 1\nvalue = [0, 0, 0, 0, 1]\nclass = 5", fillcolor="#e539c0"] ;
224 -> 226 ;
227 [label="Attendace <= 17.5\ngini = 0.5\nsamples = 2\nvalue = [1, 1, 0, 0, 0]\nclass = 1", fillcolor="#ffffff"] ;
219 -> 227 ;
228 [label="gini = 0.0\nsamples = 1\nvalue = [0, 1, 0, 0, 0]\nclass = 2", fillcolor="#7be539"] ;
227 -> 228 ;
229 [label="gini = 0.0\nsamples = 1\nvalue = [1, 0, 0, 0, 0]\nclass = 1", fillcolor="#e58139"] ;
227 -> 229 ;
230 [label="Attendace <= 11.5\ngini = 0.56\nsamples = 5\nvalue = [0, 1, 0, 1, 3]\nclass = 5", fillcolor="#f29ce0"] ;
218 -> 230 ;
231 [label="gini = 0.0\nsamples = 1\nvalue = [0, 1, 0, 0, 0]\nclass = 2", fillcolor="#7be539"] ;
230 -> 231 ;
232 [label="Attendace <= 15.5\ngini = 0.375\nsamples = 4\nvalue = [0, 0, 0, 1, 3]\nclass = 5", fillcolor="#ee7bd5"] ;
230 -> 232 ;
233 [label="gini = 0.0\nsamples = 2\nvalue = [0, 0, 0, 0, 2]\nclass = 5", fillcolor="#e539c0"] ;
232 -> 233 ;
234 [label="Attendace <= 17.0\ngini = 0.5\nsamples = 2\nvalue = [0, 0, 0, 1, 1]\nclass = 4", fillcolor="#ffffff"] ;
232 -> 234 ;
235 [label="gini = 0.0\nsamples = 1\nvalue = [0, 0, 0, 1, 0]\nclass = 4", fillcolor="#3c39e5"] ;
234 -> 235 ;
236 [label="gini = 0.0\nsamples = 1\nvalue = [0, 0, 0, 0, 1]\nclass = 5", fillcolor="#e539c0"] ;
234 -> 236 ;
237 [label="gini = 0.0\nsamples = 1\nvalue = [0, 1, 0, 0, 0]\nclass = 2", fillcolor="#7be539"] ;
217 -> 237 ;
238 [label="Attendace <= 15.5\ngini = 0.444\nsamples = 3\nvalue = [0, 1, 0, 2, 0]\nclass = 4", fillcolor="#9e9cf2"] ;
216 -> 238 ;
239 [label="gini = 0.0\nsamples = 1\nvalue = [0, 1, 0, 0, 0]\nclass = 2", fillcolor="#7be539"] ;
238 -> 239 ;
240 [label="gini = 0.0\nsamples = 2\nvalue = [0, 0, 0, 2, 0]\nclass = 4", fillcolor="#3c39e5"] ;
238 -> 240 ;
241 [label="Tuition <= 1.5\ngini = 0.48\nsamples = 5\nvalue = [0, 0, 2, 0, 3]\nclass = 5", fillcolor="#f6bdea"] ;
215 -> 241 ;
242 [label="Gender <= 2.5\ngini = 0.444\nsamples = 3\nvalue = [0, 0, 1, 0, 2]\nclass = 5", fillcolor="#f29ce0"] ;
241 -> 242 ;
243 [label="gini = 0.0\nsamples = 1\nvalue = [0, 0, 1, 0, 0]\nclass = 3", fillcolor="#39e5c5"] ;
242 -> 243 ;
244 [label="gini = 0.0\nsamples = 2\nvalue = [0, 0, 0, 0, 2]\nclass = 5", fillcolor="#e539c0"] ;
242 -> 244 ;
245 [label="Gender <= 2.5\ngini = 0.5\nsamples = 2\nvalue = [0, 0, 1, 0, 1]\nclass = 3", fillcolor="#ffffff"] ;
241 -> 245 ;
246 [label="gini = 0.0\nsamples = 1\nvalue = [0, 0, 0, 0, 1]\nclass = 5", fillcolor="#e539c0"] ;
245 -> 246 ;
247 [label="gini = 0.0\nsamples = 1\nvalue = [0, 0, 1, 0, 0]\nclass = 3", fillcolor="#39e5c5"] ;
245 -> 247 ;
248 [label="Attendace <= 19.5\ngini = 0.787\nsamples = 19\nvalue = [5, 3, 5, 3, 3]\nclass = 1", fillcolor="#ffffff"] ;
186 -> 248 ;
249 [label="Term <= 0.5\ngini = 0.79\nsamples = 18\nvalue = [5, 3, 4, 3, 3]\nclass = 1", fillcolor="#fdf6f1"] ;
248 -> 249 ;
250 [label="Gender <= 2.5\ngini = 0.694\nsamples = 7\nvalue = [2, 1, 3, 0, 1]\nclass = 3", fillcolor="#d7faf3"] ;
249 -> 250 ;
251 [label="gini = 0.0\nsamples = 2\nvalue = [0, 0, 2, 0, 0]\nclass = 3", fillcolor="#39e5c5"] ;
250 -> 251 ;
252 [label="Attendace <= 16.0\ngini = 0.72\nsamples = 5\nvalue = [2, 1, 1, 0, 1]\nclass = 1", fillcolor="#f8e0ce"] ;
250 -> 252 ;
253 [label="gini = 0.0\nsamples = 2\nvalue = [2, 0, 0, 0, 0]\nclass = 1", fillcolor="#e58139"] ;
252 -> 253 ;
254 [label="Attendace <= 18.5\ngini = 0.667\nsamples = 3\nvalue = [0, 1, 1, 0, 1]\nclass = 2", fillcolor="#ffffff"] ;
252 -> 254 ;
255 [label="gini = 0.5\nsamples = 2\nvalue = [0, 0, 1, 0, 1]\nclass = 3", fillcolor="#ffffff"] ;
254 -> 255 ;
256 [label="gini = 0.0\nsamples = 1\nvalue = [0, 1, 0, 0, 0]\nclass = 2", fillcolor="#7be539"] ;
254 -> 256 ;
257 [label="Attendace <= 12.0\ngini = 0.777\nsamples = 11\nvalue = [3, 2, 1, 3, 2]\nclass = 1", fillcolor="#ffffff"] ;
249 -> 257 ;
258 [label="gini = 0.0\nsamples = 1\nvalue = [0, 1, 0, 0, 0]\nclass = 2", fillcolor="#7be539"] ;
257 -> 258 ;
259 [label="Attendace <= 14.5\ngini = 0.76\nsamples = 10\nvalue = [3, 1, 1, 3, 2]\nclass = 1", fillcolor="#ffffff"] ;
257 -> 259 ;
260 [label="gini = 0.0\nsamples = 1\nvalue = [0, 0, 0, 0, 1]\nclass = 5", fillcolor="#e539c0"] ;
259 -> 260 ;
261 [label="Gender <= 2.5\ngini = 0.741\nsamples = 9\nvalue = [3, 1, 1, 3, 1]\nclass = 1", fillcolor="#ffffff"] ;
259 -> 261 ;
262 [label="Attendace <= 17.0\ngini = 0.5\nsamples = 2\nvalue = [1, 0, 0, 0, 1]\nclass = 1", fillcolor="#ffffff"] ;
261 -> 262 ;
263 [label="gini = 0.0\nsamples = 1\nvalue = [1, 0, 0, 0, 0]\nclass = 1", fillcolor="#e58139"] ;
262 -> 263 ;
264 [label="gini = 0.0\nsamples = 1\nvalue = [0, 0, 0, 0, 1]\nclass = 5", fillcolor="#e539c0"] ;
262 -> 264 ;
265 [label="Attendace <= 18.5\ngini = 0.694\nsamples = 7\nvalue = [2, 1, 1, 3, 0]\nclass = 4", fillcolor="#d8d7fa"] ;
261 -> 265 ;
266 [label="Attendace <= 16.5\ngini = 0.667\nsamples = 6\nvalue = [1, 1, 1, 3, 0]\nclass = 4", fillcolor="#b1b0f5"] ;
265 -> 266 ;
267 [label="Attendace <= 15.5\ngini = 0.667\nsamples = 3\nvalue = [1, 0, 1, 1, 0]\nclass = 1", fillcolor="#ffffff"] ;
266 -> 267 ;
268 [label="gini = 0.0\nsamples = 1\nvalue = [0, 0, 0, 1, 0]\nclass = 4", fillcolor="#3c39e5"] ;
267 -> 268 ;
269 [label="gini = 0.5\nsamples = 2\nvalue = [1, 0, 1, 0, 0]\nclass = 1", fillcolor="#ffffff"] ;
267 -> 269 ;
270 [label="Attendace <= 17.5\ngini = 0.444\nsamples = 3\nvalue = [0, 1, 0, 2, 0]\nclass = 4", fillcolor="#9e9cf2"] ;
266 -> 270 ;
271 [label="gini = 0.0\nsamples = 1\nvalue = [0, 0, 0, 1, 0]\nclass = 4", fillcolor="#3c39e5"] ;
270 -> 271 ;
272 [label="gini = 0.5\nsamples = 2\nvalue = [0, 1, 0, 1, 0]\nclass = 2", fillcolor="#ffffff"] ;
270 -> 272 ;
273 [label="gini = 0.0\nsamples = 1\nvalue = [1, 0, 0, 0, 0]\nclass = 1", fillcolor="#e58139"] ;
265 -> 273 ;
274 [label="gini = 0.0\nsamples = 1\nvalue = [0, 0, 1, 0, 0]\nclass = 3", fillcolor="#39e5c5"] ;
248 -> 274 ;
275 [label="Tuition <= 2.5\ngini = 0.694\nsamples = 7\nvalue = [2, 1, 1, 3, 0]\nclass = 4", fillcolor="#d8d7fa"] ;
157 -> 275 ;
276 [label="Term <= 0.5\ngini = 0.75\nsamples = 4\nvalue = [1, 1, 1, 1, 0]\nclass = 1", fillcolor="#ffffff"] ;
275 -> 276 ;
277 [label="gini = 0.0\nsamples = 1\nvalue = [0, 0, 0, 1, 0]\nclass = 4", fillcolor="#3c39e5"] ;
276 -> 277 ;
278 [label="Gender <= 1.5\ngini = 0.667\nsamples = 3\nvalue = [1, 1, 1, 0, 0]\nclass = 1", fillcolor="#ffffff"] ;
276 -> 278 ;
279 [label="gini = 0.0\nsamples = 1\nvalue = [1, 0, 0, 0, 0]\nclass = 1", fillcolor="#e58139"] ;
278 -> 279 ;
280 [label="gini = 0.5\nsamples = 2\nvalue = [0, 1, 1, 0, 0]\nclass = 2", fillcolor="#ffffff"] ;
278 -> 280 ;
281 [label="Term <= 0.5\ngini = 0.444\nsamples = 3\nvalue = [1, 0, 0, 2, 0]\nclass = 4", fillcolor="#9e9cf2"] ;
275 -> 281 ;
282 [label="gini = 0.0\nsamples = 1\nvalue = [1, 0, 0, 0, 0]\nclass = 1", fillcolor="#e58139"] ;
281 -> 282 ;
283 [label="gini = 0.0\nsamples = 2\nvalue = [0, 0, 0, 2, 0]\nclass = 4", fillcolor="#3c39e5"] ;
281 -> 283 ;
284 [label="Gender <= 2.5\ngini = 0.625\nsamples = 8\nvalue = [0, 2, 4, 0, 2]\nclass = 3", fillcolor="#bdf6ec"] ;
156 -> 284 ;
285 [label="Tuition <= 1.5\ngini = 0.375\nsamples = 4\nvalue = [0, 0, 3, 0, 1]\nclass = 3", fillcolor="#7beed8"] ;
284 -> 285 ;
286 [label="Gender <= 1.5\ngini = 0.5\nsamples = 2\nvalue = [0, 0, 1, 0, 1]\nclass = 3", fillcolor="#ffffff"] ;
285 -> 286 ;
287 [label="gini = 0.0\nsamples = 1\nvalue = [0, 0, 0, 0, 1]\nclass = 5", fillcolor="#e539c0"] ;
286 -> 287 ;
288 [label="gini = 0.0\nsamples = 1\nvalue = [0, 0, 1, 0, 0]\nclass = 3", fillcolor="#39e5c5"] ;
286 -> 288 ;
289 [label="gini = 0.0\nsamples = 2\nvalue = [0, 0, 2, 0, 0]\nclass = 3", fillcolor="#39e5c5"] ;
285 -> 289 ;
290 [label="Term <= 0.5\ngini = 0.625\nsamples = 4\nvalue = [0, 2, 1, 0, 1]\nclass = 2", fillcolor="#d3f6bd"] ;
284 -> 290 ;
291 [label="Tuition <= 1.5\ngini = 0.444\nsamples = 3\nvalue = [0, 2, 0, 0, 1]\nclass = 2", fillcolor="#bdf29c"] ;
290 -> 291 ;
292 [label="gini = 0.0\nsamples = 1\nvalue = [0, 1, 0, 0, 0]\nclass = 2", fillcolor="#7be539"] ;
291 -> 292 ;
293 [label="Tuition <= 2.5\ngini = 0.5\nsamples = 2\nvalue = [0, 1, 0, 0, 1]\nclass = 2", fillcolor="#ffffff"] ;
291 -> 293 ;
294 [label="gini = 0.0\nsamples = 1\nvalue = [0, 0, 0, 0, 1]\nclass = 5", fillcolor="#e539c0"] ;
293 -> 294 ;
295 [label="gini = 0.0\nsamples = 1\nvalue = [0, 1, 0, 0, 0]\nclass = 2", fillcolor="#7be539"] ;
293 -> 295 ;
296 [label="gini = 0.0\nsamples = 1\nvalue = [0, 0, 1, 0, 0]\nclass = 3", fillcolor="#39e5c5"] ;
290 -> 296 ;
297 [label="Attendace <= 27.5\ngini = 0.776\nsamples = 70\nvalue = [9, 13, 21, 18, 9]\nclass = 3", fillcolor="#f4fefc"] ;
3 -> 297 ;
298 [label="Gender <= 2.5\ngini = 0.753\nsamples = 58\nvalue = [6, 11, 21, 14, 6]\nclass = 3", fillcolor="#e0fbf6"] ;
297 -> 298 ;
299 [label="Term <= 0.5\ngini = 0.757\nsamples = 39\nvalue = [6, 8, 12, 11, 2]\nclass = 3", fillcolor="#f8fefd"] ;
298 -> 299 ;
300 [label="Tuition <= 2.5\ngini = 0.682\nsamples = 22\nvalue = [1, 4, 6, 10, 1]\nclass = 4", fillcolor="#cecef8"] ;
299 -> 300 ;
301 [label="Attendace <= 26.5\ngini = 0.531\nsamples = 14\nvalue = [0, 3, 1, 9, 1]\nclass = 4", fillcolor="#9593f1"] ;
300 -> 301 ;
302 [label="Class <= 0.5\ngini = 0.346\nsamples = 9\nvalue = [0, 2, 0, 7, 0]\nclass = 4", fillcolor="#7472ec"] ;
301 -> 302 ;
303 [label="gini = 0.0\nsamples = 7\nvalue = [0, 0, 0, 7, 0]\nclass = 4", fillcolor="#3c39e5"] ;
302 -> 303 ;
304 [label="gini = 0.0\nsamples = 2\nvalue = [0, 2, 0, 0, 0]\nclass = 2", fillcolor="#7be539"] ;
302 -> 304 ;
305 [label="Class <= 0.5\ngini = 0.72\nsamples = 5\nvalue = [0, 1, 1, 2, 1]\nclass = 4", fillcolor="#cecef8"] ;
301 -> 305 ;
306 [label="Gender <= 1.5\ngini = 0.667\nsamples = 3\nvalue = [0, 1, 1, 0, 1]\nclass = 2", fillcolor="#ffffff"] ;
305 -> 306 ;
307 [label="gini = 0.0\nsamples = 1\nvalue = [0, 0, 1, 0, 0]\nclass = 3", fillcolor="#39e5c5"] ;
306 -> 307 ;
308 [label="gini = 0.5\nsamples = 2\nvalue = [0, 1, 0, 0, 1]\nclass = 2", fillcolor="#ffffff"] ;
306 -> 308 ;
309 [label="gini = 0.0\nsamples = 2\nvalue = [0, 0, 0, 2, 0]\nclass = 4", fillcolor="#3c39e5"] ;
305 -> 309 ;
310 [label="Class <= 0.5\ngini = 0.562\nsamples = 8\nvalue = [1, 1, 5, 1, 0]\nclass = 3", fillcolor="#8ef0de"] ;
300 -> 310 ;
311 [label="Gender <= 1.5\ngini = 0.667\nsamples = 3\nvalue = [1, 1, 1, 0, 0]\nclass = 1", fillcolor="#ffffff"] ;
310 -> 311 ;
312 [label="gini = 0.0\nsamples = 1\nvalue = [1, 0, 0, 0, 0]\nclass = 1", fillcolor="#e58139"] ;
311 -> 312 ;
313 [label="Attendace <= 26.0\ngini = 0.5\nsamples = 2\nvalue = [0, 1, 1, 0, 0]\nclass = 2", fillcolor="#ffffff"] ;
311 -> 313 ;
314 [label="gini = 0.0\nsamples = 1\nvalue = [0, 0, 1, 0, 0]\nclass = 3", fillcolor="#39e5c5"] ;
313 -> 314 ;
315 [label="gini = 0.0\nsamples = 1\nvalue = [0, 1, 0, 0, 0]\nclass = 2", fillcolor="#7be539"] ;
313 -> 315 ;
316 [label="Gender <= 1.5\ngini = 0.32\nsamples = 5\nvalue = [0, 0, 4, 1, 0]\nclass = 3", fillcolor="#6aecd4"] ;
310 -> 316 ;
317 [label="gini = 0.0\nsamples = 3\nvalue = [0, 0, 3, 0, 0]\nclass = 3", fillcolor="#39e5c5"] ;
316 -> 317 ;
318 [label="Attendace <= 26.0\ngini = 0.5\nsamples = 2\nvalue = [0, 0, 1, 1, 0]\nclass = 3", fillcolor="#ffffff"] ;
316 -> 318 ;
319 [label="gini = 0.0\nsamples = 1\nvalue = [0, 0, 0, 1, 0]\nclass = 4", fillcolor="#3c39e5"] ;
318 -> 319 ;
320 [label="gini = 0.0\nsamples = 1\nvalue = [0, 0, 1, 0, 0]\nclass = 3", fillcolor="#39e5c5"] ;
318 -> 320 ;
321 [label="Tuition <= 1.5\ngini = 0.727\nsamples = 17\nvalue = [5, 4, 6, 1, 1]\nclass = 3", fillcolor="#eefdfa"] ;
299 -> 321 ;
322 [label="Attendace <= 25.5\ngini = 0.562\nsamples = 8\nvalue = [1, 1, 5, 1, 0]\nclass = 3", fillcolor="#8ef0de"] ;
321 -> 322 ;
323 [label="Attendace <= 24.5\ngini = 0.667\nsamples = 3\nvalue = [1, 1, 0, 1, 0]\nclass = 1", fillcolor="#ffffff"] ;
322 -> 323 ;
324 [label="Gender <= 1.5\ngini = 0.5\nsamples = 2\nvalue = [1, 1, 0, 0, 0]\nclass = 1", fillcolor="#ffffff"] ;
323 -> 324 ;
325 [label="gini = 0.0\nsamples = 1\nvalue = [1, 0, 0, 0, 0]\nclass = 1", fillcolor="#e58139"] ;
324 -> 325 ;
326 [label="gini = 0.0\nsamples = 1\nvalue = [0, 1, 0, 0, 0]\nclass = 2", fillcolor="#7be539"] ;
324 -> 326 ;
327 [label="gini = 0.0\nsamples = 1\nvalue = [0, 0, 0, 1, 0]\nclass = 4", fillcolor="#3c39e5"] ;
323 -> 327 ;
328 [label="gini = 0.0\nsamples = 5\nvalue = [0, 0, 5, 0, 0]\nclass = 3", fillcolor="#39e5c5"] ;
322 -> 328 ;
329 [label="Attendace <= 26.5\ngini = 0.667\nsamples = 9\nvalue = [4, 3, 1, 0, 1]\nclass = 1", fillcolor="#fbeade"] ;
321 -> 329 ;
330 [label="Class <= 0.5\ngini = 0.612\nsamples = 7\nvalue = [4, 1, 1, 0, 1]\nclass = 1", fillcolor="#f2c09c"] ;
329 -> 330 ;
331 [label="Tuition <= 2.5\ngini = 0.375\nsamples = 4\nvalue = [3, 1, 0, 0, 0]\nclass = 1", fillcolor="#eeab7b"] ;
330 -> 331 ;
332 [label="gini = 0.5\nsamples = 2\nvalue = [1, 1, 0, 0, 0]\nclass = 1", fillcolor="#ffffff"] ;
331 -> 332 ;
333 [label="gini = 0.0\nsamples = 2\nvalue = [2, 0, 0, 0, 0]\nclass = 1", fillcolor="#e58139"] ;
331 -> 333 ;
334 [label="Gender <= 1.5\ngini = 0.667\nsamples = 3\nvalue = [1, 0, 1, 0, 1]\nclass = 1", fillcolor="#ffffff"] ;
330 -> 334 ;
335 [label="gini = 0.0\nsamples = 1\nvalue = [0, 0, 1, 0, 0]\nclass = 3", fillcolor="#39e5c5"] ;
334 -> 335 ;
336 [label="Attendace <= 25.5\ngini = 0.5\nsamples = 2\nvalue = [1, 0, 0, 0, 1]\nclass = 1", fillcolor="#ffffff"] ;
334 -> 336 ;
337 [label="gini = 0.0\nsamples = 1\nvalue = [1, 0, 0, 0, 0]\nclass = 1", fillcolor="#e58139"] ;
336 -> 337 ;
338 [label="gini = 0.0\nsamples = 1\nvalue = [0, 0, 0, 0, 1]\nclass = 5", fillcolor="#e539c0"] ;
336 -> 338 ;
339 [label="gini = 0.0\nsamples = 2\nvalue = [0, 2, 0, 0, 0]\nclass = 2", fillcolor="#7be539"] ;
329 -> 339 ;
340 [label="Tuition <= 1.5\ngini = 0.681\nsamples = 19\nvalue = [0, 3, 9, 3, 4]\nclass = 3", fillcolor="#bdf6ec"] ;
298 -> 340 ;
341 [label="Attendace <= 24.5\ngini = 0.48\nsamples = 5\nvalue = [0, 0, 3, 0, 2]\nclass = 3", fillcolor="#bdf6ec"] ;
340 -> 341 ;
342 [label="gini = 0.0\nsamples = 1\nvalue = [0, 0, 1, 0, 0]\nclass = 3", fillcolor="#39e5c5"] ;
341 -> 342 ;
343 [label="Term <= 0.5\ngini = 0.5\nsamples = 4\nvalue = [0, 0, 2, 0, 2]\nclass = 3", fillcolor="#ffffff"] ;
341 -> 343 ;
344 [label="gini = 0.0\nsamples = 1\nvalue = [0, 0, 0, 0, 1]\nclass = 5", fillcolor="#e539c0"] ;
343 -> 344 ;
345 [label="Attendace <= 26.0\ngini = 0.444\nsamples = 3\nvalue = [0, 0, 2, 0, 1]\nclass = 3", fillcolor="#9cf2e2"] ;
343 -> 345 ;
346 [label="gini = 0.5\nsamples = 2\nvalue = [0, 0, 1, 0, 1]\nclass = 3", fillcolor="#ffffff"] ;
345 -> 346 ;
347 [label="gini = 0.0\nsamples = 1\nvalue = [0, 0, 1, 0, 0]\nclass = 3", fillcolor="#39e5c5"] ;
345 -> 347 ;
348 [label="Term <= 0.5\ngini = 0.704\nsamples = 14\nvalue = [0, 3, 6, 3, 2]\nclass = 3", fillcolor="#c9f8ef"] ;
340 -> 348 ;
349 [label="Attendace <= 25.5\ngini = 0.66\nsamples = 10\nvalue = [0, 2, 5, 1, 2]\nclass = 3", fillcolor="#b5f5e9"] ;
348 -> 349 ;
350 [label="Attendace <= 24.5\ngini = 0.5\nsamples = 2\nvalue = [0, 0, 1, 1, 0]\nclass = 3", fillcolor="#ffffff"] ;
349 -> 350 ;
351 [label="gini = 0.0\nsamples = 1\nvalue = [0, 0, 1, 0, 0]\nclass = 3", fillcolor="#39e5c5"] ;
350 -> 351 ;
352 [label="gini = 0.0\nsamples = 1\nvalue = [0, 0, 0, 1, 0]\nclass = 4", fillcolor="#3c39e5"] ;
350 -> 352 ;
353 [label="Attendace <= 26.5\ngini = 0.625\nsamples = 8\nvalue = [0, 2, 4, 0, 2]\nclass = 3", fillcolor="#bdf6ec"] ;
349 -> 353 ;
354 [label="Tuition <= 2.5\ngini = 0.64\nsamples = 5\nvalue = [0, 1, 2, 0, 2]\nclass = 3", fillcolor="#ffffff"] ;
353 -> 354 ;
355 [label="gini = 0.444\nsamples = 3\nvalue = [0, 0, 2, 0, 1]\nclass = 3", fillcolor="#9cf2e2"] ;
354 -> 355 ;
356 [label="Class <= 0.5\ngini = 0.5\nsamples = 2\nvalue = [0, 1, 0, 0, 1]\nclass = 2", fillcolor="#ffffff"] ;
354 -> 356 ;
357 [label="gini = 0.0\nsamples = 1\nvalue = [0, 1, 0, 0, 0]\nclass = 2", fillcolor="#7be539"] ;
356 -> 357 ;
358 [label="gini = 0.0\nsamples = 1\nvalue = [0, 0, 0, 0, 1]\nclass = 5", fillcolor="#e539c0"] ;
356 -> 358 ;
359 [label="Class <= 0.5\ngini = 0.444\nsamples = 3\nvalue = [0, 1, 2, 0, 0]\nclass = 3", fillcolor="#9cf2e2"] ;
353 -> 359 ;
360 [label="gini = 0.5\nsamples = 2\nvalue = [0, 1, 1, 0, 0]\nclass = 2", fillcolor="#ffffff"] ;
359 -> 360 ;
361 [label="gini = 0.0\nsamples = 1\nvalue = [0, 0, 1, 0, 0]\nclass = 3", fillcolor="#39e5c5"] ;
359 -> 361 ;
362 [label="Attendace <= 25.5\ngini = 0.625\nsamples = 4\nvalue = [0, 1, 1, 2, 0]\nclass = 4", fillcolor="#bebdf6"] ;
348 -> 362 ;
363 [label="Class <= 0.5\ngini = 0.667\nsamples = 3\nvalue = [0, 1, 1, 1, 0]\nclass = 2", fillcolor="#ffffff"] ;
362 -> 363 ;
364 [label="gini = 0.5\nsamples = 2\nvalue = [0, 1, 1, 0, 0]\nclass = 2", fillcolor="#ffffff"] ;
363 -> 364 ;
365 [label="gini = 0.0\nsamples = 1\nvalue = [0, 0, 0, 1, 0]\nclass = 4", fillcolor="#3c39e5"] ;
363 -> 365 ;
366 [label="gini = 0.0\nsamples = 1\nvalue = [0, 0, 0, 1, 0]\nclass = 4", fillcolor="#3c39e5"] ;
362 -> 366 ;
367 [label="Gender <= 2.5\ngini = 0.736\nsamples = 12\nvalue = [3, 2, 0, 4, 3]\nclass = 4", fillcolor="#e9e9fc"] ;
297 -> 367 ;
368 [label="Tuition <= 2.5\ngini = 0.611\nsamples = 6\nvalue = [0, 1, 0, 3, 2]\nclass = 4", fillcolor="#cecef8"] ;
367 -> 368 ;
369 [label="Tuition <= 1.5\ngini = 0.375\nsamples = 4\nvalue = [0, 0, 0, 3, 1]\nclass = 4", fillcolor="#7d7bee"] ;
368 -> 369 ;
370 [label="Gender <= 1.5\ngini = 0.5\nsamples = 2\nvalue = [0, 0, 0, 1, 1]\nclass = 4", fillcolor="#ffffff"] ;
369 -> 370 ;
371 [label="gini = 0.0\nsamples = 1\nvalue = [0, 0, 0, 0, 1]\nclass = 5", fillcolor="#e539c0"] ;
370 -> 371 ;
372 [label="gini = 0.0\nsamples = 1\nvalue = [0, 0, 0, 1, 0]\nclass = 4", fillcolor="#3c39e5"] ;
370 -> 372 ;
373 [label="gini = 0.0\nsamples = 2\nvalue = [0, 0, 0, 2, 0]\nclass = 4", fillcolor="#3c39e5"] ;
369 -> 373 ;
374 [label="Class <= 0.5\ngini = 0.5\nsamples = 2\nvalue = [0, 1, 0, 0, 1]\nclass = 2", fillcolor="#ffffff"] ;
368 -> 374 ;
375 [label="gini = 0.0\nsamples = 1\nvalue = [0, 1, 0, 0, 0]\nclass = 2", fillcolor="#7be539"] ;
374 -> 375 ;
376 [label="gini = 0.0\nsamples = 1\nvalue = [0, 0, 0, 0, 1]\nclass = 5", fillcolor="#e539c0"] ;
374 -> 376 ;
377 [label="Term <= 0.5\ngini = 0.667\nsamples = 6\nvalue = [3, 1, 0, 1, 1]\nclass = 1", fillcolor="#f5cdb0"] ;
367 -> 377 ;
378 [label="gini = 0.0\nsamples = 1\nvalue = [0, 0, 0, 1, 0]\nclass = 4", fillcolor="#3c39e5"] ;
377 -> 378 ;
379 [label="Class <= 0.5\ngini = 0.56\nsamples = 5\nvalue = [3, 1, 0, 0, 1]\nclass = 1", fillcolor="#f2c09c"] ;
377 -> 379 ;
380 [label="gini = 0.0\nsamples = 2\nvalue = [2, 0, 0, 0, 0]\nclass = 1", fillcolor="#e58139"] ;
379 -> 380 ;
381 [label="Tuition <= 1.5\ngini = 0.667\nsamples = 3\nvalue = [1, 1, 0, 0, 1]\nclass = 1", fillcolor="#ffffff"] ;
379 -> 381 ;
382 [label="gini = 0.0\nsamples = 1\nvalue = [0, 0, 0, 0, 1]\nclass = 5", fillcolor="#e539c0"] ;
381 -> 382 ;
383 [label="Tuition <= 2.5\ngini = 0.5\nsamples = 2\nvalue = [1, 1, 0, 0, 0]\nclass = 1", fillcolor="#ffffff"] ;
381 -> 383 ;
384 [label="gini = 0.0\nsamples = 1\nvalue = [0, 1, 0, 0, 0]\nclass = 2", fillcolor="#7be539"] ;
383 -> 384 ;
385 [label="gini = 0.0\nsamples = 1\nvalue = [1, 0, 0, 0, 0]\nclass = 1", fillcolor="#e58139"] ;
383 -> 385 ;
386 [label="Gender <= 2.5\ngini = 0.519\nsamples = 362\nvalue = [31, 31, 244, 29, 27]\nclass = 3", fillcolor="#80eeda"] ;
2 -> 386 ;
387 [label="Gender <= 1.5\ngini = 0.399\nsamples = 312\nvalue = [18, 23, 239, 18, 14]\nclass = 3", fillcolor="#6becd4"] ;
386 -> 387 ;
388 [label="Attendace <= 35.5\ngini = 0.793\nsamples = 43\nvalue = [9, 6, 9, 11, 8]\nclass = 4", fillcolor="#f4f3fd"] ;
387 -> 388 ;
389 [label="Class <= 0.5\ngini = 0.773\nsamples = 37\nvalue = [9, 3, 8, 11, 6]\nclass = 4", fillcolor="#f1f1fd"] ;
388 -> 389 ;
390 [label="Term <= 0.5\ngini = 0.649\nsamples = 15\nvalue = [2, 1, 3, 8, 1]\nclass = 4", fillcolor="#aeacf4"] ;
389 -> 390 ;
391 [label="Tuition <= 2.5\ngini = 0.765\nsamples = 9\nvalue = [2, 1, 3, 2, 1]\nclass = 3", fillcolor="#e3fbf7"] ;
390 -> 391 ;
392 [label="Tuition <= 1.5\ngini = 0.64\nsamples = 5\nvalue = [2, 1, 0, 2, 0]\nclass = 1", fillcolor="#ffffff"] ;
391 -> 392 ;
393 [label="gini = 0.0\nsamples = 2\nvalue = [2, 0, 0, 0, 0]\nclass = 1", fillcolor="#e58139"] ;
392 -> 393 ;
394 [label="Attendace <= 29.5\ngini = 0.444\nsamples = 3\nvalue = [0, 1, 0, 2, 0]\nclass = 4", fillcolor="#9e9cf2"] ;
392 -> 394 ;
395 [label="gini = 0.0\nsamples = 1\nvalue = [0, 1, 0, 0, 0]\nclass = 2", fillcolor="#7be539"] ;
394 -> 395 ;
396 [label="gini = 0.0\nsamples = 2\nvalue = [0, 0, 0, 2, 0]\nclass = 4", fillcolor="#3c39e5"] ;
394 -> 396 ;
397 [label="Attendace <= 30.0\ngini = 0.375\nsamples = 4\nvalue = [0, 0, 3, 0, 1]\nclass = 3", fillcolor="#7beed8"] ;
391 -> 397 ;
398 [label="gini = 0.0\nsamples = 2\nvalue = [0, 0, 2, 0, 0]\nclass = 3", fillcolor="#39e5c5"] ;
397 -> 398 ;
399 [label="Attendace <= 33.0\ngini = 0.5\nsamples = 2\nvalue = [0, 0, 1, 0, 1]\nclass = 3", fillcolor="#ffffff"] ;
397 -> 399 ;
400 [label="gini = 0.0\nsamples = 1\nvalue = [0, 0, 0, 0, 1]\nclass = 5", fillcolor="#e539c0"] ;
399 -> 400 ;
401 [label="gini = 0.0\nsamples = 1\nvalue = [0, 0, 1, 0, 0]\nclass = 3", fillcolor="#39e5c5"] ;
399 -> 401 ;
402 [label="gini = 0.0\nsamples = 6\nvalue = [0, 0, 0, 6, 0]\nclass = 4", fillcolor="#3c39e5"] ;
390 -> 402 ;
403 [label="Term <= 0.5\ngini = 0.769\nsamples = 22\nvalue = [7, 2, 5, 3, 5]\nclass = 1", fillcolor="#fcf0e8"] ;
389 -> 403 ;
404 [label="Attendace <= 29.5\ngini = 0.594\nsamples = 8\nvalue = [4, 1, 0, 0, 3]\nclass = 1", fillcolor="#fae6d7"] ;
403 -> 404 ;
405 [label="gini = 0.0\nsamples = 1\nvalue = [0, 1, 0, 0, 0]\nclass = 2", fillcolor="#7be539"] ;
404 -> 405 ;
406 [label="Tuition <= 1.5\ngini = 0.49\nsamples = 7\nvalue = [4, 0, 0, 0, 3]\nclass = 1", fillcolor="#f8e0ce"] ;
404 -> 406 ;
407 [label="gini = 0.0\nsamples = 2\nvalue = [2, 0, 0, 0, 0]\nclass = 1", fillcolor="#e58139"] ;
406 -> 407 ;
408 [label="Tuition <= 2.5\ngini = 0.48\nsamples = 5\nvalue = [2, 0, 0, 0, 3]\nclass = 5", fillcolor="#f6bdea"] ;
406 -> 408 ;
409 [label="gini = 0.0\nsamples = 2\nvalue = [0, 0, 0, 0, 2]\nclass = 5", fillcolor="#e539c0"] ;
408 -> 409 ;
410 [label="Attendace <= 30.5\ngini = 0.444\nsamples = 3\nvalue = [2, 0, 0, 0, 1]\nclass = 1", fillcolor="#f2c09c"] ;
408 -> 410 ;
411 [label="gini = 0.0\nsamples = 1\nvalue = [0, 0, 0, 0, 1]\nclass = 5", fillcolor="#e539c0"] ;
410 -> 411 ;
412 [label="gini = 0.0\nsamples = 2\nvalue = [2, 0, 0, 0, 0]\nclass = 1", fillcolor="#e58139"] ;
410 -> 412 ;
413 [label="Attendace <= 34.5\ngini = 0.755\nsamples = 14\nvalue = [3, 1, 5, 3, 2]\nclass = 3", fillcolor="#dbfaf4"] ;
403 -> 413 ;
414 [label="Attendace <= 30.5\ngini = 0.708\nsamples = 12\nvalue = [2, 0, 5, 3, 2]\nclass = 3", fillcolor="#d3f9f2"] ;
413 -> 414 ;
415 [label="Tuition <= 2.5\ngini = 0.625\nsamples = 4\nvalue = [1, 0, 1, 2, 0]\nclass = 4", fillcolor="#bebdf6"] ;
414 -> 415 ;
416 [label="Tuition <= 1.5\ngini = 0.444\nsamples = 3\nvalue = [1, 0, 0, 2, 0]\nclass = 4", fillcolor="#9e9cf2"] ;
415 -> 416 ;
417 [label="gini = 0.0\nsamples = 1\nvalue = [0, 0, 0, 1, 0]\nclass = 4", fillcolor="#3c39e5"] ;
416 -> 417 ;
418 [label="gini = 0.5\nsamples = 2\nvalue = [1, 0, 0, 1, 0]\nclass = 1", fillcolor="#ffffff"] ;
416 -> 418 ;
419 [label="gini = 0.0\nsamples = 1\nvalue = [0, 0, 1, 0, 0]\nclass = 3", fillcolor="#39e5c5"] ;
415 -> 419 ;
420 [label="Attendace <= 32.5\ngini = 0.656\nsamples = 8\nvalue = [1, 0, 4, 1, 2]\nclass = 3", fillcolor="#bdf6ec"] ;
414 -> 420 ;
421 [label="Attendace <= 31.5\ngini = 0.444\nsamples = 3\nvalue = [0, 0, 1, 0, 2]\nclass = 5", fillcolor="#f29ce0"] ;
420 -> 421 ;
422 [label="Tuition <= 2.0\ngini = 0.5\nsamples = 2\nvalue = [0, 0, 1, 0, 1]\nclass = 3", fillcolor="#ffffff"] ;
421 -> 422 ;
423 [label="gini = 0.0\nsamples = 1\nvalue = [0, 0, 1, 0, 0]\nclass = 3", fillcolor="#39e5c5"] ;
422 -> 423 ;
424 [label="gini = 0.0\nsamples = 1\nvalue = [0, 0, 0, 0, 1]\nclass = 5", fillcolor="#e539c0"] ;
422 -> 424 ;
425 [label="gini = 0.0\nsamples = 1\nvalue = [0, 0, 0, 0, 1]\nclass = 5", fillcolor="#e539c0"] ;
421 -> 425 ;
426 [label="Attendace <= 33.5\ngini = 0.56\nsamples = 5\nvalue = [1, 0, 3, 1, 0]\nclass = 3", fillcolor="#9cf2e2"] ;
420 -> 426 ;
427 [label="gini = 0.0\nsamples = 2\nvalue = [0, 0, 2, 0, 0]\nclass = 3", fillcolor="#39e5c5"] ;
426 -> 427 ;
428 [label="Tuition <= 2.0\ngini = 0.667\nsamples = 3\nvalue = [1, 0, 1, 1, 0]\nclass = 1", fillcolor="#ffffff"] ;
426 -> 428 ;
429 [label="gini = 0.0\nsamples = 1\nvalue = [0, 0, 0, 1, 0]\nclass = 4", fillcolor="#3c39e5"] ;
428 -> 429 ;
430 [label="gini = 0.5\nsamples = 2\nvalue = [1, 0, 1, 0, 0]\nclass = 1", fillcolor="#ffffff"] ;
428 -> 430 ;
431 [label="Tuition <= 2.5\ngini = 0.5\nsamples = 2\nvalue = [1, 1, 0, 0, 0]\nclass = 1", fillcolor="#ffffff"] ;
413 -> 431 ;
432 [label="gini = 0.0\nsamples = 1\nvalue = [0, 1, 0, 0, 0]\nclass = 2", fillcolor="#7be539"] ;
431 -> 432 ;
433 [label="gini = 0.0\nsamples = 1\nvalue = [1, 0, 0, 0, 0]\nclass = 1", fillcolor="#e58139"] ;
431 -> 433 ;
434 [label="Tuition <= 1.5\ngini = 0.611\nsamples = 6\nvalue = [0, 3, 1, 0, 2]\nclass = 2", fillcolor="#def8ce"] ;
388 -> 434 ;
435 [label="gini = 0.5\nsamples = 2\nvalue = [0, 0, 1, 0, 1]\nclass = 3", fillcolor="#ffffff"] ;
434 -> 435 ;
436 [label="Tuition <= 2.5\ngini = 0.375\nsamples = 4\nvalue = [0, 3, 0, 0, 1]\nclass = 2", fillcolor="#a7ee7b"] ;
434 -> 436 ;
437 [label="gini = 0.444\nsamples = 3\nvalue = [0, 2, 0, 0, 1]\nclass = 2", fillcolor="#bdf29c"] ;
436 -> 437 ;
438 [label="gini = 0.0\nsamples = 1\nvalue = [0, 1, 0, 0, 0]\nclass = 2", fillcolor="#7be539"] ;
436 -> 438 ;
439 [label="Attendace <= 35.5\ngini = 0.263\nsamples = 269\nvalue = [9, 17, 230, 7, 6]\nclass = 3", fillcolor="#58e9ce"] ;
387 -> 439 ;
440 [label="Tuition <= 2.5\ngini = 0.168\nsamples = 225\nvalue = [8, 3, 205, 4, 5]\nclass = 3", fillcolor="#4be7ca"] ;
439 -> 440 ;
441 [label="Tuition <= 1.5\ngini = 0.099\nsamples = 214\nvalue = [3, 1, 203, 3, 4]\nclass = 3", fillcolor="#43e6c8"] ;
440 -> 441 ;
442 [label="Attendace <= 33.0\ngini = 0.76\nsamples = 10\nvalue = [3, 1, 3, 1, 2]\nclass = 1", fillcolor="#ffffff"] ;
441 -> 442 ;
443 [label="Term <= 0.5\ngini = 0.612\nsamples = 7\nvalue = [3, 1, 3, 0, 0]\nclass = 1", fillcolor="#ffffff"] ;
442 -> 443 ;
444 [label="gini = 0.0\nsamples = 1\nvalue = [1, 0, 0, 0, 0]\nclass = 1", fillcolor="#e58139"] ;
443 -> 444 ;
445 [label="Class <= 0.5\ngini = 0.611\nsamples = 6\nvalue = [2, 1, 3, 0, 0]\nclass = 3", fillcolor="#cef8f0"] ;
443 -> 445 ;
446 [label="Attendace <= 30.5\ngini = 0.444\nsamples = 3\nvalue = [1, 0, 2, 0, 0]\nclass = 3", fillcolor="#9cf2e2"] ;
445 -> 446 ;
447 [label="gini = 0.5\nsamples = 2\nvalue = [1, 0, 1, 0, 0]\nclass = 1", fillcolor="#ffffff"] ;
446 -> 447 ;
448 [label="gini = 0.0\nsamples = 1\nvalue = [0, 0, 1, 0, 0]\nclass = 3", fillcolor="#39e5c5"] ;
446 -> 448 ;
449 [label="Attendace <= 31.5\ngini = 0.667\nsamples = 3\nvalue = [1, 1, 1, 0, 0]\nclass = 1", fillcolor="#ffffff"] ;
445 -> 449 ;
450 [label="gini = 0.0\nsamples = 1\nvalue = [0, 1, 0, 0, 0]\nclass = 2", fillcolor="#7be539"] ;
449 -> 450 ;
451 [label="gini = 0.5\nsamples = 2\nvalue = [1, 0, 1, 0, 0]\nclass = 1", fillcolor="#ffffff"] ;
449 -> 451 ;
452 [label="Attendace <= 34.5\ngini = 0.444\nsamples = 3\nvalue = [0, 0, 0, 1, 2]\nclass = 5", fillcolor="#f29ce0"] ;
442 -> 452 ;
453 [label="Term <= 0.5\ngini = 0.5\nsamples = 2\nvalue = [0, 0, 0, 1, 1]\nclass = 4", fillcolor="#ffffff"] ;
452 -> 453 ;
454 [label="gini = 0.0\nsamples = 1\nvalue = [0, 0, 0, 1, 0]\nclass = 4", fillcolor="#3c39e5"] ;
453 -> 454 ;
455 [label="gini = 0.0\nsamples = 1\nvalue = [0, 0, 0, 0, 1]\nclass = 5", fillcolor="#e539c0"] ;
453 -> 455 ;
456 [label="gini = 0.0\nsamples = 1\nvalue = [0, 0, 0, 0, 1]\nclass = 5", fillcolor="#e539c0"] ;
452 -> 456 ;
457 [label="Term <= 0.5\ngini = 0.039\nsamples = 204\nvalue = [0, 0, 200, 2, 2]\nclass = 3", fillcolor="#3de6c6"] ;
441 -> 457 ;
458 [label="Attendace <= 31.5\ngini = 0.147\nsamples = 25\nvalue = [0, 0, 23, 2, 0]\nclass = 3", fillcolor="#4ae7ca"] ;
457 -> 458 ;
459 [label="gini = 0.0\nsamples = 23\nvalue = [0, 0, 23, 0, 0]\nclass = 3", fillcolor="#39e5c5"] ;
458 -> 459 ;
460 [label="gini = 0.0\nsamples = 2\nvalue = [0, 0, 0, 2, 0]\nclass = 4", fillcolor="#3c39e5"] ;
458 -> 460 ;
461 [label="Class <= 0.5\ngini = 0.022\nsamples = 179\nvalue = [0, 0, 177, 0, 2]\nclass = 3", fillcolor="#3be5c6"] ;
457 -> 461 ;
462 [label="Attendace <= 34.5\ngini = 0.045\nsamples = 86\nvalue = [0, 0, 84, 0, 2]\nclass = 3", fillcolor="#3ee6c6"] ;
461 -> 462 ;
463 [label="Attendace <= 33.5\ngini = 0.073\nsamples = 53\nvalue = [0, 0, 51, 0, 2]\nclass = 3", fillcolor="#41e6c7"] ;
462 -> 463 ;
464 [label="Attendace <= 32.5\ngini = 0.043\nsamples = 45\nvalue = [0, 0, 44, 0, 1]\nclass = 3", fillcolor="#3de6c6"] ;
463 -> 464 ;
465 [label="Attendace <= 31.5\ngini = 0.064\nsamples = 30\nvalue = [0, 0, 29, 0, 1]\nclass = 3", fillcolor="#40e6c7"] ;
464 -> 465 ;
466 [label="gini = 0.0\nsamples = 12\nvalue = [0, 0, 12, 0, 0]\nclass = 3", fillcolor="#39e5c5"] ;
465 -> 466 ;
467 [label="gini = 0.105\nsamples = 18\nvalue = [0, 0, 17, 0, 1]\nclass = 3", fillcolor="#45e7c8"] ;
465 -> 467 ;
468 [label="gini = 0.0\nsamples = 15\nvalue = [0, 0, 15, 0, 0]\nclass = 3", fillcolor="#39e5c5"] ;
464 -> 468 ;
469 [label="gini = 0.219\nsamples = 8\nvalue = [0, 0, 7, 0, 1]\nclass = 3", fillcolor="#55e9cd"] ;
463 -> 469 ;
470 [label="gini = 0.0\nsamples = 33\nvalue = [0, 0, 33, 0, 0]\nclass = 3", fillcolor="#39e5c5"] ;
462 -> 470 ;
471 [label="gini = 0.0\nsamples = 93\nvalue = [0, 0, 93, 0, 0]\nclass = 3", fillcolor="#39e5c5"] ;
461 -> 471 ;
472 [label="Term <= 0.5\ngini = 0.711\nsamples = 11\nvalue = [5, 2, 2, 1, 1]\nclass = 1", fillcolor="#f6d5bd"] ;
440 -> 472 ;
473 [label="Class <= 0.5\ngini = 0.778\nsamples = 6\nvalue = [1, 1, 2, 1, 1]\nclass = 3", fillcolor="#d7faf3"] ;
472 -> 473 ;
474 [label="Attendace <= 30.5\ngini = 0.667\nsamples = 3\nvalue = [1, 0, 1, 1, 0]\nclass = 1", fillcolor="#ffffff"] ;
473 -> 474 ;
475 [label="gini = 0.0\nsamples = 1\nvalue = [0, 0, 1, 0, 0]\nclass = 3", fillcolor="#39e5c5"] ;
474 -> 475 ;
476 [label="Attendace <= 33.5\ngini = 0.5\nsamples = 2\nvalue = [1, 0, 0, 1, 0]\nclass = 1", fillcolor="#ffffff"] ;
474 -> 476 ;
477 [label="gini = 0.0\nsamples = 1\nvalue = [0, 0, 0, 1, 0]\nclass = 4", fillcolor="#3c39e5"] ;
476 -> 477 ;
478 [label="gini = 0.0\nsamples = 1\nvalue = [1, 0, 0, 0, 0]\nclass = 1", fillcolor="#e58139"] ;
476 -> 478 ;
479 [label="Attendace <= 34.0\ngini = 0.667\nsamples = 3\nvalue = [0, 1, 1, 0, 1]\nclass = 2", fillcolor="#ffffff"] ;
473 -> 479 ;
480 [label="gini = 0.0\nsamples = 1\nvalue = [0, 1, 0, 0, 0]\nclass = 2", fillcolor="#7be539"] ;
479 -> 480 ;
481 [label="gini = 0.5\nsamples = 2\nvalue = [0, 0, 1, 0, 1]\nclass = 3", fillcolor="#ffffff"] ;
479 -> 481 ;
482 [label="Attendace <= 33.0\ngini = 0.32\nsamples = 5\nvalue = [4, 1, 0, 0, 0]\nclass = 1", fillcolor="#eca06a"] ;
472 -> 482 ;
483 [label="gini = 0.0\nsamples = 4\nvalue = [4, 0, 0, 0, 0]\nclass = 1", fillcolor="#e58139"] ;
482 -> 483 ;
484 [label="gini = 0.0\nsamples = 1\nvalue = [0, 1, 0, 0, 0]\nclass = 2", fillcolor="#7be539"] ;
482 -> 484 ;
485 [label="Class <= 0.5\ngini = 0.57\nsamples = 44\nvalue = [1, 14, 25, 3, 1]\nclass = 3", fillcolor="#b6f5ea"] ;
439 -> 485 ;
486 [label="Term <= 0.5\ngini = 0.24\nsamples = 15\nvalue = [1, 0, 13, 1, 0]\nclass = 3", fillcolor="#55e9cd"] ;
485 -> 486 ;
487 [label="gini = 0.0\nsamples = 1\nvalue = [0, 0, 0, 1, 0]\nclass = 4", fillcolor="#3c39e5"] ;
486 -> 487 ;
488 [label="gini = 0.133\nsamples = 14\nvalue = [1, 0, 13, 0, 0]\nclass = 3", fillcolor="#48e7c9"] ;
486 -> 488 ;
489 [label="Term <= 0.5\ngini = 0.59\nsamples = 29\nvalue = [0, 14, 12, 2, 1]\nclass = 2", fillcolor="#effce8"] ;
485 -> 489 ;
490 [label="gini = 0.5\nsamples = 2\nvalue = [0, 0, 0, 1, 1]\nclass = 4", fillcolor="#ffffff"] ;
489 -> 490 ;
491 [label="Tuition <= 1.5\ngini = 0.532\nsamples = 27\nvalue = [0, 14, 12, 1, 0]\nclass = 2", fillcolor="#edfce5"] ;
489 -> 491 ;
492 [label="gini = 0.0\nsamples = 1\nvalue = [0, 0, 0, 1, 0]\nclass = 4", fillcolor="#3c39e5"] ;
491 -> 492 ;
493 [label="gini = 0.497\nsamples = 26\nvalue = [0, 14, 12, 0, 0]\nclass = 2", fillcolor="#ecfbe3"] ;
491 -> 493 ;
494 [label="Attendace <= 35.5\ngini = 0.781\nsamples = 50\nvalue = [13, 8, 5, 11, 13]\nclass = 1", fillcolor="#ffffff"] ;
386 -> 494 ;
495 [label="Class <= 0.5\ngini = 0.781\nsamples = 43\nvalue = [13, 7, 5, 9, 9]\nclass = 1", fillcolor="#fcf0e8"] ;
494 -> 495 ;
496 [label="Attendace <= 33.5\ngini = 0.772\nsamples = 18\nvalue = [4, 5, 2, 5, 2]\nclass = 2", fillcolor="#ffffff"] ;
495 -> 496 ;
497 [label="Tuition <= 1.5\ngini = 0.675\nsamples = 13\nvalue = [1, 5, 2, 5, 0]\nclass = 2", fillcolor="#ffffff"] ;
496 -> 497 ;
498 [label="Attendace <= 32.5\ngini = 0.32\nsamples = 5\nvalue = [0, 4, 0, 1, 0]\nclass = 2", fillcolor="#9cec6a"] ;
497 -> 498 ;
499 [label="gini = 0.0\nsamples = 3\nvalue = [0, 3, 0, 0, 0]\nclass = 2", fillcolor="#7be539"] ;
498 -> 499 ;
500 [label="gini = 0.5\nsamples = 2\nvalue = [0, 1, 0, 1, 0]\nclass = 2", fillcolor="#ffffff"] ;
498 -> 500 ;
501 [label="Term <= 0.5\ngini = 0.656\nsamples = 8\nvalue = [1, 1, 2, 4, 0]\nclass = 4", fillcolor="#bebdf6"] ;
497 -> 501 ;
502 [label="Attendace <= 31.5\ngini = 0.375\nsamples = 4\nvalue = [1, 0, 0, 3, 0]\nclass = 4", fillcolor="#7d7bee"] ;
501 -> 502 ;
503 [label="Attendace <= 30.0\ngini = 0.5\nsamples = 2\nvalue = [1, 0, 0, 1, 0]\nclass = 1", fillcolor="#ffffff"] ;
502 -> 503 ;
504 [label="gini = 0.0\nsamples = 1\nvalue = [0, 0, 0, 1, 0]\nclass = 4", fillcolor="#3c39e5"] ;
503 -> 504 ;
505 [label="gini = 0.0\nsamples = 1\nvalue = [1, 0, 0, 0, 0]\nclass = 1", fillcolor="#e58139"] ;
503 -> 505 ;
506 [label="gini = 0.0\nsamples = 2\nvalue = [0, 0, 0, 2, 0]\nclass = 4", fillcolor="#3c39e5"] ;
502 -> 506 ;
507 [label="Tuition <= 2.5\ngini = 0.625\nsamples = 4\nvalue = [0, 1, 2, 1, 0]\nclass = 3", fillcolor="#bdf6ec"] ;
501 -> 507 ;
508 [label="gini = 0.0\nsamples = 2\nvalue = [0, 0, 2, 0, 0]\nclass = 3", fillcolor="#39e5c5"] ;
507 -> 508 ;
509 [label="Attendace <= 32.5\ngini = 0.5\nsamples = 2\nvalue = [0, 1, 0, 1, 0]\nclass = 2", fillcolor="#ffffff"] ;
507 -> 509 ;
510 [label="gini = 0.0\nsamples = 1\nvalue = [0, 1, 0, 0, 0]\nclass = 2", fillcolor="#7be539"] ;
509 -> 510 ;
511 [label="gini = 0.0\nsamples = 1\nvalue = [0, 0, 0, 1, 0]\nclass = 4", fillcolor="#3c39e5"] ;
509 -> 511 ;
512 [label="Term <= 0.5\ngini = 0.48\nsamples = 5\nvalue = [3, 0, 0, 0, 2]\nclass = 1", fillcolor="#f6d5bd"] ;
496 -> 512 ;
513 [label="Attendace <= 34.5\ngini = 0.444\nsamples = 3\nvalue = [1, 0, 0, 0, 2]\nclass = 5", fillcolor="#f29ce0"] ;
512 -> 513 ;
514 [label="gini = 0.0\nsamples = 1\nvalue = [0, 0, 0, 0, 1]\nclass = 5", fillcolor="#e539c0"] ;
513 -> 514 ;
515 [label="Tuition <= 2.5\ngini = 0.5\nsamples = 2\nvalue = [1, 0, 0, 0, 1]\nclass = 1", fillcolor="#ffffff"] ;
513 -> 515 ;
516 [label="gini = 0.0\nsamples = 1\nvalue = [1, 0, 0, 0, 0]\nclass = 1", fillcolor="#e58139"] ;
515 -> 516 ;
517 [label="gini = 0.0\nsamples = 1\nvalue = [0, 0, 0, 0, 1]\nclass = 5", fillcolor="#e539c0"] ;
515 -> 517 ;
518 [label="gini = 0.0\nsamples = 2\nvalue = [2, 0, 0, 0, 0]\nclass = 1", fillcolor="#e58139"] ;
512 -> 518 ;
519 [label="Tuition <= 2.5\ngini = 0.746\nsamples = 25\nvalue = [9, 2, 3, 4, 7]\nclass = 1", fillcolor="#fcf1e9"] ;
495 -> 519 ;
520 [label="Attendace <= 34.5\ngini = 0.63\nsamples = 17\nvalue = [7, 0, 0, 3, 7]\nclass = 1", fillcolor="#ffffff"] ;
519 -> 520 ;
521 [label="Attendace <= 32.5\ngini = 0.633\nsamples = 16\nvalue = [6, 0, 0, 3, 7]\nclass = 5", fillcolor="#fcebf9"] ;
520 -> 521 ;
522 [label="Attendace <= 31.5\ngini = 0.594\nsamples = 8\nvalue = [4, 0, 0, 1, 3]\nclass = 1", fillcolor="#fae6d7"] ;
521 -> 522 ;
523 [label="Tuition <= 1.5\ngini = 0.611\nsamples = 6\nvalue = [2, 0, 0, 1, 3]\nclass = 5", fillcolor="#f8ceef"] ;
522 -> 523 ;
524 [label="Attendace <= 30.5\ngini = 0.375\nsamples = 4\nvalue = [0, 0, 0, 1, 3]\nclass = 5", fillcolor="#ee7bd5"] ;
523 -> 524 ;
525 [label="gini = 0.444\nsamples = 3\nvalue = [0, 0, 0, 1, 2]\nclass = 5", fillcolor="#f29ce0"] ;
524 -> 525 ;
526 [label="gini = 0.0\nsamples = 1\nvalue = [0, 0, 0, 0, 1]\nclass = 5", fillcolor="#e539c0"] ;
524 -> 526 ;
527 [label="gini = 0.0\nsamples = 2\nvalue = [2, 0, 0, 0, 0]\nclass = 1", fillcolor="#e58139"] ;
523 -> 527 ;
528 [label="gini = 0.0\nsamples = 2\nvalue = [2, 0, 0, 0, 0]\nclass = 1", fillcolor="#e58139"] ;
522 -> 528 ;
529 [label="Tuition <= 1.5\ngini = 0.625\nsamples = 8\nvalue = [2, 0, 0, 2, 4]\nclass = 5", fillcolor="#f6bdea"] ;
521 -> 529 ;
530 [label="Term <= 0.5\ngini = 0.64\nsamples = 5\nvalue = [2, 0, 0, 1, 2]\nclass = 1", fillcolor="#ffffff"] ;
529 -> 530 ;
531 [label="Attendace <= 33.5\ngini = 0.625\nsamples = 4\nvalue = [1, 0, 0, 1, 2]\nclass = 5", fillcolor="#f6bdea"] ;
530 -> 531 ;
532 [label="gini = 0.667\nsamples = 3\nvalue = [1, 0, 0, 1, 1]\nclass = 1", fillcolor="#ffffff"] ;
531 -> 532 ;
533 [label="gini = 0.0\nsamples = 1\nvalue = [0, 0, 0, 0, 1]\nclass = 5", fillcolor="#e539c0"] ;
531 -> 533 ;
534 [label="gini = 0.0\nsamples = 1\nvalue = [1, 0, 0, 0, 0]\nclass = 1", fillcolor="#e58139"] ;
530 -> 534 ;
535 [label="Attendace <= 33.5\ngini = 0.444\nsamples = 3\nvalue = [0, 0, 0, 1, 2]\nclass = 5", fillcolor="#f29ce0"] ;
529 -> 535 ;
536 [label="gini = 0.0\nsamples = 1\nvalue = [0, 0, 0, 0, 1]\nclass = 5", fillcolor="#e539c0"] ;
535 -> 536 ;
537 [label="Term <= 0.5\ngini = 0.5\nsamples = 2\nvalue = [0, 0, 0, 1, 1]\nclass = 4", fillcolor="#ffffff"] ;
535 -> 537 ;
538 [label="gini = 0.0\nsamples = 1\nvalue = [0, 0, 0, 1, 0]\nclass = 4", fillcolor="#3c39e5"] ;
537 -> 538 ;
539 [label="gini = 0.0\nsamples = 1\nvalue = [0, 0, 0, 0, 1]\nclass = 5", fillcolor="#e539c0"] ;
537 -> 539 ;
540 [label="gini = 0.0\nsamples = 1\nvalue = [1, 0, 0, 0, 0]\nclass = 1", fillcolor="#e58139"] ;
520 -> 540 ;
541 [label="Attendace <= 34.5\ngini = 0.719\nsamples = 8\nvalue = [2, 2, 3, 1, 0]\nclass = 3", fillcolor="#defbf5"] ;
519 -> 541 ;
542 [label="Term <= 0.5\ngini = 0.653\nsamples = 7\nvalue = [2, 2, 3, 0, 0]\nclass = 3", fillcolor="#d7faf3"] ;
541 -> 542 ;
543 [label="Attendace <= 33.0\ngini = 0.625\nsamples = 4\nvalue = [2, 1, 1, 0, 0]\nclass = 1", fillcolor="#f6d5bd"] ;
542 -> 543 ;
544 [label="Attendace <= 31.5\ngini = 0.444\nsamples = 3\nvalue = [2, 1, 0, 0, 0]\nclass = 1", fillcolor="#f2c09c"] ;
543 -> 544 ;
545 [label="gini = 0.0\nsamples = 1\nvalue = [1, 0, 0, 0, 0]\nclass = 1", fillcolor="#e58139"] ;
544 -> 545 ;
546 [label="gini = 0.5\nsamples = 2\nvalue = [1, 1, 0, 0, 0]\nclass = 1", fillcolor="#ffffff"] ;
544 -> 546 ;
547 [label="gini = 0.0\nsamples = 1\nvalue = [0, 0, 1, 0, 0]\nclass = 3", fillcolor="#39e5c5"] ;
543 -> 547 ;
548 [label="Attendace <= 32.0\ngini = 0.444\nsamples = 3\nvalue = [0, 1, 2, 0, 0]\nclass = 3", fillcolor="#9cf2e2"] ;
542 -> 548 ;
549 [label="gini = 0.0\nsamples = 2\nvalue = [0, 0, 2, 0, 0]\nclass = 3", fillcolor="#39e5c5"] ;
548 -> 549 ;
550 [label="gini = 0.0\nsamples = 1\nvalue = [0, 1, 0, 0, 0]\nclass = 2", fillcolor="#7be539"] ;
548 -> 550 ;
551 [label="gini = 0.0\nsamples = 1\nvalue = [0, 0, 0, 1, 0]\nclass = 4", fillcolor="#3c39e5"] ;
541 -> 551 ;
552 [label="Tuition <= 2.5\ngini = 0.571\nsamples = 7\nvalue = [0, 1, 0, 2, 4]\nclass = 5", fillcolor="#f5b0e6"] ;
494 -> 552 ;
553 [label="Term <= 0.5\ngini = 0.56\nsamples = 5\nvalue = [0, 1, 0, 1, 3]\nclass = 5", fillcolor="#f29ce0"] ;
552 -> 553 ;
554 [label="Class <= 0.5\ngini = 0.444\nsamples = 3\nvalue = [0, 1, 0, 0, 2]\nclass = 5", fillcolor="#f29ce0"] ;
553 -> 554 ;
555 [label="gini = 0.0\nsamples = 2\nvalue = [0, 0, 0, 0, 2]\nclass = 5", fillcolor="#e539c0"] ;
554 -> 555 ;
556 [label="gini = 0.0\nsamples = 1\nvalue = [0, 1, 0, 0, 0]\nclass = 2", fillcolor="#7be539"] ;
554 -> 556 ;
557 [label="Class <= 0.5\ngini = 0.5\nsamples = 2\nvalue = [0, 0, 0, 1, 1]\nclass = 4", fillcolor="#ffffff"] ;
553 -> 557 ;
558 [label="gini = 0.0\nsamples = 1\nvalue = [0, 0, 0, 1, 0]\nclass = 4", fillcolor="#3c39e5"] ;
557 -> 558 ;
559 [label="gini = 0.0\nsamples = 1\nvalue = [0, 0, 0, 0, 1]\nclass = 5", fillcolor="#e539c0"] ;
557 -> 559 ;
560 [label="Term <= 0.5\ngini = 0.5\nsamples = 2\nvalue = [0, 0, 0, 1, 1]\nclass = 4", fillcolor="#ffffff"] ;
552 -> 560 ;
561 [label="gini = 0.0\nsamples = 1\nvalue = [0, 0, 0, 1, 0]\nclass = 4", fillcolor="#3c39e5"] ;
560 -> 561 ;
562 [label="gini = 0.0\nsamples = 1\nvalue = [0, 0, 0, 0, 1]\nclass = 5", fillcolor="#e539c0"] ;
560 -> 562 ;
563 [label="Term <= 0.5\ngini = 0.255\nsamples = 1317\nvalue = [70, 1133, 38, 38, 38]\nclass = 2", fillcolor="#8ee956"] ;
1 -> 563 ;
564 [label="Attendace <= 45.0\ngini = 0.795\nsamples = 96\nvalue = [23, 14, 20, 20, 19]\nclass = 1", fillcolor="#fefaf7"] ;
563 -> 564 ;
565 [label="Attendace <= 42.5\ngini = 0.786\nsamples = 71\nvalue = [15, 7, 17, 15, 17]\nclass = 3", fillcolor="#ffffff"] ;
564 -> 565 ;
566 [label="Attendace <= 40.5\ngini = 0.785\nsamples = 54\nvalue = [15, 6, 11, 10, 12]\nclass = 1", fillcolor="#fdf6f1"] ;
565 -> 566 ;
567 [label="Tuition <= 1.5\ngini = 0.777\nsamples = 38\nvalue = [10, 5, 9, 4, 10]\nclass = 1", fillcolor="#ffffff"] ;
566 -> 567 ;
568 [label="Gender <= 1.5\ngini = 0.56\nsamples = 5\nvalue = [1, 1, 0, 0, 3]\nclass = 5", fillcolor="#f29ce0"] ;
567 -> 568 ;
569 [label="gini = 0.0\nsamples = 1\nvalue = [0, 1, 0, 0, 0]\nclass = 2", fillcolor="#7be539"] ;
568 -> 569 ;
570 [label="Gender <= 2.5\ngini = 0.375\nsamples = 4\nvalue = [1, 0, 0, 0, 3]\nclass = 5", fillcolor="#ee7bd5"] ;
568 -> 570 ;
571 [label="Attendace <= 38.5\ngini = 0.5\nsamples = 2\nvalue = [1, 0, 0, 0, 1]\nclass = 1", fillcolor="#ffffff"] ;
570 -> 571 ;
572 [label="gini = 0.0\nsamples = 1\nvalue = [0, 0, 0, 0, 1]\nclass = 5", fillcolor="#e539c0"] ;
571 -> 572 ;
573 [label="gini = 0.0\nsamples = 1\nvalue = [1, 0, 0, 0, 0]\nclass = 1", fillcolor="#e58139"] ;
571 -> 573 ;
574 [label="gini = 0.0\nsamples = 2\nvalue = [0, 0, 0, 0, 2]\nclass = 5", fillcolor="#e539c0"] ;
570 -> 574 ;
575 [label="Attendace <= 39.5\ngini = 0.777\nsamples = 33\nvalue = [9, 4, 9, 4, 7]\nclass = 1", fillcolor="#ffffff"] ;
567 -> 575 ;
576 [label="Gender <= 2.5\ngini = 0.786\nsamples = 28\nvalue = [8, 4, 6, 4, 6]\nclass = 1", fillcolor="#fdf4ed"] ;
575 -> 576 ;
577 [label="Class <= 0.5\ngini = 0.785\nsamples = 21\nvalue = [5, 3, 6, 3, 4]\nclass = 3", fillcolor="#f3fdfb"] ;
576 -> 577 ;
578 [label="Tuition <= 2.5\ngini = 0.793\nsamples = 11\nvalue = [3, 2, 2, 2, 2]\nclass = 1", fillcolor="#fcf1e9"] ;
577 -> 578 ;
579 [label="Attendace <= 37.5\ngini = 0.776\nsamples = 7\nvalue = [1, 1, 2, 2, 1]\nclass = 3", fillcolor="#ffffff"] ;
578 -> 579 ;
580 [label="Gender <= 1.5\ngini = 0.5\nsamples = 2\nvalue = [1, 1, 0, 0, 0]\nclass = 1", fillcolor="#ffffff"] ;
579 -> 580 ;
581 [label="gini = 0.0\nsamples = 1\nvalue = [0, 1, 0, 0, 0]\nclass = 2", fillcolor="#7be539"] ;
580 -> 581 ;
582 [label="gini = 0.0\nsamples = 1\nvalue = [1, 0, 0, 0, 0]\nclass = 1", fillcolor="#e58139"] ;
580 -> 582 ;
583 [label="Gender <= 1.5\ngini = 0.64\nsamples = 5\nvalue = [0, 0, 2, 2, 1]\nclass = 3", fillcolor="#ffffff"] ;
579 -> 583 ;
584 [label="Attendace <= 38.5\ngini = 0.5\nsamples = 2\nvalue = [0, 0, 0, 1, 1]\nclass = 4", fillcolor="#ffffff"] ;
583 -> 584 ;
585 [label="gini = 0.0\nsamples = 1\nvalue = [0, 0, 0, 0, 1]\nclass = 5", fillcolor="#e539c0"] ;
584 -> 585 ;
586 [label="gini = 0.0\nsamples = 1\nvalue = [0, 0, 0, 1, 0]\nclass = 4", fillcolor="#3c39e5"] ;
584 -> 586 ;
587 [label="Attendace <= 38.5\ngini = 0.444\nsamples = 3\nvalue = [0, 0, 2, 1, 0]\nclass = 3", fillcolor="#9cf2e2"] ;
583 -> 587 ;
588 [label="gini = 0.5\nsamples = 2\nvalue = [0, 0, 1, 1, 0]\nclass = 3", fillcolor="#ffffff"] ;
587 -> 588 ;
589 [label="gini = 0.0\nsamples = 1\nvalue = [0, 0, 1, 0, 0]\nclass = 3", fillcolor="#39e5c5"] ;
587 -> 589 ;
590 [label="Attendace <= 38.5\ngini = 0.625\nsamples = 4\nvalue = [2, 1, 0, 0, 1]\nclass = 1", fillcolor="#f6d5bd"] ;
578 -> 590 ;
591 [label="Gender <= 1.5\ngini = 0.667\nsamples = 3\nvalue = [1, 1, 0, 0, 1]\nclass = 1", fillcolor="#ffffff"] ;
590 -> 591 ;
592 [label="gini = 0.5\nsamples = 2\nvalue = [1, 0, 0, 0, 1]\nclass = 1", fillcolor="#ffffff"] ;
591 -> 592 ;
593 [label="gini = 0.0\nsamples = 1\nvalue = [0, 1, 0, 0, 0]\nclass = 2", fillcolor="#7be539"] ;
591 -> 593 ;
594 [label="gini = 0.0\nsamples = 1\nvalue = [1, 0, 0, 0, 0]\nclass = 1", fillcolor="#e58139"] ;
590 -> 594 ;
595 [label="Attendace <= 38.5\ngini = 0.74\nsamples = 10\nvalue = [2, 1, 4, 1, 2]\nclass = 3", fillcolor="#cef8f0"] ;
577 -> 595 ;
596 [label="Attendace <= 37.5\ngini = 0.691\nsamples = 9\nvalue = [2, 0, 4, 1, 2]\nclass = 3", fillcolor="#c6f8ee"] ;
595 -> 596 ;
597 [label="Gender <= 1.5\ngini = 0.64\nsamples = 5\nvalue = [1, 0, 2, 0, 2]\nclass = 3", fillcolor="#ffffff"] ;
596 -> 597 ;
598 [label="gini = 0.625\nsamples = 4\nvalue = [1, 0, 2, 0, 1]\nclass = 3", fillcolor="#bdf6ec"] ;
597 -> 598 ;
599 [label="gini = 0.0\nsamples = 1\nvalue = [0, 0, 0, 0, 1]\nclass = 5", fillcolor="#e539c0"] ;
597 -> 599 ;
600 [label="Gender <= 1.5\ngini = 0.625\nsamples = 4\nvalue = [1, 0, 2, 1, 0]\nclass = 3", fillcolor="#bdf6ec"] ;
596 -> 600 ;
601 [label="gini = 0.0\nsamples = 1\nvalue = [0, 0, 1, 0, 0]\nclass = 3", fillcolor="#39e5c5"] ;
600 -> 601 ;
602 [label="Tuition <= 2.5\ngini = 0.667\nsamples = 3\nvalue = [1, 0, 1, 1, 0]\nclass = 1", fillcolor="#ffffff"] ;
600 -> 602 ;
603 [label="gini = 0.0\nsamples = 1\nvalue = [1, 0, 0, 0, 0]\nclass = 1", fillcolor="#e58139"] ;
602 -> 603 ;
604 [label="gini = 0.5\nsamples = 2\nvalue = [0, 0, 1, 1, 0]\nclass = 3", fillcolor="#ffffff"] ;
602 -> 604 ;
605 [label="gini = 0.0\nsamples = 1\nvalue = [0, 1, 0, 0, 0]\nclass = 2", fillcolor="#7be539"] ;
595 -> 605 ;
606 [label="Attendace <= 38.5\ngini = 0.694\nsamples = 7\nvalue = [3, 1, 0, 1, 2]\nclass = 1", fillcolor="#fae6d7"] ;
576 -> 606 ;
607 [label="Tuition <= 2.5\ngini = 0.375\nsamples = 4\nvalue = [3, 0, 0, 1, 0]\nclass = 1", fillcolor="#eeab7b"] ;
606 -> 607 ;
608 [label="gini = 0.0\nsamples = 2\nvalue = [2, 0, 0, 0, 0]\nclass = 1", fillcolor="#e58139"] ;
607 -> 608 ;
609 [label="gini = 0.5\nsamples = 2\nvalue = [1, 0, 0, 1, 0]\nclass = 1", fillcolor="#ffffff"] ;
607 -> 609 ;
610 [label="Class <= 0.5\ngini = 0.444\nsamples = 3\nvalue = [0, 1, 0, 0, 2]\nclass = 5", fillcolor="#f29ce0"] ;
606 -> 610 ;
611 [label="gini = 0.0\nsamples = 2\nvalue = [0, 0, 0, 0, 2]\nclass = 5", fillcolor="#e539c0"] ;
610 -> 611 ;
612 [label="gini = 0.0\nsamples = 1\nvalue = [0, 1, 0, 0, 0]\nclass = 2", fillcolor="#7be539"] ;
610 -> 612 ;
613 [label="Class <= 0.5\ngini = 0.56\nsamples = 5\nvalue = [1, 0, 3, 0, 1]\nclass = 3", fillcolor="#9cf2e2"] ;
575 -> 613 ;
614 [label="gini = 0.0\nsamples = 3\nvalue = [0, 0, 3, 0, 0]\nclass = 3", fillcolor="#39e5c5"] ;
613 -> 614 ;
615 [label="Gender <= 2.5\ngini = 0.5\nsamples = 2\nvalue = [1, 0, 0, 0, 1]\nclass = 1", fillcolor="#ffffff"] ;
613 -> 615 ;
616 [label="gini = 0.0\nsamples = 1\nvalue = [0, 0, 0, 0, 1]\nclass = 5", fillcolor="#e539c0"] ;
615 -> 616 ;
617 [label="gini = 0.0\nsamples = 1\nvalue = [1, 0, 0, 0, 0]\nclass = 1", fillcolor="#e58139"] ;
615 -> 617 ;
618 [label="Class <= 0.5\ngini = 0.727\nsamples = 16\nvalue = [5, 1, 2, 6, 2]\nclass = 4", fillcolor="#ededfd"] ;
566 -> 618 ;
619 [label="Gender <= 1.5\ngini = 0.694\nsamples = 7\nvalue = [3, 1, 2, 1, 0]\nclass = 1", fillcolor="#fae6d7"] ;
618 -> 619 ;
620 [label="Attendace <= 41.5\ngini = 0.444\nsamples = 3\nvalue = [2, 0, 0, 1, 0]\nclass = 1", fillcolor="#f2c09c"] ;
619 -> 620 ;
621 [label="gini = 0.0\nsamples = 1\nvalue = [0, 0, 0, 1, 0]\nclass = 4", fillcolor="#3c39e5"] ;
620 -> 621 ;
622 [label="gini = 0.0\nsamples = 2\nvalue = [2, 0, 0, 0, 0]\nclass = 1", fillcolor="#e58139"] ;
620 -> 622 ;
623 [label="Attendace <= 41.5\ngini = 0.625\nsamples = 4\nvalue = [1, 1, 2, 0, 0]\nclass = 3", fillcolor="#bdf6ec"] ;
619 -> 623 ;
624 [label="gini = 0.0\nsamples = 1\nvalue = [1, 0, 0, 0, 0]\nclass = 1", fillcolor="#e58139"] ;
623 -> 624 ;
625 [label="Tuition <= 1.5\ngini = 0.444\nsamples = 3\nvalue = [0, 1, 2, 0, 0]\nclass = 3", fillcolor="#9cf2e2"] ;
623 -> 625 ;
626 [label="gini = 0.0\nsamples = 1\nvalue = [0, 1, 0, 0, 0]\nclass = 2", fillcolor="#7be539"] ;
625 -> 626 ;
627 [label="gini = 0.0\nsamples = 2\nvalue = [0, 0, 2, 0, 0]\nclass = 3", fillcolor="#39e5c5"] ;
625 -> 627 ;
628 [label="Attendace <= 41.5\ngini = 0.593\nsamples = 9\nvalue = [2, 0, 0, 5, 2]\nclass = 4", fillcolor="#abaaf4"] ;
618 -> 628 ;
629 [label="Gender <= 2.0\ngini = 0.64\nsamples = 5\nvalue = [2, 0, 0, 2, 1]\nclass = 1", fillcolor="#ffffff"] ;
628 -> 629 ;
630 [label="Tuition <= 2.5\ngini = 0.5\nsamples = 2\nvalue = [1, 0, 0, 1, 0]\nclass = 1", fillcolor="#ffffff"] ;
629 -> 630 ;
631 [label="gini = 0.0\nsamples = 1\nvalue = [0, 0, 0, 1, 0]\nclass = 4", fillcolor="#3c39e5"] ;
630 -> 631 ;
632 [label="gini = 0.0\nsamples = 1\nvalue = [1, 0, 0, 0, 0]\nclass = 1", fillcolor="#e58139"] ;
630 -> 632 ;
633 [label="Tuition <= 2.5\ngini = 0.667\nsamples = 3\nvalue = [1, 0, 0, 1, 1]\nclass = 1", fillcolor="#ffffff"] ;
629 -> 633 ;
634 [label="gini = 0.0\nsamples = 1\nvalue = [1, 0, 0, 0, 0]\nclass = 1", fillcolor="#e58139"] ;
633 -> 634 ;
635 [label="gini = 0.5\nsamples = 2\nvalue = [0, 0, 0, 1, 1]\nclass = 4", fillcolor="#ffffff"] ;
633 -> 635 ;
636 [label="Tuition <= 1.5\ngini = 0.375\nsamples = 4\nvalue = [0, 0, 0, 3, 1]\nclass = 4", fillcolor="#7d7bee"] ;
628 -> 636 ;
637 [label="gini = 0.5\nsamples = 2\nvalue = [0, 0, 0, 1, 1]\nclass = 4", fillcolor="#ffffff"] ;
636 -> 637 ;
638 [label="gini = 0.0\nsamples = 2\nvalue = [0, 0, 0, 2, 0]\nclass = 4", fillcolor="#3c39e5"] ;
636 -> 638 ;
639 [label="Gender <= 2.5\ngini = 0.699\nsamples = 17\nvalue = [0, 1, 6, 5, 5]\nclass = 3", fillcolor="#eefdfa"] ;
565 -> 639 ;
640 [label="Gender <= 1.5\ngini = 0.5\nsamples = 10\nvalue = [0, 0, 0, 5, 5]\nclass = 4", fillcolor="#ffffff"] ;
639 -> 640 ;
641 [label="gini = 0.0\nsamples = 2\nvalue = [0, 0, 0, 2, 0]\nclass = 4", fillcolor="#3c39e5"] ;
640 -> 641 ;
642 [label="Tuition <= 1.5\ngini = 0.469\nsamples = 8\nvalue = [0, 0, 0, 3, 5]\nclass = 5", fillcolor="#f5b0e6"] ;
640 -> 642 ;
643 [label="gini = 0.0\nsamples = 1\nvalue = [0, 0, 0, 1, 0]\nclass = 4", fillcolor="#3c39e5"] ;
642 -> 643 ;
644 [label="Class <= 0.5\ngini = 0.408\nsamples = 7\nvalue = [0, 0, 0, 2, 5]\nclass = 5", fillcolor="#ef88d9"] ;
642 -> 644 ;
645 [label="gini = 0.0\nsamples = 4\nvalue = [0, 0, 0, 0, 4]\nclass = 5", fillcolor="#e539c0"] ;
644 -> 645 ;
646 [label="Tuition <= 2.5\ngini = 0.444\nsamples = 3\nvalue = [0, 0, 0, 2, 1]\nclass = 4", fillcolor="#9e9cf2"] ;
644 -> 646 ;
647 [label="gini = 0.0\nsamples = 1\nvalue = [0, 0, 0, 1, 0]\nclass = 4", fillcolor="#3c39e5"] ;
646 -> 647 ;
648 [label="gini = 0.5\nsamples = 2\nvalue = [0, 0, 0, 1, 1]\nclass = 4", fillcolor="#ffffff"] ;
646 -> 648 ;
649 [label="Tuition <= 2.5\ngini = 0.245\nsamples = 7\nvalue = [0, 1, 6, 0, 0]\nclass = 3", fillcolor="#5ae9cf"] ;
639 -> 649 ;
650 [label="gini = 0.0\nsamples = 4\nvalue = [0, 0, 4, 0, 0]\nclass = 3", fillcolor="#39e5c5"] ;
649 -> 650 ;
651 [label="Class <= 0.5\ngini = 0.444\nsamples = 3\nvalue = [0, 1, 2, 0, 0]\nclass = 3", fillcolor="#9cf2e2"] ;
649 -> 651 ;
652 [label="gini = 0.5\nsamples = 2\nvalue = [0, 1, 1, 0, 0]\nclass = 2", fillcolor="#ffffff"] ;
651 -> 652 ;
653 [label="gini = 0.0\nsamples = 1\nvalue = [0, 0, 1, 0, 0]\nclass = 3", fillcolor="#39e5c5"] ;
651 -> 653 ;
654 [label="Tuition <= 2.5\ngini = 0.758\nsamples = 25\nvalue = [8, 7, 3, 5, 2]\nclass = 1", fillcolor="#fef8f4"] ;
564 -> 654 ;
655 [label="Gender <= 2.5\ngini = 0.765\nsamples = 18\nvalue = [4, 6, 2, 4, 2]\nclass = 2", fillcolor="#ecfbe3"] ;
654 -> 655 ;
656 [label="Tuition <= 1.5\ngini = 0.729\nsamples = 15\nvalue = [4, 6, 1, 2, 2]\nclass = 2", fillcolor="#e7fadb"] ;
655 -> 656 ;
657 [label="Class <= 0.5\ngini = 0.375\nsamples = 4\nvalue = [1, 3, 0, 0, 0]\nclass = 2", fillcolor="#a7ee7b"] ;
656 -> 657 ;
658 [label="Gender <= 1.5\ngini = 0.5\nsamples = 2\nvalue = [1, 1, 0, 0, 0]\nclass = 1", fillcolor="#ffffff"] ;
657 -> 658 ;
659 [label="gini = 0.0\nsamples = 1\nvalue = [0, 1, 0, 0, 0]\nclass = 2", fillcolor="#7be539"] ;
658 -> 659 ;
660 [label="gini = 0.0\nsamples = 1\nvalue = [1, 0, 0, 0, 0]\nclass = 1", fillcolor="#e58139"] ;
658 -> 660 ;
661 [label="gini = 0.0\nsamples = 2\nvalue = [0, 2, 0, 0, 0]\nclass = 2", fillcolor="#7be539"] ;
657 -> 661 ;
662 [label="Attendace <= 47.5\ngini = 0.777\nsamples = 11\nvalue = [3, 3, 1, 2, 2]\nclass = 1", fillcolor="#ffffff"] ;
656 -> 662 ;
663 [label="Attendace <= 46.5\ngini = 0.64\nsamples = 5\nvalue = [1, 2, 0, 2, 0]\nclass = 2", fillcolor="#ffffff"] ;
662 -> 663 ;
664 [label="Gender <= 1.5\ngini = 0.444\nsamples = 3\nvalue = [1, 2, 0, 0, 0]\nclass = 2", fillcolor="#bdf29c"] ;
663 -> 664 ;
665 [label="gini = 0.5\nsamples = 2\nvalue = [1, 1, 0, 0, 0]\nclass = 1", fillcolor="#ffffff"] ;
664 -> 665 ;
666 [label="gini = 0.0\nsamples = 1\nvalue = [0, 1, 0, 0, 0]\nclass = 2", fillcolor="#7be539"] ;
664 -> 666 ;
667 [label="gini = 0.0\nsamples = 2\nvalue = [0, 0, 0, 2, 0]\nclass = 4", fillcolor="#3c39e5"] ;
663 -> 667 ;
668 [label="Gender <= 1.5\ngini = 0.722\nsamples = 6\nvalue = [2, 1, 1, 0, 2]\nclass = 1", fillcolor="#ffffff"] ;
662 -> 668 ;
669 [label="gini = 0.5\nsamples = 2\nvalue = [0, 1, 0, 0, 1]\nclass = 2", fillcolor="#ffffff"] ;
668 -> 669 ;
670 [label="Class <= 0.5\ngini = 0.625\nsamples = 4\nvalue = [2, 0, 1, 0, 1]\nclass = 1", fillcolor="#f6d5bd"] ;
668 -> 670 ;
671 [label="gini = 0.5\nsamples = 2\nvalue = [1, 0, 0, 0, 1]\nclass = 1", fillcolor="#ffffff"] ;
670 -> 671 ;
672 [label="gini = 0.5\nsamples = 2\nvalue = [1, 0, 1, 0, 0]\nclass = 1", fillcolor="#ffffff"] ;
670 -> 672 ;
673 [label="Class <= 0.5\ngini = 0.444\nsamples = 3\nvalue = [0, 0, 1, 2, 0]\nclass = 4", fillcolor="#9e9cf2"] ;
655 -> 673 ;
674 [label="gini = 0.5\nsamples = 2\nvalue = [0, 0, 1, 1, 0]\nclass = 3", fillcolor="#ffffff"] ;
673 -> 674 ;
675 [label="gini = 0.0\nsamples = 1\nvalue = [0, 0, 0, 1, 0]\nclass = 4", fillcolor="#3c39e5"] ;
673 -> 675 ;
676 [label="Attendace <= 47.5\ngini = 0.612\nsamples = 7\nvalue = [4, 1, 1, 1, 0]\nclass = 1", fillcolor="#f2c09c"] ;
654 -> 676 ;
677 [label="Attendace <= 46.5\ngini = 0.32\nsamples = 5\nvalue = [4, 0, 1, 0, 0]\nclass = 1", fillcolor="#eca06a"] ;
676 -> 677 ;
678 [label="gini = 0.0\nsamples = 2\nvalue = [2, 0, 0, 0, 0]\nclass = 1", fillcolor="#e58139"] ;
677 -> 678 ;
679 [label="Gender <= 1.5\ngini = 0.444\nsamples = 3\nvalue = [2, 0, 1, 0, 0]\nclass = 1", fillcolor="#f2c09c"] ;
677 -> 679 ;
680 [label="gini = 0.0\nsamples = 1\nvalue = [1, 0, 0, 0, 0]\nclass = 1", fillcolor="#e58139"] ;
679 -> 680 ;
681 [label="Gender <= 2.5\ngini = 0.5\nsamples = 2\nvalue = [1, 0, 1, 0, 0]\nclass = 1", fillcolor="#ffffff"] ;
679 -> 681 ;
682 [label="gini = 0.0\nsamples = 1\nvalue = [0, 0, 1, 0, 0]\nclass = 3", fillcolor="#39e5c5"] ;
681 -> 682 ;
683 [label="gini = 0.0\nsamples = 1\nvalue = [1, 0, 0, 0, 0]\nclass = 1", fillcolor="#e58139"] ;
681 -> 683 ;
684 [label="Gender <= 1.5\ngini = 0.5\nsamples = 2\nvalue = [0, 1, 0, 1, 0]\nclass = 2", fillcolor="#ffffff"] ;
676 -> 684 ;
685 [label="gini = 0.0\nsamples = 1\nvalue = [0, 0, 0, 1, 0]\nclass = 4", fillcolor="#3c39e5"] ;
684 -> 685 ;
686 [label="gini = 0.0\nsamples = 1\nvalue = [0, 1, 0, 0, 0]\nclass = 2", fillcolor="#7be539"] ;
684 -> 686 ;
687 [label="Attendace <= 47.5\ngini = 0.158\nsamples = 1221\nvalue = [47, 1119, 18, 18, 19]\nclass = 2", fillcolor="#86e74a"] ;
563 -> 687 ;
688 [label="Gender <= 2.5\ngini = 0.108\nsamples = 1127\nvalue = [15, 1064, 15, 16, 17]\nclass = 2", fillcolor="#82e644"] ;
687 -> 688 ;
689 [label="Tuition <= 2.5\ngini = 0.068\nsamples = 1095\nvalue = [11, 1057, 8, 9, 10]\nclass = 2", fillcolor="#80e640"] ;
688 -> 689 ;
690 [label="Gender <= 1.5\ngini = 0.046\nsamples = 1077\nvalue = [5, 1052, 5, 7, 8]\nclass = 2", fillcolor="#7ee63e"] ;
689 -> 690 ;
691 [label="Tuition <= 1.5\ngini = 0.024\nsamples = 753\nvalue = [2, 744, 2, 2, 3]\nclass = 2", fillcolor="#7de53b"] ;
690 -> 691 ;
692 [label="Attendace <= 39.0\ngini = 0.011\nsamples = 747\nvalue = [2, 743, 1, 0, 1]\nclass = 2", fillcolor="#7ce53a"] ;
691 -> 692 ;
693 [label="gini = 0.5\nsamples = 2\nvalue = [1, 1, 0, 0, 0]\nclass = 1", fillcolor="#ffffff"] ;
692 -> 693 ;
694 [label="Class <= 0.5\ngini = 0.008\nsamples = 745\nvalue = [1, 742, 1, 0, 1]\nclass = 2", fillcolor="#7ce53a"] ;
692 -> 694 ;
695 [label="Attendace <= 44.5\ngini = 0.017\nsamples = 359\nvalue = [1, 356, 1, 0, 1]\nclass = 2", fillcolor="#7ce53b"] ;
694 -> 695 ;
696 [label="Attendace <= 43.5\ngini = 0.029\nsamples = 206\nvalue = [1, 203, 1, 0, 1]\nclass = 2", fillcolor="#7de53c"] ;
695 -> 696 ;
697 [label="Attendace <= 41.5\ngini = 0.013\nsamples = 156\nvalue = [1, 155, 0, 0, 0]\nclass = 2", fillcolor="#7ce53a"] ;
696 -> 697 ;
698 [label="gini = 0.032\nsamples = 61\nvalue = [1, 60, 0, 0, 0]\nclass = 2", fillcolor="#7de53c"] ;
697 -> 698 ;
699 [label="gini = 0.0\nsamples = 95\nvalue = [0, 95, 0, 0, 0]\nclass = 2", fillcolor="#7be539"] ;
697 -> 699 ;
700 [label="gini = 0.078\nsamples = 50\nvalue = [0, 48, 1, 0, 1]\nclass = 2", fillcolor="#80e641"] ;
696 -> 700 ;
701 [label="gini = 0.0\nsamples = 153\nvalue = [0, 153, 0, 0, 0]\nclass = 2", fillcolor="#7be539"] ;
695 -> 701 ;
702 [label="gini = 0.0\nsamples = 386\nvalue = [0, 386, 0, 0, 0]\nclass = 2", fillcolor="#7be539"] ;
694 -> 702 ;
703 [label="Attendace <= 44.5\ngini = 0.722\nsamples = 6\nvalue = [0, 1, 1, 2, 2]\nclass = 4", fillcolor="#ffffff"] ;
691 -> 703 ;
704 [label="Class <= 0.5\ngini = 0.64\nsamples = 5\nvalue = [0, 1, 0, 2, 2]\nclass = 4", fillcolor="#ffffff"] ;
703 -> 704 ;
705 [label="Attendace <= 41.5\ngini = 0.444\nsamples = 3\nvalue = [0, 0, 0, 2, 1]\nclass = 4", fillcolor="#9e9cf2"] ;
704 -> 705 ;
706 [label="gini = 0.0\nsamples = 2\nvalue = [0, 0, 0, 2, 0]\nclass = 4", fillcolor="#3c39e5"] ;
705 -> 706 ;
707 [label="gini = 0.0\nsamples = 1\nvalue = [0, 0, 0, 0, 1]\nclass = 5", fillcolor="#e539c0"] ;
705 -> 707 ;
708 [label="gini = 0.5\nsamples = 2\nvalue = [0, 1, 0, 0, 1]\nclass = 2", fillcolor="#ffffff"] ;
704 -> 708 ;
709 [label="gini = 0.0\nsamples = 1\nvalue = [0, 0, 1, 0, 0]\nclass = 3", fillcolor="#39e5c5"] ;
703 -> 709 ;
710 [label="Attendace <= 40.5\ngini = 0.096\nsamples = 324\nvalue = [3, 308, 3, 5, 5]\nclass = 2", fillcolor="#82e643"] ;
690 -> 710 ;
711 [label="Tuition <= 1.5\ngini = 0.026\nsamples = 310\nvalue = [1, 306, 0, 3, 0]\nclass = 2", fillcolor="#7de53c"] ;
710 -> 711 ;
712 [label="gini = 0.0\nsamples = 2\nvalue = [0, 0, 0, 2, 0]\nclass = 4", fillcolor="#3c39e5"] ;
711 -> 712 ;
713 [label="Attendace <= 38.5\ngini = 0.013\nsamples = 308\nvalue = [1, 306, 0, 1, 0]\nclass = 2", fillcolor="#7ce53a"] ;
711 -> 713 ;
714 [label="Attendace <= 37.5\ngini = 0.026\nsamples = 153\nvalue = [1, 151, 0, 1, 0]\nclass = 2", fillcolor="#7de53c"] ;
713 -> 714 ;
715 [label="Class <= 0.5\ngini = 0.029\nsamples = 69\nvalue = [0, 68, 0, 1, 0]\nclass = 2", fillcolor="#7de53c"] ;
714 -> 715 ;
716 [label="gini = 0.0\nsamples = 33\nvalue = [0, 33, 0, 0, 0]\nclass = 2", fillcolor="#7be539"] ;
715 -> 716 ;
717 [label="gini = 0.054\nsamples = 36\nvalue = [0, 35, 0, 1, 0]\nclass = 2", fillcolor="#7fe63f"] ;
715 -> 717 ;
718 [label="Class <= 0.5\ngini = 0.024\nsamples = 84\nvalue = [1, 83, 0, 0, 0]\nclass = 2", fillcolor="#7de53b"] ;
714 -> 718 ;
719 [label="gini = 0.041\nsamples = 48\nvalue = [1, 47, 0, 0, 0]\nclass = 2", fillcolor="#7ee63d"] ;
718 -> 719 ;
720 [label="gini = 0.0\nsamples = 36\nvalue = [0, 36, 0, 0, 0]\nclass = 2", fillcolor="#7be539"] ;
718 -> 720 ;
721 [label="gini = 0.0\nsamples = 155\nvalue = [0, 155, 0, 0, 0]\nclass = 2", fillcolor="#7be539"] ;
713 -> 721 ;
722 [label="Attendace <= 45.5\ngini = 0.765\nsamples = 14\nvalue = [2, 2, 3, 2, 5]\nclass = 5", fillcolor="#fadbf4"] ;
710 -> 722 ;
723 [label="Class <= 0.5\ngini = 0.66\nsamples = 10\nvalue = [2, 2, 0, 1, 5]\nclass = 5", fillcolor="#f5b5e7"] ;
722 -> 723 ;
724 [label="Tuition <= 1.5\ngini = 0.72\nsamples = 5\nvalue = [2, 1, 0, 1, 1]\nclass = 1", fillcolor="#f8e0ce"] ;
723 -> 724 ;
725 [label="Attendace <= 42.0\ngini = 0.5\nsamples = 2\nvalue = [0, 0, 0, 1, 1]\nclass = 4", fillcolor="#ffffff"] ;
724 -> 725 ;
726 [label="gini = 0.0\nsamples = 1\nvalue = [0, 0, 0, 1, 0]\nclass = 4", fillcolor="#3c39e5"] ;
725 -> 726 ;
727 [label="gini = 0.0\nsamples = 1\nvalue = [0, 0, 0, 0, 1]\nclass = 5", fillcolor="#e539c0"] ;
725 -> 727 ;
728 [label="Attendace <= 41.5\ngini = 0.444\nsamples = 3\nvalue = [2, 1, 0, 0, 0]\nclass = 1", fillcolor="#f2c09c"] ;
724 -> 728 ;
729 [label="gini = 0.0\nsamples = 1\nvalue = [1, 0, 0, 0, 0]\nclass = 1", fillcolor="#e58139"] ;
728 -> 729 ;
730 [label="gini = 0.5\nsamples = 2\nvalue = [1, 1, 0, 0, 0]\nclass = 1", fillcolor="#ffffff"] ;
728 -> 730 ;
731 [label="Attendace <= 44.0\ngini = 0.32\nsamples = 5\nvalue = [0, 1, 0, 0, 4]\nclass = 5", fillcolor="#ec6ad0"] ;
723 -> 731 ;
732 [label="gini = 0.0\nsamples = 4\nvalue = [0, 0, 0, 0, 4]\nclass = 5", fillcolor="#e539c0"] ;
731 -> 732 ;
733 [label="gini = 0.0\nsamples = 1\nvalue = [0, 1, 0, 0, 0]\nclass = 2", fillcolor="#7be539"] ;
731 -> 733 ;
734 [label="Attendace <= 46.5\ngini = 0.375\nsamples = 4\nvalue = [0, 0, 3, 1, 0]\nclass = 3", fillcolor="#7beed8"] ;
722 -> 734 ;
735 [label="Class <= 0.5\ngini = 0.444\nsamples = 3\nvalue = [0, 0, 2, 1, 0]\nclass = 3", fillcolor="#9cf2e2"] ;
734 -> 735 ;
736 [label="gini = 0.5\nsamples = 2\nvalue = [0, 0, 1, 1, 0]\nclass = 3", fillcolor="#ffffff"] ;
735 -> 736 ;
737 [label="gini = 0.0\nsamples = 1\nvalue = [0, 0, 1, 0, 0]\nclass = 3", fillcolor="#39e5c5"] ;
735 -> 737 ;
738 [label="gini = 0.0\nsamples = 1\nvalue = [0, 0, 1, 0, 0]\nclass = 3", fillcolor="#39e5c5"] ;
734 -> 738 ;
739 [label="Attendace <= 39.5\ngini = 0.759\nsamples = 18\nvalue = [6, 5, 3, 2, 2]\nclass = 1", fillcolor="#fdf5f0"] ;
689 -> 739 ;
740 [label="Attendace <= 37.5\ngini = 0.778\nsamples = 6\nvalue = [1, 1, 1, 1, 2]\nclass = 5", fillcolor="#fad7f2"] ;
739 -> 740 ;
741 [label="Gender <= 1.5\ngini = 0.5\nsamples = 2\nvalue = [0, 1, 1, 0, 0]\nclass = 2", fillcolor="#ffffff"] ;
740 -> 741 ;
742 [label="gini = 0.0\nsamples = 1\nvalue = [0, 1, 0, 0, 0]\nclass = 2", fillcolor="#7be539"] ;
741 -> 742 ;
743 [label="gini = 0.0\nsamples = 1\nvalue = [0, 0, 1, 0, 0]\nclass = 3", fillcolor="#39e5c5"] ;
741 -> 743 ;
744 [label="Gender <= 1.5\ngini = 0.625\nsamples = 4\nvalue = [1, 0, 0, 1, 2]\nclass = 5", fillcolor="#f6bdea"] ;
740 -> 744 ;
745 [label="Attendace <= 38.5\ngini = 0.444\nsamples = 3\nvalue = [1, 0, 0, 0, 2]\nclass = 5", fillcolor="#f29ce0"] ;
744 -> 745 ;
746 [label="gini = 0.5\nsamples = 2\nvalue = [1, 0, 0, 0, 1]\nclass = 1", fillcolor="#ffffff"] ;
745 -> 746 ;
747 [label="gini = 0.0\nsamples = 1\nvalue = [0, 0, 0, 0, 1]\nclass = 5", fillcolor="#e539c0"] ;
745 -> 747 ;
748 [label="gini = 0.0\nsamples = 1\nvalue = [0, 0, 0, 1, 0]\nclass = 4", fillcolor="#3c39e5"] ;
744 -> 748 ;
749 [label="Attendace <= 46.5\ngini = 0.681\nsamples = 12\nvalue = [5, 4, 2, 1, 0]\nclass = 1", fillcolor="#fcefe6"] ;
739 -> 749 ;
750 [label="Attendace <= 44.0\ngini = 0.62\nsamples = 10\nvalue = [5, 3, 2, 0, 0]\nclass = 1", fillcolor="#f8dbc6"] ;
749 -> 750 ;
751 [label="Attendace <= 41.5\ngini = 0.5\nsamples = 4\nvalue = [2, 2, 0, 0, 0]\nclass = 1", fillcolor="#ffffff"] ;
750 -> 751 ;
752 [label="gini = 0.0\nsamples = 1\nvalue = [1, 0, 0, 0, 0]\nclass = 1", fillcolor="#e58139"] ;
751 -> 752 ;
753 [label="Gender <= 1.5\ngini = 0.444\nsamples = 3\nvalue = [1, 2, 0, 0, 0]\nclass = 2", fillcolor="#bdf29c"] ;
751 -> 753 ;
754 [label="gini = 0.0\nsamples = 2\nvalue = [0, 2, 0, 0, 0]\nclass = 2", fillcolor="#7be539"] ;
753 -> 754 ;
755 [label="gini = 0.0\nsamples = 1\nvalue = [1, 0, 0, 0, 0]\nclass = 1", fillcolor="#e58139"] ;
753 -> 755 ;
756 [label="Gender <= 1.5\ngini = 0.611\nsamples = 6\nvalue = [3, 1, 2, 0, 0]\nclass = 1", fillcolor="#f8e0ce"] ;
750 -> 756 ;
757 [label="Attendace <= 45.5\ngini = 0.5\nsamples = 2\nvalue = [1, 0, 1, 0, 0]\nclass = 1", fillcolor="#ffffff"] ;
756 -> 757 ;
758 [label="gini = 0.0\nsamples = 1\nvalue = [0, 0, 1, 0, 0]\nclass = 3", fillcolor="#39e5c5"] ;
757 -> 758 ;
759 [label="gini = 0.0\nsamples = 1\nvalue = [1, 0, 0, 0, 0]\nclass = 1", fillcolor="#e58139"] ;
757 -> 759 ;
760 [label="Attendace <= 45.5\ngini = 0.625\nsamples = 4\nvalue = [2, 1, 1, 0, 0]\nclass = 1", fillcolor="#f6d5bd"] ;
756 -> 760 ;
761 [label="gini = 0.0\nsamples = 1\nvalue = [1, 0, 0, 0, 0]\nclass = 1", fillcolor="#e58139"] ;
760 -> 761 ;
762 [label="gini = 0.667\nsamples = 3\nvalue = [1, 1, 1, 0, 0]\nclass = 1", fillcolor="#ffffff"] ;
760 -> 762 ;
763 [label="Class <= 0.5\ngini = 0.5\nsamples = 2\nvalue = [0, 1, 0, 1, 0]\nclass = 2", fillcolor="#ffffff"] ;
749 -> 763 ;
764 [label="gini = 0.0\nsamples = 1\nvalue = [0, 0, 0, 1, 0]\nclass = 4", fillcolor="#3c39e5"] ;
763 -> 764 ;
765 [label="gini = 0.0\nsamples = 1\nvalue = [0, 1, 0, 0, 0]\nclass = 2", fillcolor="#7be539"] ;
763 -> 765 ;
766 [label="Attendace <= 40.5\ngini = 0.793\nsamples = 32\nvalue = [4, 7, 7, 7, 7]\nclass = 2", fillcolor="#ffffff"] ;
688 -> 766 ;
767 [label="Attendace <= 37.5\ngini = 0.738\nsamples = 15\nvalue = [3, 4, 3, 5, 0]\nclass = 4", fillcolor="#ededfd"] ;
766 -> 767 ;
768 [label="Tuition <= 2.5\ngini = 0.444\nsamples = 3\nvalue = [1, 2, 0, 0, 0]\nclass = 2", fillcolor="#bdf29c"] ;
767 -> 768 ;
769 [label="gini = 0.0\nsamples = 2\nvalue = [0, 2, 0, 0, 0]\nclass = 2", fillcolor="#7be539"] ;
768 -> 769 ;
770 [label="gini = 0.0\nsamples = 1\nvalue = [1, 0, 0, 0, 0]\nclass = 1", fillcolor="#e58139"] ;
768 -> 770 ;
771 [label="Tuition <= 2.5\ngini = 0.708\nsamples = 12\nvalue = [2, 2, 3, 5, 0]\nclass = 4", fillcolor="#d4d3f9"] ;
767 -> 771 ;
772 [label="Attendace <= 39.5\ngini = 0.716\nsamples = 9\nvalue = [2, 1, 3, 3, 0]\nclass = 3", fillcolor="#ffffff"] ;
771 -> 772 ;
773 [label="Tuition <= 1.5\ngini = 0.5\nsamples = 4\nvalue = [0, 0, 2, 2, 0]\nclass = 3", fillcolor="#ffffff"] ;
772 -> 773 ;
774 [label="Attendace <= 38.5\ngini = 0.444\nsamples = 3\nvalue = [0, 0, 1, 2, 0]\nclass = 4", fillcolor="#9e9cf2"] ;
773 -> 774 ;
775 [label="gini = 0.0\nsamples = 1\nvalue = [0, 0, 0, 1, 0]\nclass = 4", fillcolor="#3c39e5"] ;
774 -> 775 ;
776 [label="gini = 0.5\nsamples = 2\nvalue = [0, 0, 1, 1, 0]\nclass = 3", fillcolor="#ffffff"] ;
774 -> 776 ;
777 [label="gini = 0.0\nsamples = 1\nvalue = [0, 0, 1, 0, 0]\nclass = 3", fillcolor="#39e5c5"] ;
773 -> 777 ;
778 [label="Tuition <= 1.5\ngini = 0.72\nsamples = 5\nvalue = [2, 1, 1, 1, 0]\nclass = 1", fillcolor="#f8e0ce"] ;
772 -> 778 ;
779 [label="gini = 0.0\nsamples = 1\nvalue = [0, 1, 0, 0, 0]\nclass = 2", fillcolor="#7be539"] ;
778 -> 779 ;
780 [label="gini = 0.625\nsamples = 4\nvalue = [2, 0, 1, 1, 0]\nclass = 1", fillcolor="#f6d5bd"] ;
778 -> 780 ;
781 [label="Class <= 0.5\ngini = 0.444\nsamples = 3\nvalue = [0, 1, 0, 2, 0]\nclass = 4", fillcolor="#9e9cf2"] ;
771 -> 781 ;
782 [label="gini = 0.0\nsamples = 1\nvalue = [0, 1, 0, 0, 0]\nclass = 2", fillcolor="#7be539"] ;
781 -> 782 ;
783 [label="gini = 0.0\nsamples = 2\nvalue = [0, 0, 0, 2, 0]\nclass = 4", fillcolor="#3c39e5"] ;
781 -> 783 ;
784 [label="Attendace <= 46.5\ngini = 0.727\nsamples = 17\nvalue = [1, 3, 4, 2, 7]\nclass = 5", fillcolor="#f9d1f0"] ;
766 -> 784 ;
785 [label="Attendace <= 45.5\ngini = 0.653\nsamples = 12\nvalue = [0, 3, 1, 2, 6]\nclass = 5", fillcolor="#f6bdea"] ;
784 -> 785 ;
786 [label="Attendace <= 41.5\ngini = 0.612\nsamples = 11\nvalue = [0, 3, 1, 1, 6]\nclass = 5", fillcolor="#f5b5e7"] ;
785 -> 786 ;
787 [label="Class <= 0.5\ngini = 0.5\nsamples = 2\nvalue = [0, 0, 0, 1, 1]\nclass = 4", fillcolor="#ffffff"] ;
786 -> 787 ;
788 [label="gini = 0.0\nsamples = 1\nvalue = [0, 0, 0, 1, 0]\nclass = 4", fillcolor="#3c39e5"] ;
787 -> 788 ;
789 [label="gini = 0.0\nsamples = 1\nvalue = [0, 0, 0, 0, 1]\nclass = 5", fillcolor="#e539c0"] ;
787 -> 789 ;
790 [label="Class <= 0.5\ngini = 0.568\nsamples = 9\nvalue = [0, 3, 1, 0, 5]\nclass = 5", fillcolor="#f6bdea"] ;
786 -> 790 ;
791 [label="Attendace <= 42.5\ngini = 0.5\nsamples = 6\nvalue = [0, 1, 1, 0, 4]\nclass = 5", fillcolor="#ef88d9"] ;
790 -> 791 ;
792 [label="Tuition <= 1.5\ngini = 0.5\nsamples = 2\nvalue = [0, 0, 1, 0, 1]\nclass = 3", fillcolor="#ffffff"] ;
791 -> 792 ;
793 [label="gini = 0.0\nsamples = 1\nvalue = [0, 0, 0, 0, 1]\nclass = 5", fillcolor="#e539c0"] ;
792 -> 793 ;
794 [label="gini = 0.0\nsamples = 1\nvalue = [0, 0, 1, 0, 0]\nclass = 3", fillcolor="#39e5c5"] ;
792 -> 794 ;
795 [label="Attendace <= 43.5\ngini = 0.375\nsamples = 4\nvalue = [0, 1, 0, 0, 3]\nclass = 5", fillcolor="#ee7bd5"] ;
791 -> 795 ;
796 [label="gini = 0.444\nsamples = 3\nvalue = [0, 1, 0, 0, 2]\nclass = 5", fillcolor="#f29ce0"] ;
795 -> 796 ;
797 [label="gini = 0.0\nsamples = 1\nvalue = [0, 0, 0, 0, 1]\nclass = 5", fillcolor="#e539c0"] ;
795 -> 797 ;
798 [label="Tuition <= 2.0\ngini = 0.444\nsamples = 3\nvalue = [0, 2, 0, 0, 1]\nclass = 2", fillcolor="#bdf29c"] ;
790 -> 798 ;
799 [label="gini = 0.0\nsamples = 1\nvalue = [0, 1, 0, 0, 0]\nclass = 2", fillcolor="#7be539"] ;
798 -> 799 ;
800 [label="Attendace <= 43.5\ngini = 0.5\nsamples = 2\nvalue = [0, 1, 0, 0, 1]\nclass = 2", fillcolor="#ffffff"] ;
798 -> 800 ;
801 [label="gini = 0.0\nsamples = 1\nvalue = [0, 1, 0, 0, 0]\nclass = 2", fillcolor="#7be539"] ;
800 -> 801 ;
802 [label="gini = 0.0\nsamples = 1\nvalue = [0, 0, 0, 0, 1]\nclass = 5", fillcolor="#e539c0"] ;
800 -> 802 ;
803 [label="gini = 0.0\nsamples = 1\nvalue = [0, 0, 0, 1, 0]\nclass = 4", fillcolor="#3c39e5"] ;
785 -> 803 ;
804 [label="Class <= 0.5\ngini = 0.56\nsamples = 5\nvalue = [1, 0, 3, 0, 1]\nclass = 3", fillcolor="#9cf2e2"] ;
784 -> 804 ;
805 [label="Tuition <= 1.5\ngini = 0.5\nsamples = 2\nvalue = [1, 0, 0, 0, 1]\nclass = 1", fillcolor="#ffffff"] ;
804 -> 805 ;
806 [label="gini = 0.0\nsamples = 1\nvalue = [1, 0, 0, 0, 0]\nclass = 1", fillcolor="#e58139"] ;
805 -> 806 ;
807 [label="gini = 0.0\nsamples = 1\nvalue = [0, 0, 0, 0, 1]\nclass = 5", fillcolor="#e539c0"] ;
805 -> 807 ;
808 [label="gini = 0.0\nsamples = 3\nvalue = [0, 0, 3, 0, 0]\nclass = 3", fillcolor="#39e5c5"] ;
804 -> 808 ;
809 [label="Class <= 0.5\ngini = 0.54\nsamples = 94\nvalue = [32, 55, 3, 2, 2]\nclass = 2", fillcolor="#cef5b6"] ;
687 -> 809 ;
810 [label="Tuition <= 1.5\ngini = 0.19\nsamples = 59\nvalue = [1, 53, 2, 2, 1]\nclass = 2", fillcolor="#89e84e"] ;
809 -> 810 ;
811 [label="Gender <= 2.0\ngini = 0.036\nsamples = 54\nvalue = [0, 53, 0, 1, 0]\nclass = 2", fillcolor="#7de53d"] ;
810 -> 811 ;
812 [label="gini = 0.037\nsamples = 53\nvalue = [0, 52, 0, 1, 0]\nclass = 2", fillcolor="#7ee63d"] ;
811 -> 812 ;
813 [label="gini = 0.0\nsamples = 1\nvalue = [0, 1, 0, 0, 0]\nclass = 2", fillcolor="#7be539"] ;
811 -> 813 ;
814 [label="Gender <= 1.5\ngini = 0.72\nsamples = 5\nvalue = [1, 0, 2, 1, 1]\nclass = 3", fillcolor="#cef8f0"] ;
810 -> 814 ;
815 [label="gini = 0.667\nsamples = 3\nvalue = [0, 0, 1, 1, 1]\nclass = 3", fillcolor="#ffffff"] ;
814 -> 815 ;
816 [label="Tuition <= 2.5\ngini = 0.5\nsamples = 2\nvalue = [1, 0, 1, 0, 0]\nclass = 1", fillcolor="#ffffff"] ;
814 -> 816 ;
817 [label="gini = 0.0\nsamples = 1\nvalue = [1, 0, 0, 0, 0]\nclass = 1", fillcolor="#e58139"] ;
816 -> 817 ;
818 [label="gini = 0.0\nsamples = 1\nvalue = [0, 0, 1, 0, 0]\nclass = 3", fillcolor="#39e5c5"] ;
816 -> 818 ;
819 [label="Tuition <= 1.5\ngini = 0.211\nsamples = 35\nvalue = [31, 2, 1, 0, 1]\nclass = 1", fillcolor="#e89051"] ;
809 -> 819 ;
820 [label="gini = 0.0\nsamples = 31\nvalue = [31, 0, 0, 0, 0]\nclass = 1", fillcolor="#e58139"] ;
819 -> 820 ;
821 [label="Tuition <= 2.5\ngini = 0.625\nsamples = 4\nvalue = [0, 2, 1, 0, 1]\nclass = 2", fillcolor="#d3f6bd"] ;
819 -> 821 ;
822 [label="Gender <= 2.5\ngini = 0.444\nsamples = 3\nvalue = [0, 2, 0, 0, 1]\nclass = 2", fillcolor="#bdf29c"] ;
821 -> 822 ;
823 [label="gini = 0.5\nsamples = 2\nvalue = [0, 1, 0, 0, 1]\nclass = 2", fillcolor="#ffffff"] ;
822 -> 823 ;
824 [label="gini = 0.0\nsamples = 1\nvalue = [0, 1, 0, 0, 0]\nclass = 2", fillcolor="#7be539"] ;
822 -> 824 ;
825 [label="gini = 0.0\nsamples = 1\nvalue = [0, 0, 1, 0, 0]\nclass = 3", fillcolor="#39e5c5"] ;
821 -> 825 ;
826 [label="Gender <= 1.5\ngini = 0.35\nsamples = 585\nvalue = [468, 29, 33, 31, 24]\nclass = 1", fillcolor="#eb9c63"] ;
0 -> 826 [labeldistance=2.5, labelangle=-45, headlabel="False"] ;
827 [label="Tuition <= 1.5\ngini = 0.135\nsamples = 481\nvalue = [447, 6, 12, 8, 8]\nclass = 1", fillcolor="#e78a47"] ;
826 -> 827 ;
828 [label="Term <= 0.5\ngini = 0.039\nsamples = 451\nvalue = [442, 0, 3, 3, 3]\nclass = 1", fillcolor="#e6843d"] ;
827 -> 828 ;
829 [label="Class <= 0.5\ngini = 0.444\nsamples = 3\nvalue = [0, 0, 1, 0, 2]\nclass = 5", fillcolor="#f29ce0"] ;
828 -> 829 ;
830 [label="Attendace <= 56.0\ngini = 0.5\nsamples = 2\nvalue = [0, 0, 1, 0, 1]\nclass = 3", fillcolor="#ffffff"] ;
829 -> 830 ;
831 [label="gini = 0.0\nsamples = 1\nvalue = [0, 0, 1, 0, 0]\nclass = 3", fillcolor="#39e5c5"] ;
830 -> 831 ;
832 [label="gini = 0.0\nsamples = 1\nvalue = [0, 0, 0, 0, 1]\nclass = 5", fillcolor="#e539c0"] ;
830 -> 832 ;
833 [label="gini = 0.0\nsamples = 1\nvalue = [0, 0, 0, 0, 1]\nclass = 5", fillcolor="#e539c0"] ;
829 -> 833 ;
834 [label="Attendace <= 59.5\ngini = 0.027\nsamples = 448\nvalue = [442, 0, 2, 3, 1]\nclass = 1", fillcolor="#e5833c"] ;
828 -> 834 ;
835 [label="Attendace <= 52.5\ngini = 0.024\nsamples = 415\nvalue = [410, 0, 1, 3, 1]\nclass = 1", fillcolor="#e5833b"] ;
