digraph Tree {
node [shape=box, style="filled, rounded", color="black", fontname=helvetica] ;
edge [fontname=helvetica] ;
0 [label="Attendace <= 48.5\ngini = 0.659\nsamples = 2545\nvalue = [641, 1281, 338, 141, 144]\nclass = 2", fillcolor="#d3f6bc"] ;
1 [label="Attendace <= 36.5\ngini = 0.53\nsamples = 1882\nvalue = [123, 1239, 304, 105, 111]\nclass = 2", fillcolor="#b1f08a"] ;
0 -> 1 [labeldistance=2.5, labelangle=45, headlabel="True"] ;
2 [label="Attendace <= 29.5\ngini = 0.71\nsamples = 593\nvalue = [81, 81, 278, 73, 80]\nclass = 3", fillcolor="#b3f5e9"] ;
1 -> 2 ;
3 [label="Attendace <= 27.5\ngini = 0.799\nsamples = 277\nvalue = [50, 52, 57, 58, 60]\nclass = 5", fillcolor="#fffdfe"] ;
2 -> 3 ;
4 [label="Attendace <= 25.5\ngini = 0.799\nsamples = 247\nvalue = [45, 50, 49, 53, 50]\nclass = 4", fillcolor="#fcfcff"] ;
3 -> 4 ;
5 [label="Attendace <= 23.5\ngini = 0.798\nsamples = 213\nvalue = [37, 40, 46, 43, 47]\nclass = 5", fillcolor="#fffeff"] ;
4 -> 5 ;
6 [label="Attendace <= 17.5\ngini = 0.799\nsamples = 190\nvalue = [36, 36, 37, 41, 40]\nclass = 4", fillcolor="#fefeff"] ;
5 -> 6 ;
7 [label="Tuition <= 1.5\ngini = 0.792\nsamples = 105\nvalue = [19, 17, 21, 29, 19]\nclass = 4", fillcolor="#ececfd"] ;
6 -> 7 ;
8 [label="Attendace <= 16.5\ngini = 0.764\nsamples = 39\nvalue = [12, 7, 6, 11, 3]\nclass = 1", fillcolor="#fefaf8"] ;
7 -> 8 ;
9 [label="Attendace <= 15.5\ngini = 0.765\nsamples = 36\nvalue = [10, 7, 5, 11, 3]\nclass = 4", fillcolor="#f8f7fe"] ;
8 -> 9 ;
10 [label="Gender <= 2.5\ngini = 0.752\nsamples = 32\nvalue = [10, 6, 3, 10, 3]\nclass = 1", fillcolor="#ffffff"] ;
9 -> 10 ;
11 [label="Class <= 0.5\ngini = 0.744\nsamples = 21\nvalue = [6, 6, 2, 6, 1]\nclass = 1", fillcolor="#ffffff"] ;
10 -> 11 ;
12 [label="Gender <= 1.5\ngini = 0.711\nsamples = 11\nvalue = [2, 2, 1, 5, 1]\nclass = 4", fillcolor="#bebdf6"] ;
11 -> 12 ;
13 [label="Attendace <= 10.5\ngini = 0.617\nsamples = 9\nvalue = [2, 0, 1, 5, 1]\nclass = 4", fillcolor="#abaaf4"] ;
12 -> 13 ;
14 [label="gini = 0.0\nsamples = 1\nvalue = [0, 0, 1, 0, 0]\nclass = 3", fillcolor="#39e5c5"] ;
13 -> 14 ;
15 [label="Attendace <= 11.5\ngini = 0.531\nsamples = 8\nvalue = [2, 0, 0, 5, 1]\nclass = 4", fillcolor="#9e9cf2"] ;
13 -> 15 ;
16 [label="gini = 0.0\nsamples = 3\nvalue = [0, 0, 0, 3, 0]\nclass = 4", fillcolor="#3c39e5"] ;
15 -> 16 ;
17 [label="Term <= 0.5\ngini = 0.64\nsamples = 5\nvalue = [2, 0, 0, 2, 1]\nclass = 1", fillcolor="#ffffff"] ;
15 -> 17 ;
18 [label="Attendace <= 13.5\ngini = 0.444\nsamples = 3\nvalue = [2, 0, 0, 1, 0]\nclass = 1", fillcolor="#f2c09c"] ;
17 -> 18 ;
19 [label="gini = 0.0\nsamples = 1\nvalue = [1, 0, 0, 0, 0]\nclass = 1", fillcolor="#e58139"] ;
18 -> 19 ;
20 [label="gini = 0.5\nsamples = 2\nvalue = [1, 0, 0, 1, 0]\nclass = 1", fillcolor="#ffffff"] ;
18 -> 20 ;
21 [label="Attendace <= 13.5\ngini = 0.5\nsamples = 2\nvalue = [0, 0, 0, 1, 1]\nclass = 4", fillcolor="#ffffff"] ;
17 -> 21 ;
22 [label="gini = 0.0\nsamples = 1\nvalue = [0, 0, 0, 1, 0]\nclass = 4", fillcolor="#3c39e5"] ;
21 -> 22 ;
23 [label="gini = 0.0\nsamples = 1\nvalue = [0, 0, 0, 0, 1]\nclass = 5", fillcolor="#e539c0"] ;
21 -> 23 ;
24 [label="gini = 0.0\nsamples = 2\nvalue = [0, 2, 0, 0, 0]\nclass = 2", fillcolor="#7be539"] ;
12 -> 24 ;
25 [label="Attendace <= 11.5\ngini = 0.66\nsamples = 10\nvalue = [4, 4, 1, 1, 0]\nclass = 1", fillcolor="#ffffff"] ;
11 -> 25 ;
26 [label="Attendace <= 10.5\ngini = 0.375\nsamples = 4\nvalue = [1, 3, 0, 0, 0]\nclass = 2", fillcolor="#a7ee7b"] ;
25 -> 26 ;
27 [label="gini = 0.0\nsamples = 1\nvalue = [1, 0, 0, 0, 0]\nclass = 1", fillcolor="#e58139"] ;
26 -> 27 ;
28 [label="gini = 0.0\nsamples = 3\nvalue = [0, 3, 0, 0, 0]\nclass = 2", fillcolor="#7be539"] ;
26 -> 28 ;
29 [label="Term <= 0.5\ngini = 0.667\nsamples = 6\nvalue = [3, 1, 1, 1, 0]\nclass = 1", fillcolor="#f5cdb0"] ;
25 -> 29 ;
30 [label="gini = 0.0\nsamples = 1\nvalue = [0, 0, 1, 0, 0]\nclass = 3", fillcolor="#39e5c5"] ;
29 -> 30 ;
31 [label="Gender <= 1.5\ngini = 0.56\nsamples = 5\nvalue = [3, 1, 0, 1, 0]\nclass = 1", fillcolor="#f2c09c"] ;
29 -> 31 ;
32 [label="Attendace <= 14.0\ngini = 0.5\nsamples = 2\nvalue = [1, 1, 0, 0, 0]\nclass = 1", fillcolor="#ffffff"] ;
31 -> 32 ;
33 [label="gini = 0.0\nsamples = 1\nvalue = [0, 1, 0, 0, 0]\nclass = 2", fillcolor="#7be539"] ;
32 -> 33 ;
34 [label="gini = 0.0\nsamples = 1\nvalue = [1, 0, 0, 0, 0]\nclass = 1", fillcolor="#e58139"] ;
32 -> 34 ;
35 [label="Attendace <= 13.5\ngini = 0.444\nsamples = 3\nvalue = [2, 0, 0, 1, 0]\nclass = 1", fillcolor="#f2c09c"] ;
31 -> 35 ;
36 [label="gini = 0.0\nsamples = 2\nvalue = [2, 0, 0, 0, 0]\nclass = 1", fillcolor="#e58139"] ;
35 -> 36 ;
37 [label="gini = 0.0\nsamples = 1\nvalue = [0, 0, 0, 1, 0]\nclass = 4", fillcolor="#3c39e5"] ;
35 -> 37 ;
38 [label="Class <= 0.5\ngini = 0.694\nsamples = 11\nvalue = [4, 0, 1, 4, 2]\nclass = 1", fillcolor="#ffffff"] ;
10 -> 38 ;
39 [label="Attendace <= 14.0\ngini = 0.571\nsamples = 7\nvalue = [4, 0, 1, 2, 0]\nclass = 1", fillcolor="#f5cdb0"] ;
38 -> 39 ;
40 [label="Attendace <= 12.5\ngini = 0.5\nsamples = 6\nvalue = [4, 0, 1, 1, 0]\nclass = 1", fillcolor="#efb388"] ;
39 -> 40 ;
41 [label="Attendace <= 11.5\ngini = 0.667\nsamples = 3\nvalue = [1, 0, 1, 1, 0]\nclass = 1", fillcolor="#ffffff"] ;
40 -> 41 ;
42 [label="Term <= 0.5\ngini = 0.5\nsamples = 2\nvalue = [1, 0, 1, 0, 0]\nclass = 1", fillcolor="#ffffff"] ;
41 -> 42 ;
43 [label="gini = 0.0\nsamples = 1\nvalue = [0, 0, 1, 0, 0]\nclass = 3", fillcolor="#39e5c5"] ;
42 -> 43 ;
44 [label="gini = 0.0\nsamples = 1\nvalue = [1, 0, 0, 0, 0]\nclass = 1", fillcolor="#e58139"] ;
42 -> 44 ;
45 [label="gini = 0.0\nsamples = 1\nvalue = [0, 0, 0, 1, 0]\nclass = 4", fillcolor="#3c39e5"] ;
41 -> 45 ;
46 [label="gini = 0.0\nsamples = 3\nvalue = [3, 0, 0, 0, 0]\nclass = 1", fillcolor="#e58139"] ;
40 -> 46 ;
47 [label="gini = 0.0\nsamples = 1\nvalue = [0, 0, 0, 1, 0]\nclass = 4", fillcolor="#3c39e5"] ;
39 -> 47 ;
48 [label="Attendace <= 11.5\ngini = 0.5\nsamples = 4\nvalue = [0, 0, 0, 2, 2]\nclass = 4", fillcolor="#ffffff"] ;
38 -> 48 ;
49 [label="gini = 0.0\nsamples = 1\nvalue = [0, 0, 0, 0, 1]\nclass = 5", fillcolor="#e539c0"] ;
48 -> 49 ;
50 [label="Term <= 0.5\ngini = 0.444\nsamples = 3\nvalue = [0, 0, 0, 2, 1]\nclass = 4", fillcolor="#9e9cf2"] ;
48 -> 50 ;
51 [label="gini = 0.0\nsamples = 1\nvalue = [0, 0, 0, 1, 0]\nclass = 4", fillcolor="#3c39e5"] ;
50 -> 51 ;
52 [label="Attendace <= 13.0\ngini = 0.5\nsamples = 2\nvalue = [0, 0, 0, 1, 1]\nclass = 4", fillcolor="#ffffff"] ;
50 -> 52 ;
53 [label="gini = 0.0\nsamples = 1\nvalue = [0, 0, 0, 1, 0]\nclass = 4", fillcolor="#3c39e5"] ;
52 -> 53 ;
54 [label="gini = 0.0\nsamples = 1\nvalue = [0, 0, 0, 0, 1]\nclass = 5", fillcolor="#e539c0"] ;
52 -> 54 ;
55 [label="Term <= 0.5\ngini = 0.625\nsamples = 4\nvalue = [0, 1, 2, 1, 0]\nclass = 3", fillcolor="#bdf6ec"] ;
9 -> 55 ;
56 [label="Class <= 0.5\ngini = 0.5\nsamples = 2\nvalue = [0, 1, 0, 1, 0]\nclass = 2", fillcolor="#ffffff"] ;
55 -> 56 ;
57 [label="gini = 0.0\nsamples = 1\nvalue = [0, 0, 0, 1, 0]\nclass = 4", fillcolor="#3c39e5"] ;
56 -> 57 ;
58 [label="gini = 0.0\nsamples = 1\nvalue = [0, 1, 0, 0, 0]\nclass = 2", fillcolor="#7be539"] ;
56 -> 58 ;
59 [label="gini = 0.0\nsamples = 2\nvalue = [0, 0, 2, 0, 0]\nclass = 3", fillcolor="#39e5c5"] ;
55 -> 59 ;
60 [label="Term <= 0.5\ngini = 0.444\nsamples = 3\nvalue = [2, 0, 1, 0, 0]\nclass = 1", fillcolor="#f2c09c"] ;
8 -> 60 ;
61 [label="gini = 0.0\nsamples = 2\nvalue = [2, 0, 0, 0, 0]\nclass = 1", fillcolor="#e58139"] ;
60 -> 61 ;
62 [label="gini = 0.0\nsamples = 1\nvalue = [0, 0, 1, 0, 0]\nclass = 3", fillcolor="#39e5c5"] ;
60 -> 62 ;
63 [label="Attendace <= 14.5\ngini = 0.781\nsamples = 66\nvalue = [7, 10, 15, 18, 16]\nclass = 4", fillcolor="#f7f7fe"] ;
7 -> 63 ;
64 [label="Tuition <= 2.5\ngini = 0.794\nsamples = 48\nvalue = [7, 9, 10, 10, 12]\nclass = 5", fillcolor="#fef5fc"] ;
63 -> 64 ;
65 [label="Gender <= 2.5\ngini = 0.753\nsamples = 24\nvalue = [1, 5, 6, 4, 8]\nclass = 5", fillcolor="#fce9f8"] ;
64 -> 65 ;
66 [label="Attendace <= 13.5\ngini = 0.704\nsamples = 14\nvalue = [1, 1, 4, 2, 6]\nclass = 5", fillcolor="#fad7f2"] ;
65 -> 66 ;
67 [label="Class <= 0.5\ngini = 0.625\nsamples = 12\nvalue = [0, 1, 4, 1, 6]\nclass = 5", fillcolor="#f8ceef"] ;
66 -> 67 ;
68 [label="Term <= 0.5\ngini = 0.48\nsamples = 5\nvalue = [0, 0, 3, 0, 2]\nclass = 3", fillcolor="#bdf6ec"] ;
67 -> 68 ;
69 [label="gini = 0.0\nsamples = 1\nvalue = [0, 0, 1, 0, 0]\nclass = 3", fillcolor="#39e5c5"] ;
68 -> 69 ;
70 [label="Attendace <= 12.0\ngini = 0.5\nsamples = 4\nvalue = [0, 0, 2, 0, 2]\nclass = 3", fillcolor="#ffffff"] ;
68 -> 70 ;
71 [label="gini = 0.5\nsamples = 2\nvalue = [0, 0, 1, 0, 1]\nclass = 3", fillcolor="#ffffff"] ;
70 -> 71 ;
72 [label="gini = 0.5\nsamples = 2\nvalue = [0, 0, 1, 0, 1]\nclass = 3", fillcolor="#ffffff"] ;
70 -> 72 ;
73 [label="Gender <= 1.5\ngini = 0.612\nsamples = 7\nvalue = [0, 1, 1, 1, 4]\nclass = 5", fillcolor="#f29ce0"] ;
67 -> 73 ;
74 [label="Attendace <= 10.5\ngini = 0.667\nsamples = 3\nvalue = [0, 1, 1, 0, 1]\nclass = 2", fillcolor="#ffffff"] ;
73 -> 74 ;
75 [label="Term <= 0.5\ngini = 0.5\nsamples = 2\nvalue = [0, 1, 1, 0, 0]\nclass = 2", fillcolor="#ffffff"] ;
74 -> 75 ;
76 [label="gini = 0.0\nsamples = 1\nvalue = [0, 0, 1, 0, 0]\nclass = 3", fillcolor="#39e5c5"] ;
75 -> 76 ;
77 [label="gini = 0.0\nsamples = 1\nvalue = [0, 1, 0, 0, 0]\nclass = 2", fillcolor="#7be539"] ;
75 -> 77 ;
78 [label="gini = 0.0\nsamples = 1\nvalue = [0, 0, 0, 0, 1]\nclass = 5", fillcolor="#e539c0"] ;
74 -> 78 ;
79 [label="Term <= 0.5\ngini = 0.375\nsamples = 4\nvalue = [0, 0, 0, 1, 3]\nclass = 5", fillcolor="#ee7bd5"] ;
73 -> 79 ;
80 [label="gini = 0.0\nsamples = 1\nvalue = [0, 0, 0, 0, 1]\nclass = 5", fillcolor="#e539c0"] ;
79 -> 80 ;
81 [label="Attendace <= 11.0\ngini = 0.444\nsamples = 3\nvalue = [0, 0, 0, 1, 2]\nclass = 5", fillcolor="#f29ce0"] ;
79 -> 81 ;
82 [label="gini = 0.0\nsamples = 1\nvalue = [0, 0, 0, 0, 1]\nclass = 5", fillcolor="#e539c0"] ;
81 -> 82 ;
83 [label="Attendace <= 12.5\ngini = 0.5\nsamples = 2\nvalue = [0, 0, 0, 1, 1]\nclass = 4", fillcolor="#ffffff"] ;
81 -> 83 ;
84 [label="gini = 0.0\nsamples = 1\nvalue = [0, 0, 0, 1, 0]\nclass = 4", fillcolor="#3c39e5"] ;
83 -> 84 ;
85 [label="gini = 0.0\nsamples = 1\nvalue = [0, 0, 0, 0, 1]\nclass = 5", fillcolor="#e539c0"] ;
83 -> 85 ;
86 [label="Term <= 0.5\ngini = 0.5\nsamples = 2\nvalue = [1, 0, 0, 1, 0]\nclass = 1", fillcolor="#ffffff"] ;
66 -> 86 ;
87 [label="gini = 0.0\nsamples = 1\nvalue = [0, 0, 0, 1, 0]\nclass = 4", fillcolor="#3c39e5"] ;
86 -> 87 ;
88 [label="gini = 0.0\nsamples = 1\nvalue = [1, 0, 0, 0, 0]\nclass = 1", fillcolor="#e58139"] ;
86 -> 88 ;
89 [label="Attendace <= 12.0\ngini = 0.72\nsamples = 10\nvalue = [0, 4, 2, 2, 2]\nclass = 2", fillcolor="#def8ce"] ;
65 -> 89 ;
90 [label="Term <= 0.5\ngini = 0.722\nsamples = 6\nvalue = [0, 1, 2, 2, 1]\nclass = 3", fillcolor="#ffffff"] ;
89 -> 90 ;
91 [label="Attendace <= 10.5\ngini = 0.5\nsamples = 4\nvalue = [0, 0, 2, 2, 0]\nclass = 3", fillcolor="#ffffff"] ;
90 -> 91 ;
92 [label="gini = 0.0\nsamples = 1\nvalue = [0, 0, 1, 0, 0]\nclass = 3", fillcolor="#39e5c5"] ;
91 -> 92 ;
93 [label="Class <= 0.5\ngini = 0.444\nsamples = 3\nvalue = [0, 0, 1, 2, 0]\nclass = 4", fillcolor="#9e9cf2"] ;
91 -> 93 ;
94 [label="gini = 0.5\nsamples = 2\nvalue = [0, 0, 1, 1, 0]\nclass = 3", fillcolor="#ffffff"] ;
93 -> 94 ;
95 [label="gini = 0.0\nsamples = 1\nvalue = [0, 0, 0, 1, 0]\nclass = 4", fillcolor="#3c39e5"] ;
93 -> 95 ;
96 [label="Attendace <= 10.5\ngini = 0.5\nsamples = 2\nvalue = [0, 1, 0, 0, 1]\nclass = 2", fillcolor="#ffffff"] ;
90 -> 96 ;
97 [label="gini = 0.0\nsamples = 1\nvalue = [0, 0, 0, 0, 1]\nclass = 5", fillcolor="#e539c0"] ;
96 -> 97 ;
98 [label="gini = 0.0\nsamples = 1\nvalue = [0, 1, 0, 0, 0]\nclass = 2", fillcolor="#7be539"] ;
96 -> 98 ;
99 [label="Class <= 0.5\ngini = 0.375\nsamples = 4\nvalue = [0, 3, 0, 0, 1]\nclass = 2", fillcolor="#a7ee7b"] ;
89 -> 99 ;
100 [label="gini = 0.0\nsamples = 1\nvalue = [0, 1, 0, 0, 0]\nclass = 2", fillcolor="#7be539"] ;
99 -> 100 ;
101 [label="Term <= 0.5\ngini = 0.444\nsamples = 3\nvalue = [0, 2, 0, 0, 1]\nclass = 2", fillcolor="#bdf29c"] ;
99 -> 101 ;
102 [label="gini = 0.5\nsamples = 2\nvalue = [0, 1, 0, 0, 1]\nclass = 2", fillcolor="#ffffff"] ;
101 -> 102 ;
103 [label="gini = 0.0\nsamples = 1\nvalue = [0, 1, 0, 0, 0]\nclass = 2", fillcolor="#7be539"] ;
101 -> 103 ;
104 [label="Attendace <= 10.5\ngini = 0.792\nsamples = 24\nvalue = [6, 4, 4, 6, 4]\nclass = 1", fillcolor="#ffffff"] ;
64 -> 104 ;
105 [label="Gender <= 2.5\ngini = 0.694\nsamples = 7\nvalue = [1, 3, 0, 1, 2]\nclass = 2", fillcolor="#e5fad7"] ;
104 -> 105 ;
106 [label="Gender <= 1.5\ngini = 0.375\nsamples = 4\nvalue = [0, 3, 0, 0, 1]\nclass = 2", fillcolor="#a7ee7b"] ;
105 -> 106 ;
107 [label="Class <= 0.5\ngini = 0.5\nsamples = 2\nvalue = [0, 1, 0, 0, 1]\nclass = 2", fillcolor="#ffffff"] ;
106 -> 107 ;
108 [label="gini = 0.0\nsamples = 1\nvalue = [0, 1, 0, 0, 0]\nclass = 2", fillcolor="#7be539"] ;
107 -> 108 ;
109 [label="gini = 0.0\nsamples = 1\nvalue = [0, 0, 0, 0, 1]\nclass = 5", fillcolor="#e539c0"] ;
107 -> 109 ;
110 [label="gini = 0.0\nsamples = 2\nvalue = [0, 2, 0, 0, 0]\nclass = 2", fillcolor="#7be539"] ;
106 -> 110 ;
111 [label="Term <= 0.5\ngini = 0.667\nsamples = 3\nvalue = [1, 0, 0, 1, 1]\nclass = 1", fillcolor="#ffffff"] ;
105 -> 111 ;
112 [label="gini = 0.5\nsamples = 2\nvalue = [0, 0, 0, 1, 1]\nclass = 4", fillcolor="#ffffff"] ;
111 -> 112 ;
113 [label="gini = 0.0\nsamples = 1\nvalue = [1, 0, 0, 0, 0]\nclass = 1", fillcolor="#e58139"] ;
111 -> 113 ;
114 [label="Gender <= 2.5\ngini = 0.754\nsamples = 17\nvalue = [5, 1, 4, 5, 2]\nclass = 1", fillcolor="#ffffff"] ;
104 -> 114 ;
115 [label="Gender <= 1.5\ngini = 0.722\nsamples = 13\nvalue = [5, 1, 1, 4, 2]\nclass = 1", fillcolor="#fcf1e9"] ;
114 -> 115 ;
116 [label="Class <= 0.5\ngini = 0.612\nsamples = 7\nvalue = [4, 0, 1, 1, 1]\nclass = 1", fillcolor="#f2c09c"] ;
115 -> 116 ;
117 [label="gini = 0.667\nsamples = 3\nvalue = [1, 0, 1, 0, 1]\nclass = 1", fillcolor="#ffffff"] ;
116 -> 117 ;
118 [label="Term <= 0.5\ngini = 0.375\nsamples = 4\nvalue = [3, 0, 0, 1, 0]\nclass = 1", fillcolor="#eeab7b"] ;
116 -> 118 ;
119 [label="gini = 0.0\nsamples = 2\nvalue = [2, 0, 0, 0, 0]\nclass = 1", fillcolor="#e58139"] ;
118 -> 119 ;
120 [label="Attendace <= 11.5\ngini = 0.5\nsamples = 2\nvalue = [1, 0, 0, 1, 0]\nclass = 1", fillcolor="#ffffff"] ;
118 -> 120 ;
121 [label="gini = 0.0\nsamples = 1\nvalue = [0, 0, 0, 1, 0]\nclass = 4", fillcolor="#3c39e5"] ;
120 -> 121 ;
122 [label="gini = 0.0\nsamples = 1\nvalue = [1, 0, 0, 0, 0]\nclass = 1", fillcolor="#e58139"] ;
120 -> 122 ;
123 [label="Attendace <= 13.5\ngini = 0.667\nsamples = 6\nvalue = [1, 1, 0, 3, 1]\nclass = 4", fillcolor="#b1b0f5"] ;
115 -> 123 ;
124 [label="gini = 0.0\nsamples = 2\nvalue = [0, 0, 0, 2, 0]\nclass = 4", fillcolor="#3c39e5"] ;
123 -> 124 ;
125 [label="Term <= 0.5\ngini = 0.75\nsamples = 4\nvalue = [1, 1, 0, 1, 1]\nclass = 1", fillcolor="#ffffff"] ;
123 -> 125 ;
126 [label="gini = 0.0\nsamples = 1\nvalue = [0, 1, 0, 0, 0]\nclass = 2", fillcolor="#7be539"] ;
125 -> 126 ;
127 [label="Class <= 0.5\ngini = 0.667\nsamples = 3\nvalue = [1, 0, 0, 1, 1]\nclass = 1", fillcolor="#ffffff"] ;
125 -> 127 ;
128 [label="gini = 0.0\nsamples = 1\nvalue = [1, 0, 0, 0, 0]\nclass = 1", fillcolor="#e58139"] ;
127 -> 128 ;
129 [label="gini = 0.5\nsamples = 2\nvalue = [0, 0, 0, 1, 1]\nclass = 4", fillcolor="#ffffff"] ;
127 -> 129 ;
130 [label="Attendace <= 12.5\ngini = 0.375\nsamples = 4\nvalue = [0, 0, 3, 1, 0]\nclass = 3", fillcolor="#7beed8"] ;
114 -> 130 ;
131 [label="gini = 0.0\nsamples = 1\nvalue = [0, 0, 0, 1, 0]\nclass = 4", fillcolor="#3c39e5"] ;
130 -> 131 ;
132 [label="gini = 0.0\nsamples = 3\nvalue = [0, 0, 3, 0, 0]\nclass = 3", fillcolor="#39e5c5"] ;
130 -> 132 ;
133 [label="Class <= 0.5\ngini = 0.673\nsamples = 18\nvalue = [0, 1, 5, 8, 4]\nclass = 4", fillcolor="#d2d1f9"] ;
63 -> 133 ;
134 [label="Tuition <= 2.5\ngini = 0.519\nsamples = 9\nvalue = [0, 1, 1, 6, 1]\nclass = 4", fillcolor="#8583ef"] ;
133 -> 134 ;
135 [label="Attendace <= 15.5\ngini = 0.667\nsamples = 6\nvalue = [0, 1, 1, 3, 1]\nclass = 4", fillcolor="#b1b0f5"] ;
134 -> 135 ;
136 [label="gini = 0.0\nsamples = 1\nvalue = [0, 0, 1, 0, 0]\nclass = 3", fillcolor="#39e5c5"] ;
135 -> 136 ;
137 [label="Attendace <= 16.5\ngini = 0.56\nsamples = 5\nvalue = [0, 1, 0, 3, 1]\nclass = 4", fillcolor="#9e9cf2"] ;
135 -> 137 ;
138 [label="Term <= 0.5\ngini = 0.5\nsamples = 2\nvalue = [0, 0, 0, 1, 1]\nclass = 4", fillcolor="#ffffff"] ;
137 -> 138 ;
139 [label="gini = 0.0\nsamples = 1\nvalue = [0, 0, 0, 1, 0]\nclass = 4", fillcolor="#3c39e5"] ;
138 -> 139 ;
140 [label="gini = 0.0\nsamples = 1\nvalue = [0, 0, 0, 0, 1]\nclass = 5", fillcolor="#e539c0"] ;
138 -> 140 ;
141 [label="Gender <= 1.5\ngini = 0.444\nsamples = 3\nvalue = [0, 1, 0, 2, 0]\nclass = 4", fillcolor="#9e9cf2"] ;
137 -> 141 ;
142 [label="gini = 0.5\nsamples = 2\nvalue = [0, 1, 0, 1, 0]\nclass = 2", fillcolor="#ffffff"] ;
141 -> 142 ;
143 [label="gini = 0.0\nsamples = 1\nvalue = [0, 0, 0, 1, 0]\nclass = 4", fillcolor="#3c39e5"] ;
141 -> 143 ;
144 [label="gini = 0.0\nsamples = 3\nvalue = [0, 0, 0, 3, 0]\nclass = 4", fillcolor="#3c39e5"] ;
134 -> 144 ;
145 [label="Attendace <= 16.5\ngini = 0.642\nsamples = 9\nvalue = [0, 0, 4, 2, 3]\nclass = 3", fillcolor="#defbf5"] ;
133 -> 145 ;
146 [label="Term <= 0.5\ngini = 0.5\nsamples = 4\nvalue = [0, 0, 0, 2, 2]\nclass = 4", fillcolor="#ffffff"] ;
145 -> 146 ;
147 [label="gini = 0.0\nsamples = 2\nvalue = [0, 0, 0, 2, 0]\nclass = 4", fillcolor="#3c39e5"] ;
146 -> 147 ;
148 [label="gini = 0.0\nsamples = 2\nvalue = [0, 0, 0, 0, 2]\nclass = 5", fillcolor="#e539c0"] ;
146 -> 148 ;
149 [label="Term <= 0.5\ngini = 0.32\nsamples = 5\nvalue = [0, 0, 4, 0, 1]\nclass = 3", fillcolor="#6aecd4"] ;
145 -> 149 ;
150 [label="Gender <= 2.5\ngini = 0.444\nsamples = 3\nvalue = [0, 0, 2, 0, 1]\nclass = 3", fillcolor="#9cf2e2"] ;
149 -> 150 ;
151 [label="gini = 0.5\nsamples = 2\nvalue = [0, 0, 1, 0, 1]\nclass = 3", fillcolor="#ffffff"] ;
150 -> 151 ;
152 [label="gini = 0.0\nsamples = 1\nvalue = [0, 0, 1, 0, 0]\nclass = 3", fillcolor="#39e5c5"] ;
150 -> 152 ;
153 [label="gini = 0.0\nsamples = 2\nvalue = [0, 0, 2, 0, 0]\nclass = 3", fillcolor="#39e5c5"] ;
149 -> 153 ;
154 [label="Term <= 0.5\ngini = 0.794\nsamples = 85\nvalue = [17, 19, 16, 12, 21]\nclass = 5", fillcolor="#fef9fd"] ;
6 -> 154 ;
155 [label="Tuition <= 2.5\ngini = 0.77\nsamples = 47\nvalue = [8, 12, 7, 5, 15]\nclass = 5", fillcolor="#fdeefa"] ;
154 -> 155 ;
156 [label="Attendace <= 22.5\ngini = 0.737\nsamples = 29\nvalue = [2, 8, 4, 4, 11]\nclass = 5", fillcolor="#fbe3f6"] ;
155 -> 156 ;
157 [label="Class <= 0.5\ngini = 0.701\nsamples = 25\nvalue = [2, 7, 2, 3, 11]\nclass = 5", fillcolor="#f9d3f1"] ;
156 -> 157 ;
158 [label="Attendace <= 20.5\ngini = 0.571\nsamples = 7\nvalue = [1, 4, 0, 0, 2]\nclass = 2", fillcolor="#caf5b0"] ;
157 -> 158 ;
159 [label="gini = 0.0\nsamples = 3\nvalue = [0, 3, 0, 0, 0]\nclass = 2", fillcolor="#7be539"] ;
158 -> 159 ;
160 [label="Attendace <= 21.5\ngini = 0.625\nsamples = 4\nvalue = [1, 1, 0, 0, 2]\nclass = 5", fillcolor="#f6bdea"] ;
158 -> 160 ;
161 [label="gini = 0.0\nsamples = 1\nvalue = [0, 0, 0, 0, 1]\nclass = 5", fillcolor="#e539c0"] ;
160 -> 161 ;
162 [label="gini = 0.667\nsamples = 3\nvalue = [1, 1, 0, 0, 1]\nclass = 1", fillcolor="#ffffff"] ;
160 -> 162 ;
163 [label="Attendace <= 18.5\ngini = 0.679\nsamples = 18\nvalue = [1, 3, 2, 3, 9]\nclass = 5", fillcolor="#f5b0e6"] ;
157 -> 163 ;
164 [label="gini = 0.0\nsamples = 1\nvalue = [0, 0, 0, 1, 0]\nclass = 4", fillcolor="#3c39e5"] ;
163 -> 164 ;
165 [label="Attendace <= 19.5\ngini = 0.657\nsamples = 17\nvalue = [1, 3, 2, 2, 9]\nclass = 5", fillcolor="#f4aae4"] ;
163 -> 165 ;
166 [label="gini = 0.0\nsamples = 3\nvalue = [0, 0, 0, 0, 3]\nclass = 5", fillcolor="#e539c0"] ;
165 -> 166 ;
167 [label="Gender <= 2.5\ngini = 0.724\nsamples = 14\nvalue = [1, 3, 2, 2, 6]\nclass = 5", fillcolor="#f8c9ee"] ;
165 -> 167 ;
168 [label="Gender <= 1.5\ngini = 0.656\nsamples = 8\nvalue = [1, 1, 0, 2, 4]\nclass = 5", fillcolor="#f6bdea"] ;
167 -> 168 ;
169 [label="Attendace <= 21.0\ngini = 0.5\nsamples = 2\nvalue = [0, 1, 0, 0, 1]\nclass = 2", fillcolor="#ffffff"] ;
168 -> 169 ;
170 [label="gini = 0.0\nsamples = 1\nvalue = [0, 0, 0, 0, 1]\nclass = 5", fillcolor="#e539c0"] ;
169 -> 170 ;
171 [label="gini = 0.0\nsamples = 1\nvalue = [0, 1, 0, 0, 0]\nclass = 2", fillcolor="#7be539"] ;
169 -> 171 ;
172 [label="Tuition <= 1.5\ngini = 0.611\nsamples = 6\nvalue = [1, 0, 0, 2, 3]\nclass = 5", fillcolor="#f8ceef"] ;
168 -> 172 ;
173 [label="Attendace <= 21.5\ngini = 0.444\nsamples = 3\nvalue = [0, 0, 0, 1, 2]\nclass = 5", fillcolor="#f29ce0"] ;
172 -> 173 ;
174 [label="gini = 0.0\nsamples = 1\nvalue = [0, 0, 0, 0, 1]\nclass = 5", fillcolor="#e539c0"] ;
173 -> 174 ;
175 [label="gini = 0.5\nsamples = 2\nvalue = [0, 0, 0, 1, 1]\nclass = 4", fillcolor="#ffffff"] ;
173 -> 175 ;
176 [label="gini = 0.667\nsamples = 3\nvalue = [1, 0, 0, 1, 1]\nclass = 1", fillcolor="#ffffff"] ;
172 -> 176 ;
177 [label="Attendace <= 20.5\ngini = 0.667\nsamples = 6\nvalue = [0, 2, 2, 0, 2]\nclass = 2", fillcolor="#ffffff"] ;
167 -> 177 ;
178 [label="Tuition <= 1.5\ngini = 0.64\nsamples = 5\nvalue = [0, 1, 2, 0, 2]\nclass = 3", fillcolor="#ffffff"] ;
177 -> 178 ;
179 [label="gini = 0.5\nsamples = 2\nvalue = [0, 1, 1, 0, 0]\nclass = 2", fillcolor="#ffffff"] ;
178 -> 179 ;
180 [label="gini = 0.444\nsamples = 3\nvalue = [0, 0, 1, 0, 2]\nclass = 5", fillcolor="#f29ce0"] ;
178 -> 180 ;
181 [label="gini = 0.0\nsamples = 1\nvalue = [0, 1, 0, 0, 0]\nclass = 2", fillcolor="#7be539"] ;
177 -> 181 ;
182 [label="Tuition <= 1.5\ngini = 0.625\nsamples = 4\nvalue = [0, 1, 2, 1, 0]\nclass = 3", fillcolor="#bdf6ec"] ;
156 -> 182 ;
183 [label="Gender <= 2.5\ngini = 0.5\nsamples = 2\nvalue = [0, 1, 0, 1, 0]\nclass = 2", fillcolor="#ffffff"] ;
182 -> 183 ;
184 [label="gini = 0.0\nsamples = 1\nvalue = [0, 0, 0, 1, 0]\nclass = 4", fillcolor="#3c39e5"] ;
183 -> 184 ;
185 [label="gini = 0.0\nsamples = 1\nvalue = [0, 1, 0, 0, 0]\nclass = 2", fillcolor="#7be539"] ;
183 -> 185 ;
186 [label="gini = 0.0\nsamples = 2\nvalue = [0, 0, 2, 0, 0]\nclass = 3", fillcolor="#39e5c5"] ;
182 -> 186 ;
187 [label="Class <= 0.5\ngini = 0.759\nsamples = 18\nvalue = [6, 4, 3, 1, 4]\nclass = 1", fillcolor="#fbede3"] ;
155 -> 187 ;
188 [label="Gender <= 2.5\ngini = 0.741\nsamples = 9\nvalue = [3, 1, 3, 1, 1]\nclass = 1", fillcolor="#ffffff"] ;
187 -> 188 ;
189 [label="Attendace <= 18.5\ngini = 0.72\nsamples = 5\nvalue = [2, 1, 1, 0, 1]\nclass = 1", fillcolor="#f8e0ce"] ;
188 -> 189 ;
190 [label="gini = 0.0\nsamples = 1\nvalue = [0, 1, 0, 0, 0]\nclass = 2", fillcolor="#7be539"] ;
189 -> 190 ;
191 [label="Attendace <= 20.5\ngini = 0.625\nsamples = 4\nvalue = [2, 0, 1, 0, 1]\nclass = 1", fillcolor="#f6d5bd"] ;
189 -> 191 ;
192 [label="gini = 0.5\nsamples = 2\nvalue = [1, 0, 0, 0, 1]\nclass = 1", fillcolor="#ffffff"] ;
191 -> 192 ;
193 [label="gini = 0.5\nsamples = 2\nvalue = [1, 0, 1, 0, 0]\nclass = 1", fillcolor="#ffffff"] ;
191 -> 193 ;
194 [label="Attendace <= 20.0\ngini = 0.625\nsamples = 4\nvalue = [1, 0, 2, 1, 0]\nclass = 3", fillcolor="#bdf6ec"] ;
188 -> 194 ;
195 [label="Attendace <= 18.5\ngini = 0.444\nsamples = 3\nvalue = [1, 0, 2, 0, 0]\nclass = 3", fillcolor="#9cf2e2"] ;
194 -> 195 ;
196 [label="gini = 0.5\nsamples = 2\nvalue = [1, 0, 1, 0, 0]\nclass = 1", fillcolor="#ffffff"] ;
195 -> 196 ;
197 [label="gini = 0.0\nsamples = 1\nvalue = [0, 0, 1, 0, 0]\nclass = 3", fillcolor="#39e5c5"] ;
195 -> 197 ;
198 [label="gini = 0.0\nsamples = 1\nvalue = [0, 0, 0, 1, 0]\nclass = 4", fillcolor="#3c39e5"] ;
194 -> 198 ;
199 [label="Gender <= 1.5\ngini = 0.667\nsamples = 9\nvalue = [3, 3, 0, 0, 3]\nclass = 1", fillcolor="#ffffff"] ;
187 -> 199 ;
200 [label="Attendace <= 21.0\ngini = 0.5\nsamples = 2\nvalue = [0, 1, 0, 0, 1]\nclass = 2", fillcolor="#ffffff"] ;
199 -> 200 ;
201 [label="gini = 0.0\nsamples = 1\nvalue = [0, 1, 0, 0, 0]\nclass = 2", fillcolor="#7be539"] ;
200 -> 201 ;
202 [label="gini = 0.0\nsamples = 1\nvalue = [0, 0, 0, 0, 1]\nclass = 5", fillcolor="#e539c0"] ;
200 -> 202 ;
203 [label="Attendace <= 18.5\ngini = 0.653\nsamples = 7\nvalue = [3, 2, 0, 0, 2]\nclass = 1", fillcolor="#fae6d7"] ;
199 -> 203 ;
204 [label="gini = 0.5\nsamples = 2\nvalue = [0, 1, 0, 0, 1]\nclass = 2", fillcolor="#ffffff"] ;
203 -> 204 ;
205 [label="Attendace <= 20.5\ngini = 0.56\nsamples = 5\nvalue = [3, 1, 0, 0, 1]\nclass = 1", fillcolor="#f2c09c"] ;
203 -> 205 ;
206 [label="Gender <= 2.5\ngini = 0.5\nsamples = 2\nvalue = [1, 0, 0, 0, 1]\nclass = 1", fillcolor="#ffffff"] ;
205 -> 206 ;
207 [label="gini = 0.0\nsamples = 1\nvalue = [1, 0, 0, 0, 0]\nclass = 1", fillcolor="#e58139"] ;
206 -> 207 ;
208 [label="gini = 0.0\nsamples = 1\nvalue = [0, 0, 0, 0, 1]\nclass = 5", fillcolor="#e539c0"] ;
206 -> 208 ;
209 [label="Attendace <= 22.5\ngini = 0.444\nsamples = 3\nvalue = [2, 1, 0, 0, 0]\nclass = 1", fillcolor="#f2c09c"] ;
205 -> 209 ;
210 [label="gini = 0.0\nsamples = 1\nvalue = [1, 0, 0, 0, 0]\nclass = 1", fillcolor="#e58139"] ;
209 -> 210 ;
211 [label="gini = 0.5\nsamples = 2\nvalue = [1, 1, 0, 0, 0]\nclass = 1", fillcolor="#ffffff"] ;
209 -> 211 ;
212 [label="Attendace <= 20.5\ngini = 0.795\nsamples = 38\nvalue = [9, 7, 9, 7, 6]\nclass = 1", fillcolor="#ffffff"] ;
154 -> 212 ;
213 [label="Class <= 0.5\ngini = 0.774\nsamples = 24\nvalue = [7, 2, 6, 4, 5]\nclass = 1", fillcolor="#fef8f4"] ;
212 -> 213 ;
214 [label="Tuition <= 1.5\ngini = 0.612\nsamples = 7\nvalue = [3, 0, 0, 1, 3]\nclass = 1", fillcolor="#ffffff"] ;
213 -> 214 ;
215 [label="gini = 0.0\nsamples = 1\nvalue = [0, 0, 0, 1, 0]\nclass = 4", fillcolor="#3c39e5"] ;
214 -> 215 ;
216 [label="Gender <= 2.0\ngini = 0.5\nsamples = 6\nvalue = [3, 0, 0, 0, 3]\nclass = 1", fillcolor="#ffffff"] ;
214 -> 216 ;
217 [label="Attendace <= 18.5\ngini = 0.48\nsamples = 5\nvalue = [3, 0, 0, 0, 2]\nclass = 1", fillcolor="#f6d5bd"] ;
216 -> 217 ;
218 [label="gini = 0.0\nsamples = 1\nvalue = [1, 0, 0, 0, 0]\nclass = 1", fillcolor="#e58139"] ;
217 -> 218 ;
219 [label="Tuition <= 2.5\ngini = 0.5\nsamples = 4\nvalue = [2, 0, 0, 0, 2]\nclass = 1", fillcolor="#ffffff"] ;
217 -> 219 ;
220 [label="Attendace <= 19.5\ngini = 0.444\nsamples = 3\nvalue = [2, 0, 0, 0, 1]\nclass = 1", fillcolor="#f2c09c"] ;
219 -> 220 ;
221 [label="gini = 0.5\nsamples = 2\nvalue = [1, 0, 0, 0, 1]\nclass = 1", fillcolor="#ffffff"] ;
220 -> 221 ;
222 [label="gini = 0.0\nsamples = 1\nvalue = [1, 0, 0, 0, 0]\nclass = 1", fillcolor="#e58139"] ;
220 -> 222 ;
223 [label="gini = 0.0\nsamples = 1\nvalue = [0, 0, 0, 0, 1]\nclass = 5", fillcolor="#e539c0"] ;
219 -> 223 ;
224 [label="gini = 0.0\nsamples = 1\nvalue = [0, 0, 0, 0, 1]\nclass = 5", fillcolor="#e539c0"] ;
216 -> 224 ;
225 [label="Attendace <= 19.5\ngini = 0.761\nsamples = 17\nvalue = [4, 2, 6, 3, 2]\nclass = 3", fillcolor="#e1fbf6"] ;
213 -> 225 ;
226 [label="Tuition <= 1.5\ngini = 0.793\nsamples = 11\nvalue = [3, 2, 2, 2, 2]\nclass = 1", fillcolor="#fcf1e9"] ;
225 -> 226 ;
227 [label="Gender <= 2.0\ngini = 0.5\nsamples = 2\nvalue = [0, 0, 1, 0, 1]\nclass = 3", fillcolor="#ffffff"] ;
226 -> 227 ;
228 [label="gini = 0.0\nsamples = 1\nvalue = [0, 0, 0, 0, 1]\nclass = 5", fillcolor="#e539c0"] ;
227 -> 228 ;
229 [label="gini = 0.0\nsamples = 1\nvalue = [0, 0, 1, 0, 0]\nclass = 3", fillcolor="#39e5c5"] ;
227 -> 229 ;
230 [label="Gender <= 1.5\ngini = 0.765\nsamples = 9\nvalue = [3, 2, 1, 2, 1]\nclass = 1", fillcolor="#fbede3"] ;
226 -> 230 ;
231 [label="Tuition <= 2.5\ngini = 0.75\nsamples = 4\nvalue = [1, 1, 1, 0, 1]\nclass = 1", fillcolor="#ffffff"] ;
230 -> 231 ;
232 [label="gini = 0.0\nsamples = 1\nvalue = [0, 0, 1, 0, 0]\nclass = 3", fillcolor="#39e5c5"] ;
231 -> 232 ;
233 [label="gini = 0.667\nsamples = 3\nvalue = [1, 1, 0, 0, 1]\nclass = 1", fillcolor="#ffffff"] ;
231 -> 233 ;
234 [label="Gender <= 2.5\ngini = 0.64\nsamples = 5\nvalue = [2, 1, 0, 2, 0]\nclass = 1", fillcolor="#ffffff"] ;
230 -> 234 ;
235 [label="gini = 0.0\nsamples = 1\nvalue = [0, 0, 0, 1, 0]\nclass = 4", fillcolor="#3c39e5"] ;
234 -> 235 ;
236 [label="Attendace <= 18.5\ngini = 0.625\nsamples = 4\nvalue = [2, 1, 0, 1, 0]\nclass = 1", fillcolor="#f6d5bd"] ;
234 -> 236 ;
237 [label="Tuition <= 2.5\ngini = 0.667\nsamples = 3\nvalue = [1, 1, 0, 1, 0]\nclass = 1", fillcolor="#ffffff"] ;
236 -> 237 ;
238 [label="gini = 0.0\nsamples = 1\nvalue = [1, 0, 0, 0, 0]\nclass = 1", fillcolor="#e58139"] ;
237 -> 238 ;
239 [label="gini = 0.5\nsamples = 2\nvalue = [0, 1, 0, 1, 0]\nclass = 2", fillcolor="#ffffff"] ;
237 -> 239 ;
240 [label="gini = 0.0\nsamples = 1\nvalue = [1, 0, 0, 0, 0]\nclass = 1", fillcolor="#e58139"] ;
236 -> 240 ;
241 [label="Gender <= 2.5\ngini = 0.5\nsamples = 6\nvalue = [1, 0, 4, 1, 0]\nclass = 3", fillcolor="#88efdc"] ;
225 -> 241 ;
242 [label="gini = 0.0\nsamples = 3\nvalue = [0, 0, 3, 0, 0]\nclass = 3", fillcolor="#39e5c5"] ;
241 -> 242 ;
243 [label="Tuition <= 2.0\ngini = 0.667\nsamples = 3\nvalue = [1, 0, 1, 1, 0]\nclass = 1", fillcolor="#ffffff"] ;
241 -> 243 ;
244 [label="gini = 0.0\nsamples = 1\nvalue = [0, 0, 0, 1, 0]\nclass = 4", fillcolor="#3c39e5"] ;
243 -> 244 ;
245 [label="gini = 0.5\nsamples = 2\nvalue = [1, 0, 1, 0, 0]\nclass = 1", fillcolor="#ffffff"] ;
243 -> 245 ;
246 [label="Tuition <= 2.5\ngini = 0.755\nsamples = 14\nvalue = [2, 5, 3, 3, 1]\nclass = 2", fillcolor="#e7fadb"] ;
212 -> 246 ;
247 [label="Gender <= 2.5\ngini = 0.74\nsamples = 10\nvalue = [2, 4, 2, 1, 1]\nclass = 2", fillcolor="#def8ce"] ;
246 -> 247 ;
248 [label="Class <= 0.5\ngini = 0.667\nsamples = 3\nvalue = [1, 1, 0, 1, 0]\nclass = 1", fillcolor="#ffffff"] ;
247 -> 248 ;
249 [label="gini = 0.0\nsamples = 1\nvalue = [0, 1, 0, 0, 0]\nclass = 2", fillcolor="#7be539"] ;
248 -> 249 ;
250 [label="Attendace <= 21.5\ngini = 0.5\nsamples = 2\nvalue = [1, 0, 0, 1, 0]\nclass = 1", fillcolor="#ffffff"] ;
248 -> 250 ;
251 [label="gini = 0.0\nsamples = 1\nvalue = [1, 0, 0, 0, 0]\nclass = 1", fillcolor="#e58139"] ;
250 -> 251 ;
252 [label="gini = 0.0\nsamples = 1\nvalue = [0, 0, 0, 1, 0]\nclass = 4", fillcolor="#3c39e5"] ;
250 -> 252 ;
253 [label="Class <= 0.5\ngini = 0.694\nsamples = 7\nvalue = [1, 3, 2, 0, 1]\nclass = 2", fillcolor="#e5fad7"] ;
247 -> 253 ;
254 [label="Tuition <= 1.5\ngini = 0.75\nsamples = 4\nvalue = [1, 1, 1, 0, 1]\nclass = 1", fillcolor="#ffffff"] ;
253 -> 254 ;
255 [label="gini = 0.667\nsamples = 3\nvalue = [0, 1, 1, 0, 1]\nclass = 2", fillcolor="#ffffff"] ;
254 -> 255 ;
256 [label="gini = 0.0\nsamples = 1\nvalue = [1, 0, 0, 0, 0]\nclass = 1", fillcolor="#e58139"] ;
254 -> 256 ;
257 [label="Tuition <= 1.5\ngini = 0.444\nsamples = 3\nvalue = [0, 2, 1, 0, 0]\nclass = 2", fillcolor="#bdf29c"] ;
253 -> 257 ;
258 [label="gini = 0.0\nsamples = 1\nvalue = [0, 1, 0, 0, 0]\nclass = 2", fillcolor="#7be539"] ;
257 -> 258 ;
259 [label="gini = 0.5\nsamples = 2\nvalue = [0, 1, 1, 0, 0]\nclass = 2", fillcolor="#ffffff"] ;
257 -> 259 ;
260 [label="Gender <= 1.5\ngini = 0.625\nsamples = 4\nvalue = [0, 1, 1, 2, 0]\nclass = 4", fillcolor="#bebdf6"] ;
246 -> 260 ;
261 [label="gini = 0.0\nsamples = 1\nvalue = [0, 1, 0, 0, 0]\nclass = 2", fillcolor="#7be539"] ;
260 -> 261 ;
262 [label="Attendace <= 21.5\ngini = 0.444\nsamples = 3\nvalue = [0, 0, 1, 2, 0]\nclass = 4", fillcolor="#9e9cf2"] ;
260 -> 262 ;
263 [label="gini = 0.0\nsamples = 1\nvalue = [0, 0, 0, 1, 0]\nclass = 4", fillcolor="#3c39e5"] ;
262 -> 263 ;
264 [label="gini = 0.5\nsamples = 2\nvalue = [0, 0, 1, 1, 0]\nclass = 3", fillcolor="#ffffff"] ;
262 -> 264 ;
265 [label="Tuition <= 1.5\ngini = 0.715\nsamples = 23\nvalue = [1, 4, 9, 2, 7]\nclass = 3", fillcolor="#e6fcf8"] ;
5 -> 265 ;
266 [label="Gender <= 2.5\ngini = 0.531\nsamples = 8\nvalue = [0, 2, 5, 0, 1]\nclass = 3", fillcolor="#9cf2e2"] ;
265 -> 266 ;
267 [label="Gender <= 1.5\ngini = 0.5\nsamples = 4\nvalue = [0, 2, 2, 0, 0]\nclass = 2", fillcolor="#ffffff"] ;
266 -> 267 ;
268 [label="gini = 0.0\nsamples = 2\nvalue = [0, 0, 2, 0, 0]\nclass = 3", fillcolor="#39e5c5"] ;
267 -> 268 ;
269 [label="gini = 0.0\nsamples = 2\nvalue = [0, 2, 0, 0, 0]\nclass = 2", fillcolor="#7be539"] ;
267 -> 269 ;
270 [label="Class <= 0.5\ngini = 0.375\nsamples = 4\nvalue = [0, 0, 3, 0, 1]\nclass = 3", fillcolor="#7beed8"] ;
266 -> 270 ;
271 [label="Term <= 0.5\ngini = 0.5\nsamples = 2\nvalue = [0, 0, 1, 0, 1]\nclass = 3", fillcolor="#ffffff"] ;
270 -> 271 ;
272 [label="gini = 0.0\nsamples = 1\nvalue = [0, 0, 1, 0, 0]\nclass = 3", fillcolor="#39e5c5"] ;
271 -> 272 ;
273 [label="gini = 0.0\nsamples = 1\nvalue = [0, 0, 0, 0, 1]\nclass = 5", fillcolor="#e539c0"] ;
271 -> 273 ;
274 [label="gini = 0.0\nsamples = 2\nvalue = [0, 0, 2, 0, 0]\nclass = 3", fillcolor="#39e5c5"] ;
270 -> 274 ;
275 [label="Class <= 0.5\ngini = 0.729\nsamples = 15\nvalue = [1, 2, 4, 2, 6]\nclass = 5", fillcolor="#fadbf4"] ;
265 -> 275 ;
276 [label="Attendace <= 24.5\ngini = 0.48\nsamples = 5\nvalue = [0, 2, 0, 0, 3]\nclass = 5", fillcolor="#f6bdea"] ;
275 -> 276 ;
277 [label="gini = 0.0\nsamples = 2\nvalue = [0, 0, 0, 0, 2]\nclass = 5", fillcolor="#e539c0"] ;
276 -> 277 ;
278 [label="Term <= 0.5\ngini = 0.444\nsamples = 3\nvalue = [0, 2, 0, 0, 1]\nclass = 2", fillcolor="#bdf29c"] ;
276 -> 278 ;
279 [label="gini = 0.0\nsamples = 1\nvalue = [0, 0, 0, 0, 1]\nclass = 5", fillcolor="#e539c0"] ;
278 -> 279 ;
280 [label="gini = 0.0\nsamples = 2\nvalue = [0, 2, 0, 0, 0]\nclass = 2", fillcolor="#7be539"] ;
278 -> 280 ;
281 [label="Term <= 0.5\ngini = 0.7\nsamples = 10\nvalue = [1, 0, 4, 2, 3]\nclass = 3", fillcolor="#e3fbf7"] ;
275 -> 281 ;
282 [label="Tuition <= 2.5\ngini = 0.653\nsamples = 7\nvalue = [0, 0, 2, 2, 3]\nclass = 5", fillcolor="#fad7f2"] ;
281 -> 282 ;
283 [label="Attendace <= 24.5\ngini = 0.5\nsamples = 4\nvalue = [0, 0, 2, 0, 2]\nclass = 3", fillcolor="#ffffff"] ;
282 -> 283 ;
284 [label="gini = 0.0\nsamples = 1\nvalue = [0, 0, 1, 0, 0]\nclass = 3", fillcolor="#39e5c5"] ;
283 -> 284 ;
285 [label="gini = 0.444\nsamples = 3\nvalue = [0, 0, 1, 0, 2]\nclass = 5", fillcolor="#f29ce0"] ;
283 -> 285 ;
286 [label="Gender <= 1.5\ngini = 0.444\nsamples = 3\nvalue = [0, 0, 0, 2, 1]\nclass = 4", fillcolor="#9e9cf2"] ;
282 -> 286 ;
287 [label="gini = 0.5\nsamples = 2\nvalue = [0, 0, 0, 1, 1]\nclass = 4", fillcolor="#ffffff"] ;
286 -> 287 ;
288 [label="gini = 0.0\nsamples = 1\nvalue = [0, 0, 0, 1, 0]\nclass = 4", fillcolor="#3c39e5"] ;
286 -> 288 ;
289 [label="Attendace <= 24.5\ngini = 0.444\nsamples = 3\nvalue = [1, 0, 2, 0, 0]\nclass = 3", fillcolor="#9cf2e2"] ;
281 -> 289 ;
290 [label="Gender <= 1.5\ngini = 0.5\nsamples = 2\nvalue = [1, 0, 1, 0, 0]\nclass = 1", fillcolor="#ffffff"] ;
289 -> 290 ;
291 [label="gini = 0.0\nsamples = 1\nvalue = [1, 0, 0, 0, 0]\nclass = 1", fillcolor="#e58139"] ;
290 -> 291 ;
292 [label="gini = 0.0\nsamples = 1\nvalue = [0, 0, 1, 0, 0]\nclass = 3", fillcolor="#39e5c5"] ;
290 -> 292 ;
293 [label="gini = 0.0\nsamples = 1\nvalue = [0, 0, 1, 0, 0]\nclass = 3", fillcolor="#39e5c5"] ;
289 -> 293 ;
294 [label="Tuition <= 1.5\ngini = 0.756\nsamples = 34\nvalue = [8, 10, 3, 10, 3]\nclass = 2", fillcolor="#ffffff"] ;
4 -> 294 ;
295 [label="Term <= 0.5\ngini = 0.611\nsamples = 6\nvalue = [2, 0, 0, 3, 1]\nclass = 4", fillcolor="#cecef8"] ;
294 -> 295 ;
296 [label="Gender <= 1.5\ngini = 0.375\nsamples = 4\nvalue = [0, 0, 0, 3, 1]\nclass = 4", fillcolor="#7d7bee"] ;
295 -> 296 ;
297 [label="gini = 0.0\nsamples = 2\nvalue = [0, 0, 0, 2, 0]\nclass = 4", fillcolor="#3c39e5"] ;
296 -> 297 ;
298 [label="Gender <= 2.5\ngini = 0.5\nsamples = 2\nvalue = [0, 0, 0, 1, 1]\nclass = 4", fillcolor="#ffffff"] ;
296 -> 298 ;
299 [label="gini = 0.0\nsamples = 1\nvalue = [0, 0, 0, 0, 1]\nclass = 5", fillcolor="#e539c0"] ;
298 -> 299 ;
300 [label="gini = 0.0\nsamples = 1\nvalue = [0, 0, 0, 1, 0]\nclass = 4", fillcolor="#3c39e5"] ;
298 -> 300 ;
301 [label="gini = 0.0\nsamples = 2\nvalue = [2, 0, 0, 0, 0]\nclass = 1", fillcolor="#e58139"] ;
295 -> 301 ;
302 [label="Gender <= 1.5\ngini = 0.747\nsamples = 28\nvalue = [6, 10, 3, 7, 2]\nclass = 2", fillcolor="#ecfbe3"] ;
294 -> 302 ;
303 [label="Tuition <= 2.5\ngini = 0.681\nsamples = 12\nvalue = [2, 6, 1, 1, 2]\nclass = 2", fillcolor="#caf5b0"] ;
302 -> 303 ;
304 [label="Term <= 0.5\ngini = 0.278\nsamples = 6\nvalue = [1, 5, 0, 0, 0]\nclass = 2", fillcolor="#95ea61"] ;
303 -> 304 ;
305 [label="gini = 0.0\nsamples = 2\nvalue = [0, 2, 0, 0, 0]\nclass = 2", fillcolor="#7be539"] ;
304 -> 305 ;
306 [label="Attendace <= 26.5\ngini = 0.375\nsamples = 4\nvalue = [1, 3, 0, 0, 0]\nclass = 2", fillcolor="#a7ee7b"] ;
304 -> 306 ;
307 [label="gini = 0.5\nsamples = 2\nvalue = [1, 1, 0, 0, 0]\nclass = 1", fillcolor="#ffffff"] ;
306 -> 307 ;
308 [label="gini = 0.0\nsamples = 2\nvalue = [0, 2, 0, 0, 0]\nclass = 2", fillcolor="#7be539"] ;
306 -> 308 ;
309 [label="Term <= 0.5\ngini = 0.778\nsamples = 6\nvalue = [1, 1, 1, 1, 2]\nclass = 5", fillcolor="#fad7f2"] ;
303 -> 309 ;
310 [label="Attendace <= 26.5\ngini = 0.5\nsamples = 2\nvalue = [0, 0, 1, 1, 0]\nclass = 3", fillcolor="#ffffff"] ;
309 -> 310 ;
311 [label="gini = 0.0\nsamples = 1\nvalue = [0, 0, 0, 1, 0]\nclass = 4", fillcolor="#3c39e5"] ;
310 -> 311 ;
312 [label="gini = 0.0\nsamples = 1\nvalue = [0, 0, 1, 0, 0]\nclass = 3", fillcolor="#39e5c5"] ;
310 -> 312 ;
313 [label="Class <= 0.5\ngini = 0.625\nsamples = 4\nvalue = [1, 1, 0, 0, 2]\nclass = 5", fillcolor="#f6bdea"] ;
309 -> 313 ;
314 [label="gini = 0.0\nsamples = 1\nvalue = [0, 0, 0, 0, 1]\nclass = 5", fillcolor="#e539c0"] ;
313 -> 314 ;
315 [label="Attendace <= 26.5\ngini = 0.667\nsamples = 3\nvalue = [1, 1, 0, 0, 1]\nclass = 1", fillcolor="#ffffff"] ;
313 -> 315 ;
316 [label="gini = 0.5\nsamples = 2\nvalue = [0, 1, 0, 0, 1]\nclass = 2", fillcolor="#ffffff"] ;
315 -> 316 ;
317 [label="gini = 0.0\nsamples = 1\nvalue = [1, 0, 0, 0, 0]\nclass = 1", fillcolor="#e58139"] ;
315 -> 317 ;
318 [label="Term <= 0.5\ngini = 0.719\nsamples = 16\nvalue = [4, 4, 2, 6, 0]\nclass = 4", fillcolor="#dedefb"] ;
302 -> 318 ;
319 [label="Attendace <= 26.5\ngini = 0.694\nsamples = 7\nvalue = [3, 2, 1, 1, 0]\nclass = 1", fillcolor="#fae6d7"] ;
318 -> 319 ;
320 [label="Tuition <= 2.5\ngini = 0.375\nsamples = 4\nvalue = [3, 1, 0, 0, 0]\nclass = 1", fillcolor="#eeab7b"] ;
319 -> 320 ;
321 [label="Class <= 0.5\ngini = 0.5\nsamples = 2\nvalue = [1, 1, 0, 0, 0]\nclass = 1", fillcolor="#ffffff"] ;
320 -> 321 ;
322 [label="gini = 0.0\nsamples = 1\nvalue = [0, 1, 0, 0, 0]\nclass = 2", fillcolor="#7be539"] ;
321 -> 322 ;
323 [label="gini = 0.0\nsamples = 1\nvalue = [1, 0, 0, 0, 0]\nclass = 1", fillcolor="#e58139"] ;
321 -> 323 ;
324 [label="gini = 0.0\nsamples = 2\nvalue = [2, 0, 0, 0, 0]\nclass = 1", fillcolor="#e58139"] ;
320 -> 324 ;
325 [label="Tuition <= 2.5\ngini = 0.667\nsamples = 3\nvalue = [0, 1, 1, 1, 0]\nclass = 2", fillcolor="#ffffff"] ;
319 -> 325 ;
326 [label="Gender <= 2.5\ngini = 0.5\nsamples = 2\nvalue = [0, 0, 1, 1, 0]\nclass = 3", fillcolor="#ffffff"] ;
325 -> 326 ;
327 [label="gini = 0.0\nsamples = 1\nvalue = [0, 0, 0, 1, 0]\nclass = 4", fillcolor="#3c39e5"] ;
326 -> 327 ;
328 [label="gini = 0.0\nsamples = 1\nvalue = [0, 0, 1, 0, 0]\nclass = 3", fillcolor="#39e5c5"] ;
326 -> 328 ;
329 [label="gini = 0.0\nsamples = 1\nvalue = [0, 1, 0, 0, 0]\nclass = 2", fillcolor="#7be539"] ;
325 -> 329 ;
330 [label="Gender <= 2.5\ngini = 0.617\nsamples = 9\nvalue = [1, 2, 1, 5, 0]\nclass = 4", fillcolor="#abaaf4"] ;
318 -> 330 ;
331 [label="Class <= 0.5\ngini = 0.56\nsamples = 5\nvalue = [1, 0, 1, 3, 0]\nclass = 4", fillcolor="#9e9cf2"] ;
330 -> 331 ;
332 [label="Attendace <= 26.5\ngini = 0.667\nsamples = 3\nvalue = [1, 0, 1, 1, 0]\nclass = 1", fillcolor="#ffffff"] ;
331 -> 332 ;
333 [label="Tuition <= 2.5\ngini = 0.5\nsamples = 2\nvalue = [0, 0, 1, 1, 0]\nclass = 3", fillcolor="#ffffff"] ;
332 -> 333 ;
334 [label="gini = 0.0\nsamples = 1\nvalue = [0, 0, 0, 1, 0]\nclass = 4", fillcolor="#3c39e5"] ;
333 -> 334 ;
335 [label="gini = 0.0\nsamples = 1\nvalue = [0, 0, 1, 0, 0]\nclass = 3", fillcolor="#39e5c5"] ;
333 -> 335 ;
336 [label="gini = 0.0\nsamples = 1\nvalue = [1, 0, 0, 0, 0]\nclass = 1", fillcolor="#e58139"] ;
332 -> 336 ;
337 [label="gini = 0.0\nsamples = 2\nvalue = [0, 0, 0, 2, 0]\nclass = 4", fillcolor="#3c39e5"] ;
331 -> 337 ;
338 [label="Class <= 0.5\ngini = 0.5\nsamples = 4\nvalue = [0, 2, 0, 2, 0]\nclass = 2", fillcolor="#ffffff"] ;
330 -> 338 ;
339 [label="gini = 0.0\nsamples = 2\nvalue = [0, 0, 0, 2, 0]\nclass = 4", fillcolor="#3c39e5"] ;
338 -> 339 ;
340 [label="gini = 0.0\nsamples = 2\nvalue = [0, 2, 0, 0, 0]\nclass = 2", fillcolor="#7be539"] ;
338 -> 340 ;
341 [label="Tuition <= 2.5\ngini = 0.758\nsamples = 30\nvalue = [5, 2, 8, 5, 10]\nclass = 5", fillcolor="#fdedf9"] ;
3 -> 341 ;
342 [label="Class <= 0.5\ngini = 0.761\nsamples = 17\nvalue = [4, 2, 6, 3, 2]\nclass = 3", fillcolor="#e1fbf6"] ;
341 -> 342 ;
343 [label="Gender <= 1.5\ngini = 0.667\nsamples = 9\nvalue = [4, 1, 1, 3, 0]\nclass = 1", fillcolor="#fbeade"] ;
342 -> 343 ;
344 [label="Tuition <= 1.5\ngini = 0.5\nsamples = 2\nvalue = [1, 1, 0, 0, 0]\nclass = 1", fillcolor="#ffffff"] ;
343 -> 344 ;
345 [label="gini = 0.0\nsamples = 1\nvalue = [1, 0, 0, 0, 0]\nclass = 1", fillcolor="#e58139"] ;
344 -> 345 ;
346 [label="gini = 0.0\nsamples = 1\nvalue = [0, 1, 0, 0, 0]\nclass = 2", fillcolor="#7be539"] ;
344 -> 346 ;
347 [label="Gender <= 2.5\ngini = 0.612\nsamples = 7\nvalue = [3, 0, 1, 3, 0]\nclass = 1", fillcolor="#ffffff"] ;
343 -> 347 ;
348 [label="Attendace <= 28.5\ngini = 0.611\nsamples = 6\nvalue = [2, 0, 1, 3, 0]\nclass = 4", fillcolor="#cecef8"] ;
347 -> 348 ;
349 [label="Tuition <= 1.5\ngini = 0.444\nsamples = 3\nvalue = [0, 0, 1, 2, 0]\nclass = 4", fillcolor="#9e9cf2"] ;
348 -> 349 ;
350 [label="gini = 0.5\nsamples = 2\nvalue = [0, 0, 1, 1, 0]\nclass = 3", fillcolor="#ffffff"] ;
349 -> 350 ;
351 [label="gini = 0.0\nsamples = 1\nvalue = [0, 0, 0, 1, 0]\nclass = 4", fillcolor="#3c39e5"] ;
349 -> 351 ;
352 [label="Term <= 0.5\ngini = 0.444\nsamples = 3\nvalue = [2, 0, 0, 1, 0]\nclass = 1", fillcolor="#f2c09c"] ;
348 -> 352 ;
353 [label="gini = 0.0\nsamples = 1\nvalue = [0, 0, 0, 1, 0]\nclass = 4", fillcolor="#3c39e5"] ;
352 -> 353 ;
354 [label="gini = 0.0\nsamples = 2\nvalue = [2, 0, 0, 0, 0]\nclass = 1", fillcolor="#e58139"] ;
352 -> 354 ;
355 [label="gini = 0.0\nsamples = 1\nvalue = [1, 0, 0, 0, 0]\nclass = 1", fillcolor="#e58139"] ;
347 -> 355 ;
356 [label="Gender <= 2.5\ngini = 0.531\nsamples = 8\nvalue = [0, 1, 5, 0, 2]\nclass = 3", fillcolor="#9cf2e2"] ;
342 -> 356 ;
357 [label="Tuition <= 1.5\ngini = 0.449\nsamples = 7\nvalue = [0, 1, 5, 0, 1]\nclass = 3", fillcolor="#7beed8"] ;
356 -> 357 ;
358 [label="Attendace <= 28.5\ngini = 0.625\nsamples = 4\nvalue = [0, 1, 2, 0, 1]\nclass = 3", fillcolor="#bdf6ec"] ;
357 -> 358 ;
359 [label="gini = 0.5\nsamples = 2\nvalue = [0, 1, 1, 0, 0]\nclass = 2", fillcolor="#ffffff"] ;
358 -> 359 ;
360 [label="gini = 0.5\nsamples = 2\nvalue = [0, 0, 1, 0, 1]\nclass = 3", fillcolor="#ffffff"] ;
358 -> 360 ;
361 [label="gini = 0.0\nsamples = 3\nvalue = [0, 0, 3, 0, 0]\nclass = 3", fillcolor="#39e5c5"] ;
357 -> 361 ;
362 [label="gini = 0.0\nsamples = 1\nvalue = [0, 0, 0, 0, 1]\nclass = 5", fillcolor="#e539c0"] ;
356 -> 362 ;
363 [label="Attendace <= 28.5\ngini = 0.568\nsamples = 13\nvalue = [1, 0, 2, 2, 8]\nclass = 5", fillcolor="#f193dd"] ;
341 -> 363 ;
364 [label="Class <= 0.5\ngini = 0.245\nsamples = 7\nvalue = [1, 0, 0, 0, 6]\nclass = 5", fillcolor="#e95acb"] ;
363 -> 364 ;
365 [label="Gender <= 2.5\ngini = 0.375\nsamples = 4\nvalue = [1, 0, 0, 0, 3]\nclass = 5", fillcolor="#ee7bd5"] ;
364 -> 365 ;
366 [label="gini = 0.0\nsamples = 1\nvalue = [0, 0, 0, 0, 1]\nclass = 5", fillcolor="#e539c0"] ;
365 -> 366 ;
367 [label="gini = 0.444\nsamples = 3\nvalue = [1, 0, 0, 0, 2]\nclass = 5", fillcolor="#f29ce0"] ;
365 -> 367 ;
368 [label="gini = 0.0\nsamples = 3\nvalue = [0, 0, 0, 0, 3]\nclass = 5", fillcolor="#e539c0"] ;
364 -> 368 ;
369 [label="Class <= 0.5\ngini = 0.667\nsamples = 6\nvalue = [0, 0, 2, 2, 2]\nclass = 3", fillcolor="#ffffff"] ;
363 -> 369 ;
370 [label="gini = 0.0\nsamples = 1\nvalue = [0, 0, 0, 0, 1]\nclass = 5", fillcolor="#e539c0"] ;
369 -> 370 ;
371 [label="Term <= 0.5\ngini = 0.64\nsamples = 5\nvalue = [0, 0, 2, 2, 1]\nclass = 3", fillcolor="#ffffff"] ;
369 -> 371 ;
372 [label="Gender <= 2.5\ngini = 0.5\nsamples = 2\nvalue = [0, 0, 0, 1, 1]\nclass = 4", fillcolor="#ffffff"] ;
371 -> 372 ;
373 [label="gini = 0.0\nsamples = 1\nvalue = [0, 0, 0, 0, 1]\nclass = 5", fillcolor="#e539c0"] ;
372 -> 373 ;
374 [label="gini = 0.0\nsamples = 1\nvalue = [0, 0, 0, 1, 0]\nclass = 4", fillcolor="#3c39e5"] ;
372 -> 374 ;
375 [label="Gender <= 1.5\ngini = 0.444\nsamples = 3\nvalue = [0, 0, 2, 1, 0]\nclass = 3", fillcolor="#9cf2e2"] ;
371 -> 375 ;
376 [label="gini = 0.0\nsamples = 1\nvalue = [0, 0, 0, 1, 0]\nclass = 4", fillcolor="#3c39e5"] ;
375 -> 376 ;
377 [label="gini = 0.0\nsamples = 2\nvalue = [0, 0, 2, 0, 0]\nclass = 3", fillcolor="#39e5c5"] ;
375 -> 377 ;
378 [label="Tuition <= 1.5\ngini = 0.487\nsamples = 316\nvalue = [31, 29, 221, 15, 20]\nclass = 3", fillcolor="#7beed8"] ;
2 -> 378 ;
379 [label="Gender <= 2.5\ngini = 0.735\nsamples = 37\nvalue = [15, 8, 4, 3, 7]\nclass = 1", fillcolor="#f9e1cf"] ;
378 -> 379 ;
380 [label="Attendace <= 32.0\ngini = 0.792\nsamples = 19\nvalue = [5, 4, 3, 3, 4]\nclass = 1", fillcolor="#fdf7f2"] ;
379 -> 380 ;
381 [label="Term <= 0.5\ngini = 0.719\nsamples = 8\nvalue = [3, 1, 2, 0, 2]\nclass = 1", fillcolor="#fbeade"] ;
380 -> 381 ;
382 [label="Class <= 0.5\ngini = 0.625\nsamples = 4\nvalue = [1, 1, 0, 0, 2]\nclass = 5", fillcolor="#f6bdea"] ;
381 -> 382 ;
383 [label="gini = 0.0\nsamples = 1\nvalue = [0, 1, 0, 0, 0]\nclass = 2", fillcolor="#7be539"] ;
382 -> 383 ;
384 [label="Attendace <= 30.5\ngini = 0.444\nsamples = 3\nvalue = [1, 0, 0, 0, 2]\nclass = 5", fillcolor="#f29ce0"] ;
382 -> 384 ;
385 [label="gini = 0.0\nsamples = 1\nvalue = [0, 0, 0, 0, 1]\nclass = 5", fillcolor="#e539c0"] ;
384 -> 385 ;
386 [label="gini = 0.5\nsamples = 2\nvalue = [1, 0, 0, 0, 1]\nclass = 1", fillcolor="#ffffff"] ;
384 -> 386 ;
387 [label="Gender <= 1.5\ngini = 0.5\nsamples = 4\nvalue = [2, 0, 2, 0, 0]\nclass = 1", fillcolor="#ffffff"] ;
381 -> 387 ;
388 [label="gini = 0.0\nsamples = 1\nvalue = [1, 0, 0, 0, 0]\nclass = 1", fillcolor="#e58139"] ;
387 -> 388 ;
389 [label="Attendace <= 30.5\ngini = 0.444\nsamples = 3\nvalue = [1, 0, 2, 0, 0]\nclass = 3", fillcolor="#9cf2e2"] ;
387 -> 389 ;
390 [label="Class <= 0.5\ngini = 0.5\nsamples = 2\nvalue = [1, 0, 1, 0, 0]\nclass = 1", fillcolor="#ffffff"] ;
389 -> 390 ;
391 [label="gini = 0.0\nsamples = 1\nvalue = [1, 0, 0, 0, 0]\nclass = 1", fillcolor="#e58139"] ;
390 -> 391 ;
392 [label="gini = 0.0\nsamples = 1\nvalue = [0, 0, 1, 0, 0]\nclass = 3", fillcolor="#39e5c5"] ;
390 -> 392 ;
393 [label="gini = 0.0\nsamples = 1\nvalue = [0, 0, 1, 0, 0]\nclass = 3", fillcolor="#39e5c5"] ;
389 -> 393 ;
394 [label="Attendace <= 34.5\ngini = 0.777\nsamples = 11\nvalue = [2, 3, 1, 3, 2]\nclass = 2", fillcolor="#ffffff"] ;
380 -> 394 ;
395 [label="Gender <= 1.5\ngini = 0.375\nsamples = 4\nvalue = [0, 3, 0, 1, 0]\nclass = 2", fillcolor="#a7ee7b"] ;
394 -> 395 ;
396 [label="Term <= 0.5\ngini = 0.5\nsamples = 2\nvalue = [0, 1, 0, 1, 0]\nclass = 2", fillcolor="#ffffff"] ;
395 -> 396 ;
397 [label="gini = 0.0\nsamples = 1\nvalue = [0, 1, 0, 0, 0]\nclass = 2", fillcolor="#7be539"] ;
396 -> 397 ;
398 [label="gini = 0.0\nsamples = 1\nvalue = [0, 0, 0, 1, 0]\nclass = 4", fillcolor="#3c39e5"] ;
396 -> 398 ;
399 [label="gini = 0.0\nsamples = 2\nvalue = [0, 2, 0, 0, 0]\nclass = 2", fillcolor="#7be539"] ;
395 -> 399 ;
400 [label="Attendace <= 35.5\ngini = 0.735\nsamples = 7\nvalue = [2, 0, 1, 2, 2]\nclass = 1", fillcolor="#ffffff"] ;
394 -> 400 ;
401 [label="Gender <= 1.5\ngini = 0.444\nsamples = 3\nvalue = [0, 0, 0, 2, 1]\nclass = 4", fillcolor="#9e9cf2"] ;
400 -> 401 ;
402 [label="Term <= 0.5\ngini = 0.5\nsamples = 2\nvalue = [0, 0, 0, 1, 1]\nclass = 4", fillcolor="#ffffff"] ;
401 -> 402 ;
403 [label="gini = 0.0\nsamples = 1\nvalue = [0, 0, 0, 1, 0]\nclass = 4", fillcolor="#3c39e5"] ;
402 -> 403 ;
404 [label="gini = 0.0\nsamples = 1\nvalue = [0, 0, 0, 0, 1]\nclass = 5", fillcolor="#e539c0"] ;
402 -> 404 ;
405 [label="gini = 0.0\nsamples = 1\nvalue = [0, 0, 0, 1, 0]\nclass = 4", fillcolor="#3c39e5"] ;
401 -> 405 ;
406 [label="Term <= 0.5\ngini = 0.625\nsamples = 4\nvalue = [2, 0, 1, 0, 1]\nclass = 1", fillcolor="#f6d5bd"] ;
400 -> 406 ;
407 [label="gini = 0.0\nsamples = 1\nvalue = [1, 0, 0, 0, 0]\nclass = 1", fillcolor="#e58139"] ;
406 -> 407 ;
408 [label="Class <= 0.5\ngini = 0.667\nsamples = 3\nvalue = [1, 0, 1, 0, 1]\nclass = 1", fillcolor="#ffffff"] ;
406 -> 408 ;
409 [label="gini = 0.0\nsamples = 1\nvalue = [0, 0, 1, 0, 0]\nclass = 3", fillcolor="#39e5c5"] ;
408 -> 409 ;
410 [label="gini = 0.5\nsamples = 2\nvalue = [1, 0, 0, 0, 1]\nclass = 1", fillcolor="#ffffff"] ;
408 -> 410 ;
411 [label="Attendace <= 31.5\ngini = 0.611\nsamples = 18\nvalue = [10, 4, 1, 0, 3]\nclass = 1", fillcolor="#f4c9aa"] ;
379 -> 411 ;
412 [label="Class <= 0.5\ngini = 0.625\nsamples = 4\nvalue = [0, 2, 1, 0, 1]\nclass = 2", fillcolor="#d3f6bd"] ;
411 -> 412 ;
413 [label="gini = 0.0\nsamples = 2\nvalue = [0, 2, 0, 0, 0]\nclass = 2", fillcolor="#7be539"] ;
412 -> 413 ;
414 [label="gini = 0.5\nsamples = 2\nvalue = [0, 0, 1, 0, 1]\nclass = 3", fillcolor="#ffffff"] ;
412 -> 414 ;
415 [label="Attendace <= 34.5\ngini = 0.449\nsamples = 14\nvalue = [10, 2, 0, 0, 2]\nclass = 1", fillcolor="#eeab7b"] ;
411 -> 415 ;
416 [label="Term <= 0.5\ngini = 0.18\nsamples = 10\nvalue = [9, 0, 0, 0, 1]\nclass = 1", fillcolor="#e88f4f"] ;
415 -> 416 ;
417 [label="Attendace <= 33.5\ngini = 0.375\nsamples = 4\nvalue = [3, 0, 0, 0, 1]\nclass = 1", fillcolor="#eeab7b"] ;
416 -> 417 ;
418 [label="gini = 0.0\nsamples = 3\nvalue = [3, 0, 0, 0, 0]\nclass = 1", fillcolor="#e58139"] ;
417 -> 418 ;
419 [label="gini = 0.0\nsamples = 1\nvalue = [0, 0, 0, 0, 1]\nclass = 5", fillcolor="#e539c0"] ;
417 -> 419 ;
420 [label="gini = 0.0\nsamples = 6\nvalue = [6, 0, 0, 0, 0]\nclass = 1", fillcolor="#e58139"] ;
416 -> 420 ;
421 [label="Attendace <= 35.5\ngini = 0.625\nsamples = 4\nvalue = [1, 2, 0, 0, 1]\nclass = 2", fillcolor="#d3f6bd"] ;
415 -> 421 ;
422 [label="gini = 0.5\nsamples = 2\nvalue = [1, 1, 0, 0, 0]\nclass = 1", fillcolor="#ffffff"] ;
421 -> 422 ;
423 [label="Class <= 0.5\ngini = 0.5\nsamples = 2\nvalue = [0, 1, 0, 0, 1]\nclass = 2", fillcolor="#ffffff"] ;
421 -> 423 ;
424 [label="gini = 0.0\nsamples = 1\nvalue = [0, 0, 0, 0, 1]\nclass = 5", fillcolor="#e539c0"] ;
423 -> 424 ;
425 [label="gini = 0.0\nsamples = 1\nvalue = [0, 1, 0, 0, 0]\nclass = 2", fillcolor="#7be539"] ;
423 -> 425 ;
426 [label="Tuition <= 2.5\ngini = 0.382\nsamples = 279\nvalue = [16, 21, 217, 12, 13]\nclass = 3", fillcolor="#69ebd3"] ;
378 -> 426 ;
427 [label="Gender <= 1.5\ngini = 0.262\nsamples = 249\nvalue = [8, 15, 213, 8, 5]\nclass = 3", fillcolor="#57e9ce"] ;
426 -> 427 ;
428 [label="Attendace <= 35.5\ngini = 0.734\nsamples = 13\nvalue = [4, 3, 2, 4, 0]\nclass = 1", fillcolor="#ffffff"] ;
427 -> 428 ;
429 [label="Term <= 0.5\ngini = 0.7\nsamples = 10\nvalue = [4, 1, 2, 3, 0]\nclass = 1", fillcolor="#fbede3"] ;
428 -> 429 ;
430 [label="Attendace <= 32.0\ngini = 0.611\nsamples = 6\nvalue = [3, 1, 0, 2, 0]\nclass = 1", fillcolor="#f8e0ce"] ;
429 -> 430 ;
431 [label="Class <= 0.5\ngini = 0.444\nsamples = 3\nvalue = [1, 0, 0, 2, 0]\nclass = 4", fillcolor="#9e9cf2"] ;
430 -> 431 ;
432 [label="gini = 0.0\nsamples = 2\nvalue = [0, 0, 0, 2, 0]\nclass = 4", fillcolor="#3c39e5"] ;
431 -> 432 ;
433 [label="gini = 0.0\nsamples = 1\nvalue = [1, 0, 0, 0, 0]\nclass = 1", fillcolor="#e58139"] ;
431 -> 433 ;
434 [label="Class <= 0.5\ngini = 0.444\nsamples = 3\nvalue = [2, 1, 0, 0, 0]\nclass = 1", fillcolor="#f2c09c"] ;
430 -> 434 ;
435 [label="gini = 0.0\nsamples = 1\nvalue = [1, 0, 0, 0, 0]\nclass = 1", fillcolor="#e58139"] ;
434 -> 435 ;
436 [label="gini = 0.5\nsamples = 2\nvalue = [1, 1, 0, 0, 0]\nclass = 1", fillcolor="#ffffff"] ;
434 -> 436 ;
437 [label="Attendace <= 34.5\ngini = 0.625\nsamples = 4\nvalue = [1, 0, 2, 1, 0]\nclass = 3", fillcolor="#bdf6ec"] ;
429 -> 437 ;
438 [label="gini = 0.0\nsamples = 2\nvalue = [0, 0, 2, 0, 0]\nclass = 3", fillcolor="#39e5c5"] ;
437 -> 438 ;
439 [label="gini = 0.5\nsamples = 2\nvalue = [1, 0, 0, 1, 0]\nclass = 1", fillcolor="#ffffff"] ;
437 -> 439 ;
440 [label="Class <= 0.5\ngini = 0.444\nsamples = 3\nvalue = [0, 2, 0, 1, 0]\nclass = 2", fillcolor="#bdf29c"] ;
428 -> 440 ;
441 [label="gini = 0.0\nsamples = 2\nvalue = [0, 2, 0, 0, 0]\nclass = 2", fillcolor="#7be539"] ;
440 -> 441 ;
442 [label="gini = 0.0\nsamples = 1\nvalue = [0, 0, 0, 1, 0]\nclass = 4", fillcolor="#3c39e5"] ;
440 -> 442 ;
443 [label="Gender <= 2.5\ngini = 0.197\nsamples = 236\nvalue = [4, 12, 211, 4, 5]\nclass = 3", fillcolor="#4fe8cb"] ;
427 -> 443 ;
444 [label="Attendace <= 35.5\ngini = 0.149\nsamples = 228\nvalue = [2, 12, 210, 0, 4]\nclass = 3", fillcolor="#4ae7ca"] ;
443 -> 444 ;
445 [label="Term <= 0.5\ngini = 0.053\nsamples = 185\nvalue = [1, 0, 180, 0, 4]\nclass = 3", fillcolor="#3ee6c7"] ;
444 -> 445 ;
446 [label="Attendace <= 31.5\ngini = 0.204\nsamples = 26\nvalue = [0, 0, 23, 0, 3]\nclass = 3", fillcolor="#53e8cd"] ;
445 -> 446 ;
447 [label="Attendace <= 30.5\ngini = 0.08\nsamples = 24\nvalue = [0, 0, 23, 0, 1]\nclass = 3", fillcolor="#42e6c8"] ;
446 -> 447 ;
448 [label="gini = 0.0\nsamples = 18\nvalue = [0, 0, 18, 0, 0]\nclass = 3", fillcolor="#39e5c5"] ;
447 -> 448 ;
449 [label="gini = 0.278\nsamples = 6\nvalue = [0, 0, 5, 0, 1]\nclass = 3", fillcolor="#61ead1"] ;
447 -> 449 ;
450 [label="gini = 0.0\nsamples = 2\nvalue = [0, 0, 0, 0, 2]\nclass = 5", fillcolor="#e539c0"] ;
446 -> 450 ;
451 [label="Attendace <= 33.5\ngini = 0.025\nsamples = 159\nvalue = [1, 0, 157, 0, 1]\nclass = 3", fillcolor="#3ce5c6"] ;
445 -> 451 ;
452 [label="gini = 0.0\nsamples = 86\nvalue = [0, 0, 86, 0, 0]\nclass = 3", fillcolor="#39e5c5"] ;
451 -> 452 ;
453 [label="Class <= 0.5\ngini = 0.054\nsamples = 73\nvalue = [1, 0, 71, 0, 1]\nclass = 3", fillcolor="#3ee6c7"] ;
451 -> 453 ;
454 [label="Attendace <= 34.5\ngini = 0.061\nsamples = 32\nvalue = [0, 0, 31, 0, 1]\nclass = 3", fillcolor="#3fe6c7"] ;
453 -> 454 ;
455 [label="gini = 0.142\nsamples = 13\nvalue = [0, 0, 12, 0, 1]\nclass = 3", fillcolor="#49e7ca"] ;
454 -> 455 ;
456 [label="gini = 0.0\nsamples = 19\nvalue = [0, 0, 19, 0, 0]\nclass = 3", fillcolor="#39e5c5"] ;
454 -> 456 ;
457 [label="Attendace <= 34.5\ngini = 0.048\nsamples = 41\nvalue = [1, 0, 40, 0, 0]\nclass = 3", fillcolor="#3ee6c6"] ;
453 -> 457 ;
458 [label="gini = 0.0\nsamples = 20\nvalue = [0, 0, 20, 0, 0]\nclass = 3", fillcolor="#39e5c5"] ;
457 -> 458 ;
459 [label="gini = 0.091\nsamples = 21\nvalue = [1, 0, 20, 0, 0]\nclass = 3", fillcolor="#43e6c8"] ;
457 -> 459 ;
460 [label="Class <= 0.5\ngini = 0.435\nsamples = 43\nvalue = [1, 12, 30, 0, 0]\nclass = 3", fillcolor="#8cf0dd"] ;
444 -> 460 ;
461 [label="gini = 0.198\nsamples = 9\nvalue = [1, 0, 8, 0, 0]\nclass = 3", fillcolor="#52e8cc"] ;
460 -> 461 ;
462 [label="gini = 0.457\nsamples = 34\nvalue = [0, 12, 22, 0, 0]\nclass = 3", fillcolor="#a5f3e5"] ;
460 -> 462 ;
463 [label="Attendace <= 31.5\ngini = 0.656\nsamples = 8\nvalue = [2, 0, 1, 4, 1]\nclass = 4", fillcolor="#bebdf6"] ;
443 -> 463 ;
464 [label="Attendace <= 30.5\ngini = 0.444\nsamples = 3\nvalue = [2, 0, 1, 0, 0]\nclass = 1", fillcolor="#f2c09c"] ;
463 -> 464 ;
465 [label="Class <= 0.5\ngini = 0.5\nsamples = 2\nvalue = [1, 0, 1, 0, 0]\nclass = 1", fillcolor="#ffffff"] ;
464 -> 465 ;
466 [label="gini = 0.0\nsamples = 1\nvalue = [0, 0, 1, 0, 0]\nclass = 3", fillcolor="#39e5c5"] ;
465 -> 466 ;
467 [label="gini = 0.0\nsamples = 1\nvalue = [1, 0, 0, 0, 0]\nclass = 1", fillcolor="#e58139"] ;
465 -> 467 ;
468 [label="gini = 0.0\nsamples = 1\nvalue = [1, 0, 0, 0, 0]\nclass = 1", fillcolor="#e58139"] ;
464 -> 468 ;
469 [label="Attendace <= 35.5\ngini = 0.32\nsamples = 5\nvalue = [0, 0, 0, 4, 1]\nclass = 4", fillcolor="#6d6aec"] ;
463 -> 469 ;
470 [label="gini = 0.0\nsamples = 3\nvalue = [0, 0, 0, 3, 0]\nclass = 4", fillcolor="#3c39e5"] ;
469 -> 470 ;
471 [label="Class <= 0.5\ngini = 0.5\nsamples = 2\nvalue = [0, 0, 0, 1, 1]\nclass = 4", fillcolor="#ffffff"] ;
469 -> 471 ;
472 [label="gini = 0.0\nsamples = 1\nvalue = [0, 0, 0, 0, 1]\nclass = 5", fillcolor="#e539c0"] ;
471 -> 472 ;
473 [label="gini = 0.0\nsamples = 1\nvalue = [0, 0, 0, 1, 0]\nclass = 4", fillcolor="#3c39e5"] ;
471 -> 473 ;
474 [label="Term <= 0.5\ngini = 0.782\nsamples = 30\nvalue = [8, 6, 4, 4, 8]\nclass = 1", fillcolor="#ffffff"] ;
426 -> 474 ;
475 [label="Attendace <= 31.5\ngini = 0.758\nsamples = 16\nvalue = [2, 3, 2, 3, 6]\nclass = 5", fillcolor="#f9d1f0"] ;
474 -> 475 ;
476 [label="Attendace <= 30.5\ngini = 0.688\nsamples = 8\nvalue = [0, 3, 1, 1, 3]\nclass = 2", fillcolor="#ffffff"] ;
475 -> 476 ;
477 [label="Class <= 0.5\ngini = 0.444\nsamples = 3\nvalue = [0, 1, 0, 0, 2]\nclass = 5", fillcolor="#f29ce0"] ;
476 -> 477 ;
478 [label="gini = 0.0\nsamples = 1\nvalue = [0, 0, 0, 0, 1]\nclass = 5", fillcolor="#e539c0"] ;
477 -> 478 ;
479 [label="Gender <= 1.5\ngini = 0.5\nsamples = 2\nvalue = [0, 1, 0, 0, 1]\nclass = 2", fillcolor="#ffffff"] ;
477 -> 479 ;
480 [label="gini = 0.0\nsamples = 1\nvalue = [0, 0, 0, 0, 1]\nclass = 5", fillcolor="#e539c0"] ;
479 -> 480 ;
481 [label="gini = 0.0\nsamples = 1\nvalue = [0, 1, 0, 0, 0]\nclass = 2", fillcolor="#7be539"] ;
479 -> 481 ;
482 [label="Class <= 0.5\ngini = 0.72\nsamples = 5\nvalue = [0, 2, 1, 1, 1]\nclass = 2", fillcolor="#def8ce"] ;
476 -> 482 ;
483 [label="Gender <= 2.0\ngini = 0.667\nsamples = 3\nvalue = [0, 1, 1, 1, 0]\nclass = 2", fillcolor="#ffffff"] ;
482 -> 483 ;
484 [label="gini = 0.0\nsamples = 1\nvalue = [0, 1, 0, 0, 0]\nclass = 2", fillcolor="#7be539"] ;
483 -> 484 ;
485 [label="gini = 0.5\nsamples = 2\nvalue = [0, 0, 1, 1, 0]\nclass = 3", fillcolor="#ffffff"] ;
483 -> 485 ;
486 [label="gini = 0.5\nsamples = 2\nvalue = [0, 1, 0, 0, 1]\nclass = 2", fillcolor="#ffffff"] ;
482 -> 486 ;
487 [label="Gender <= 2.0\ngini = 0.719\nsamples = 8\nvalue = [2, 0, 1, 2, 3]\nclass = 5", fillcolor="#fbdef4"] ;
475 -> 487 ;
488 [label="Class <= 0.5\ngini = 0.5\nsamples = 2\nvalue = [0, 0, 0, 1, 1]\nclass = 4", fillcolor="#ffffff"] ;
487 -> 488 ;
489 [label="gini = 0.0\nsamples = 1\nvalue = [0, 0, 0, 0, 1]\nclass = 5", fillcolor="#e539c0"] ;
488 -> 489 ;
490 [label="gini = 0.0\nsamples = 1\nvalue = [0, 0, 0, 1, 0]\nclass = 4", fillcolor="#3c39e5"] ;
488 -> 490 ;
491 [label="Attendace <= 33.0\ngini = 0.722\nsamples = 6\nvalue = [2, 0, 1, 1, 2]\nclass = 1", fillcolor="#ffffff"] ;
487 -> 491 ;
492 [label="Class <= 0.5\ngini = 0.5\nsamples = 2\nvalue = [1, 0, 0, 1, 0]\nclass = 1", fillcolor="#ffffff"] ;
491 -> 492 ;
493 [label="gini = 0.0\nsamples = 1\nvalue = [0, 0, 0, 1, 0]\nclass = 4", fillcolor="#3c39e5"] ;
492 -> 493 ;
494 [label="gini = 0.0\nsamples = 1\nvalue = [1, 0, 0, 0, 0]\nclass = 1", fillcolor="#e58139"] ;
492 -> 494 ;
495 [label="Class <= 0.5\ngini = 0.625\nsamples = 4\nvalue = [1, 0, 1, 0, 2]\nclass = 5", fillcolor="#f6bdea"] ;
491 -> 495 ;
496 [label="Attendace <= 35.0\ngini = 0.667\nsamples = 3\nvalue = [1, 0, 1, 0, 1]\nclass = 1", fillcolor="#ffffff"] ;
495 -> 496 ;
497 [label="gini = 0.0\nsamples = 1\nvalue = [0, 0, 0, 0, 1]\nclass = 5", fillcolor="#e539c0"] ;
496 -> 497 ;
498 [label="gini = 0.5\nsamples = 2\nvalue = [1, 0, 1, 0, 0]\nclass = 1", fillcolor="#ffffff"] ;
496 -> 498 ;
499 [label="gini = 0.0\nsamples = 1\nvalue = [0, 0, 0, 0, 1]\nclass = 5", fillcolor="#e539c0"] ;
495 -> 499 ;
500 [label="Attendace <= 32.5\ngini = 0.724\nsamples = 14\nvalue = [6, 3, 2, 1, 2]\nclass = 1", fillcolor="#f8ddc9"] ;
474 -> 500 ;
501 [label="Gender <= 1.5\ngini = 0.444\nsamples = 6\nvalue = [4, 2, 0, 0, 0]\nclass = 1", fillcolor="#f2c09c"] ;
500 -> 501 ;
502 [label="gini = 0.0\nsamples = 1\nvalue = [0, 1, 0, 0, 0]\nclass = 2", fillcolor="#7be539"] ;
501 -> 502 ;
503 [label="Gender <= 2.5\ngini = 0.32\nsamples = 5\nvalue = [4, 1, 0, 0, 0]\nclass = 1", fillcolor="#eca06a"] ;
501 -> 503 ;
504 [label="gini = 0.0\nsamples = 3\nvalue = [3, 0, 0, 0, 0]\nclass = 1", fillcolor="#e58139"] ;
503 -> 504 ;
505 [label="Class <= 0.5\ngini = 0.5\nsamples = 2\nvalue = [1, 1, 0, 0, 0]\nclass = 1", fillcolor="#ffffff"] ;
503 -> 505 ;
506 [label="gini = 0.0\nsamples = 1\nvalue = [0, 1, 0, 0, 0]\nclass = 2", fillcolor="#7be539"] ;
505 -> 506 ;
507 [label="gini = 0.0\nsamples = 1\nvalue = [1, 0, 0, 0, 0]\nclass = 1", fillcolor="#e58139"] ;
505 -> 507 ;
508 [label="Gender <= 2.5\ngini = 0.781\nsamples = 8\nvalue = [2, 1, 2, 1, 2]\nclass = 1", fillcolor="#ffffff"] ;
500 -> 508 ;
509 [label="Attendace <= 34.5\ngini = 0.72\nsamples = 5\nvalue = [2, 1, 0, 1, 1]\nclass = 1", fillcolor="#f8e0ce"] ;
508 -> 509 ;
510 [label="Class <= 0.5\ngini = 0.667\nsamples = 3\nvalue = [0, 1, 0, 1, 1]\nclass = 2", fillcolor="#ffffff"] ;
509 -> 510 ;
511 [label="gini = 0.0\nsamples = 1\nvalue = [0, 1, 0, 0, 0]\nclass = 2", fillcolor="#7be539"] ;
510 -> 511 ;
512 [label="Attendace <= 33.5\ngini = 0.5\nsamples = 2\nvalue = [0, 0, 0, 1, 1]\nclass = 4", fillcolor="#ffffff"] ;
510 -> 512 ;
513 [label="gini = 0.0\nsamples = 1\nvalue = [0, 0, 0, 1, 0]\nclass = 4", fillcolor="#3c39e5"] ;
512 -> 513 ;
514 [label="gini = 0.0\nsamples = 1\nvalue = [0, 0, 0, 0, 1]\nclass = 5", fillcolor="#e539c0"] ;
512 -> 514 ;
515 [label="gini = 0.0\nsamples = 2\nvalue = [2, 0, 0, 0, 0]\nclass = 1", fillcolor="#e58139"] ;
509 -> 515 ;
516 [label="Class <= 0.5\ngini = 0.444\nsamples = 3\nvalue = [0, 0, 2, 0, 1]\nclass = 3", fillcolor="#9cf2e2"] ;
508 -> 516 ;
517 [label="gini = 0.0\nsamples = 1\nvalue = [0, 0, 1, 0, 0]\nclass = 3", fillcolor="#39e5c5"] ;
516 -> 517 ;
518 [label="Attendace <= 34.5\ngini = 0.5\nsamples = 2\nvalue = [0, 0, 1, 0, 1]\nclass = 3", fillcolor="#ffffff"] ;
516 -> 518 ;
519 [label="gini = 0.0\nsamples = 1\nvalue = [0, 0, 1, 0, 0]\nclass = 3", fillcolor="#39e5c5"] ;
518 -> 519 ;
520 [label="gini = 0.0\nsamples = 1\nvalue = [0, 0, 0, 0, 1]\nclass = 5", fillcolor="#e539c0"] ;
518 -> 520 ;
521 [label="Term <= 0.5\ngini = 0.19\nsamples = 1289\nvalue = [42, 1158, 26, 32, 31]\nclass = 2", fillcolor="#89e84e"] ;
1 -> 521 ;
522 [label="Attendace <= 43.5\ngini = 0.795\nsamples = 79\nvalue = [14, 19, 12, 18, 16]\nclass = 2", fillcolor="#fdfffc"] ;
521 -> 522 ;
523 [label="Attendace <= 37.5\ngini = 0.762\nsamples = 45\nvalue = [9, 10, 2, 14, 10]\nclass = 4", fillcolor="#e9e8fc"] ;
522 -> 523 ;
524 [label="Tuition <= 2.0\ngini = 0.375\nsamples = 4\nvalue = [0, 0, 1, 0, 3]\nclass = 5", fillcolor="#ee7bd5"] ;
523 -> 524 ;
525 [label="gini = 0.0\nsamples = 3\nvalue = [0, 0, 0, 0, 3]\nclass = 5", fillcolor="#e539c0"] ;
524 -> 525 ;
526 [label="gini = 0.0\nsamples = 1\nvalue = [0, 0, 1, 0, 0]\nclass = 3", fillcolor="#39e5c5"] ;
524 -> 526 ;
527 [label="Gender <= 2.5\ngini = 0.746\nsamples = 41\nvalue = [9, 10, 1, 14, 7]\nclass = 4", fillcolor="#e6e5fc"] ;
523 -> 527 ;
528 [label="Tuition <= 2.5\ngini = 0.721\nsamples = 29\nvalue = [7, 5, 1, 12, 4]\nclass = 4", fillcolor="#d3d2f9"] ;
527 -> 528 ;
529 [label="Class <= 0.5\ngini = 0.718\nsamples = 23\nvalue = [4, 4, 1, 10, 4]\nclass = 4", fillcolor="#c1c0f7"] ;
528 -> 529 ;
530 [label="Attendace <= 39.5\ngini = 0.716\nsamples = 9\nvalue = [3, 2, 0, 3, 1]\nclass = 1", fillcolor="#ffffff"] ;
529 -> 530 ;
531 [label="Tuition <= 1.5\ngini = 0.5\nsamples = 4\nvalue = [0, 2, 0, 2, 0]\nclass = 2", fillcolor="#ffffff"] ;
530 -> 531 ;
532 [label="gini = 0.0\nsamples = 2\nvalue = [0, 2, 0, 0, 0]\nclass = 2", fillcolor="#7be539"] ;
531 -> 532 ;
533 [label="gini = 0.0\nsamples = 2\nvalue = [0, 0, 0, 2, 0]\nclass = 4", fillcolor="#3c39e5"] ;
531 -> 533 ;
534 [label="Attendace <= 41.5\ngini = 0.56\nsamples = 5\nvalue = [3, 0, 0, 1, 1]\nclass = 1", fillcolor="#f2c09c"] ;
530 -> 534 ;
535 [label="Attendace <= 40.5\ngini = 0.5\nsamples = 2\nvalue = [1, 0, 0, 0, 1]\nclass = 1", fillcolor="#ffffff"] ;
534 -> 535 ;
536 [label="gini = 0.0\nsamples = 1\nvalue = [1, 0, 0, 0, 0]\nclass = 1", fillcolor="#e58139"] ;
535 -> 536 ;
537 [label="gini = 0.0\nsamples = 1\nvalue = [0, 0, 0, 0, 1]\nclass = 5", fillcolor="#e539c0"] ;
535 -> 537 ;
538 [label="Attendace <= 42.5\ngini = 0.444\nsamples = 3\nvalue = [2, 0, 0, 1, 0]\nclass = 1", fillcolor="#f2c09c"] ;
534 -> 538 ;
539 [label="gini = 0.0\nsamples = 1\nvalue = [1, 0, 0, 0, 0]\nclass = 1", fillcolor="#e58139"] ;
538 -> 539 ;
540 [label="gini = 0.5\nsamples = 2\nvalue = [1, 0, 0, 1, 0]\nclass = 1", fillcolor="#ffffff"] ;
538 -> 540 ;
541 [label="Attendace <= 39.5\ngini = 0.673\nsamples = 14\nvalue = [1, 2, 1, 7, 3]\nclass = 4", fillcolor="#b8b7f6"] ;
529 -> 541 ;
542 [label="Attendace <= 38.5\ngini = 0.776\nsamples = 7\nvalue = [1, 1, 1, 2, 2]\nclass = 4", fillcolor="#ffffff"] ;
541 -> 542 ;
543 [label="Gender <= 1.5\ngini = 0.75\nsamples = 4\nvalue = [1, 0, 1, 1, 1]\nclass = 1", fillcolor="#ffffff"] ;
542 -> 543 ;
544 [label="gini = 0.0\nsamples = 1\nvalue = [0, 0, 1, 0, 0]\nclass = 3", fillcolor="#39e5c5"] ;
543 -> 544 ;
545 [label="gini = 0.667\nsamples = 3\nvalue = [1, 0, 0, 1, 1]\nclass = 1", fillcolor="#ffffff"] ;
543 -> 545 ;
546 [label="Tuition <= 1.5\ngini = 0.667\nsamples = 3\nvalue = [0, 1, 0, 1, 1]\nclass = 2", fillcolor="#ffffff"] ;
542 -> 546 ;
547 [label="gini = 0.5\nsamples = 2\nvalue = [0, 0, 0, 1, 1]\nclass = 4", fillcolor="#ffffff"] ;
546 -> 547 ;
548 [label="gini = 0.0\nsamples = 1\nvalue = [0, 1, 0, 0, 0]\nclass = 2", fillcolor="#7be539"] ;
546 -> 548 ;
549 [label="Tuition <= 1.5\ngini = 0.449\nsamples = 7\nvalue = [0, 1, 0, 5, 1]\nclass = 4", fillcolor="#7d7bee"] ;
541 -> 549 ;
550 [label="Attendace <= 41.0\ngini = 0.56\nsamples = 5\nvalue = [0, 1, 0, 3, 1]\nclass = 4", fillcolor="#9e9cf2"] ;
549 -> 550 ;
551 [label="Gender <= 1.5\ngini = 0.5\nsamples = 2\nvalue = [0, 0, 0, 1, 1]\nclass = 4", fillcolor="#ffffff"] ;
550 -> 551 ;
552 [label="gini = 0.0\nsamples = 1\nvalue = [0, 0, 0, 1, 0]\nclass = 4", fillcolor="#3c39e5"] ;
551 -> 552 ;
553 [label="gini = 0.0\nsamples = 1\nvalue = [0, 0, 0, 0, 1]\nclass = 5", fillcolor="#e539c0"] ;
551 -> 553 ;
554 [label="gini = 0.444\nsamples = 3\nvalue = [0, 1, 0, 2, 0]\nclass = 4", fillcolor="#9e9cf2"] ;
550 -> 554 ;
555 [label="gini = 0.0\nsamples = 2\nvalue = [0, 0, 0, 2, 0]\nclass = 4", fillcolor="#3c39e5"] ;
549 -> 555 ;
556 [label="Gender <= 1.5\ngini = 0.611\nsamples = 6\nvalue = [3, 1, 0, 2, 0]\nclass = 1", fillcolor="#f8e0ce"] ;
528 -> 556 ;
557 [label="Class <= 0.5\ngini = 0.444\nsamples = 3\nvalue = [1, 0, 0, 2, 0]\nclass = 4", fillcolor="#9e9cf2"] ;
556 -> 557 ;
558 [label="gini = 0.0\nsamples = 2\nvalue = [0, 0, 0, 2, 0]\nclass = 4", fillcolor="#3c39e5"] ;
557 -> 558 ;
559 [label="gini = 0.0\nsamples = 1\nvalue = [1, 0, 0, 0, 0]\nclass = 1", fillcolor="#e58139"] ;
557 -> 559 ;
560 [label="Class <= 0.5\ngini = 0.444\nsamples = 3\nvalue = [2, 1, 0, 0, 0]\nclass = 1", fillcolor="#f2c09c"] ;
556 -> 560 ;
561 [label="gini = 0.0\nsamples = 2\nvalue = [2, 0, 0, 0, 0]\nclass = 1", fillcolor="#e58139"] ;
560 -> 561 ;
562 [label="gini = 0.0\nsamples = 1\nvalue = [0, 1, 0, 0, 0]\nclass = 2", fillcolor="#7be539"] ;
560 -> 562 ;
563 [label="Class <= 0.5\ngini = 0.708\nsamples = 12\nvalue = [2, 5, 0, 2, 3]\nclass = 2", fillcolor="#e2f9d3"] ;
527 -> 563 ;
564 [label="Attendace <= 38.5\ngini = 0.32\nsamples = 5\nvalue = [0, 4, 0, 0, 1]\nclass = 2", fillcolor="#9cec6a"] ;
563 -> 564 ;
565 [label="Tuition <= 2.5\ngini = 0.5\nsamples = 2\nvalue = [0, 1, 0, 0, 1]\nclass = 2", fillcolor="#ffffff"] ;
564 -> 565 ;
566 [label="gini = 0.0\nsamples = 1\nvalue = [0, 0, 0, 0, 1]\nclass = 5", fillcolor="#e539c0"] ;
565 -> 566 ;
567 [label="gini = 0.0\nsamples = 1\nvalue = [0, 1, 0, 0, 0]\nclass = 2", fillcolor="#7be539"] ;
565 -> 567 ;
568 [label="gini = 0.0\nsamples = 3\nvalue = [0, 3, 0, 0, 0]\nclass = 2", fillcolor="#7be539"] ;
564 -> 568 ;
569 [label="Tuition <= 2.5\ngini = 0.735\nsamples = 7\nvalue = [2, 1, 0, 2, 2]\nclass = 1", fillcolor="#ffffff"] ;
563 -> 569 ;
570 [label="Attendace <= 42.5\ngini = 0.64\nsamples = 5\nvalue = [2, 0, 0, 1, 2]\nclass = 1", fillcolor="#ffffff"] ;
569 -> 570 ;
571 [label="Tuition <= 1.5\ngini = 0.5\nsamples = 4\nvalue = [2, 0, 0, 0, 2]\nclass = 1", fillcolor="#ffffff"] ;
570 -> 571 ;
572 [label="Attendace <= 39.5\ngini = 0.444\nsamples = 3\nvalue = [1, 0, 0, 0, 2]\nclass = 5", fillcolor="#f29ce0"] ;
571 -> 572 ;
573 [label="gini = 0.0\nsamples = 1\nvalue = [1, 0, 0, 0, 0]\nclass = 1", fillcolor="#e58139"] ;
572 -> 573 ;
574 [label="gini = 0.0\nsamples = 2\nvalue = [0, 0, 0, 0, 2]\nclass = 5", fillcolor="#e539c0"] ;
572 -> 574 ;
575 [label="gini = 0.0\nsamples = 1\nvalue = [1, 0, 0, 0, 0]\nclass = 1", fillcolor="#e58139"] ;
571 -> 575 ;
576 [label="gini = 0.0\nsamples = 1\nvalue = [0, 0, 0, 1, 0]\nclass = 4", fillcolor="#3c39e5"] ;
570 -> 576 ;
577 [label="Attendace <= 40.5\ngini = 0.5\nsamples = 2\nvalue = [0, 1, 0, 1, 0]\nclass = 2", fillcolor="#ffffff"] ;
569 -> 577 ;
578 [label="gini = 0.0\nsamples = 1\nvalue = [0, 1, 0, 0, 0]\nclass = 2", fillcolor="#7be539"] ;
577 -> 578 ;
579 [label="gini = 0.0\nsamples = 1\nvalue = [0, 0, 0, 1, 0]\nclass = 4", fillcolor="#3c39e5"] ;
577 -> 579 ;
580 [label="Attendace <= 44.5\ngini = 0.777\nsamples = 34\nvalue = [5, 9, 10, 4, 6]\nclass = 3", fillcolor="#f7fefd"] ;
522 -> 580 ;
581 [label="Class <= 0.5\ngini = 0.612\nsamples = 7\nvalue = [1, 0, 4, 1, 1]\nclass = 3", fillcolor="#9cf2e2"] ;
580 -> 581 ;
582 [label="Tuition <= 1.5\ngini = 0.375\nsamples = 4\nvalue = [1, 0, 3, 0, 0]\nclass = 3", fillcolor="#7beed8"] ;
581 -> 582 ;
583 [label="gini = 0.0\nsamples = 1\nvalue = [0, 0, 1, 0, 0]\nclass = 3", fillcolor="#39e5c5"] ;
582 -> 583 ;
584 [label="Tuition <= 2.5\ngini = 0.444\nsamples = 3\nvalue = [1, 0, 2, 0, 0]\nclass = 3", fillcolor="#9cf2e2"] ;
582 -> 584 ;
585 [label="gini = 0.5\nsamples = 2\nvalue = [1, 0, 1, 0, 0]\nclass = 1", fillcolor="#ffffff"] ;
584 -> 585 ;
586 [label="gini = 0.0\nsamples = 1\nvalue = [0, 0, 1, 0, 0]\nclass = 3", fillcolor="#39e5c5"] ;
584 -> 586 ;
587 [label="Tuition <= 1.5\ngini = 0.667\nsamples = 3\nvalue = [0, 0, 1, 1, 1]\nclass = 3", fillcolor="#ffffff"] ;
581 -> 587 ;
588 [label="Gender <= 2.0\ngini = 0.5\nsamples = 2\nvalue = [0, 0, 1, 0, 1]\nclass = 3", fillcolor="#ffffff"] ;
587 -> 588 ;
589 [label="gini = 0.0\nsamples = 1\nvalue = [0, 0, 1, 0, 0]\nclass = 3", fillcolor="#39e5c5"] ;
588 -> 589 ;
590 [label="gini = 0.0\nsamples = 1\nvalue = [0, 0, 0, 0, 1]\nclass = 5", fillcolor="#e539c0"] ;
588 -> 590 ;
591 [label="gini = 0.0\nsamples = 1\nvalue = [0, 0, 0, 1, 0]\nclass = 4", fillcolor="#3c39e5"] ;
587 -> 591 ;
592 [label="Tuition <= 1.5\ngini = 0.771\nsamples = 27\nvalue = [4, 9, 6, 3, 5]\nclass = 2", fillcolor="#ecfbe3"] ;
580 -> 592 ;
593 [label="Gender <= 2.5\ngini = 0.617\nsamples = 9\nvalue = [2, 5, 1, 0, 1]\nclass = 2", fillcolor="#c6f4aa"] ;
592 -> 593 ;
594 [label="Class <= 0.5\ngini = 0.449\nsamples = 7\nvalue = [1, 5, 1, 0, 0]\nclass = 2", fillcolor="#a7ee7b"] ;
593 -> 594 ;
595 [label="gini = 0.0\nsamples = 2\nvalue = [0, 2, 0, 0, 0]\nclass = 2", fillcolor="#7be539"] ;
594 -> 595 ;
596 [label="Gender <= 1.5\ngini = 0.56\nsamples = 5\nvalue = [1, 3, 1, 0, 0]\nclass = 2", fillcolor="#bdf29c"] ;
594 -> 596 ;
597 [label="Attendace <= 45.5\ngini = 0.444\nsamples = 3\nvalue = [1, 2, 0, 0, 0]\nclass = 2", fillcolor="#bdf29c"] ;
596 -> 597 ;
598 [label="gini = 0.0\nsamples = 1\nvalue = [0, 1, 0, 0, 0]\nclass = 2", fillcolor="#7be539"] ;
597 -> 598 ;
599 [label="Attendace <= 47.0\ngini = 0.5\nsamples = 2\nvalue = [1, 1, 0, 0, 0]\nclass = 1", fillcolor="#ffffff"] ;
597 -> 599 ;
600 [label="gini = 0.0\nsamples = 1\nvalue = [1, 0, 0, 0, 0]\nclass = 1", fillcolor="#e58139"] ;
599 -> 600 ;
601 [label="gini = 0.0\nsamples = 1\nvalue = [0, 1, 0, 0, 0]\nclass = 2", fillcolor="#7be539"] ;
599 -> 601 ;
602 [label="gini = 0.5\nsamples = 2\nvalue = [0, 1, 1, 0, 0]\nclass = 2", fillcolor="#ffffff"] ;
596 -> 602 ;
603 [label="gini = 0.5\nsamples = 2\nvalue = [1, 0, 0, 0, 1]\nclass = 1", fillcolor="#ffffff"] ;
593 -> 603 ;
604 [label="Tuition <= 2.5\ngini = 0.784\nsamples = 18\nvalue = [2, 4, 5, 3, 4]\nclass = 3", fillcolor="#f1fdfb"] ;
592 -> 604 ;
605 [label="Attendace <= 45.5\ngini = 0.66\nsamples = 10\nvalue = [0, 0, 3, 3, 4]\nclass = 5", fillcolor="#fbe3f6"] ;
604 -> 605 ;
606 [label="Class <= 0.5\ngini = 0.5\nsamples = 2\nvalue = [0, 0, 1, 1, 0]\nclass = 3", fillcolor="#ffffff"] ;
605 -> 606 ;
607 [label="gini = 0.0\nsamples = 1\nvalue = [0, 0, 1, 0, 0]\nclass = 3", fillcolor="#39e5c5"] ;
606 -> 607 ;
608 [label="gini = 0.0\nsamples = 1\nvalue = [0, 0, 0, 1, 0]\nclass = 4", fillcolor="#3c39e5"] ;
606 -> 608 ;
609 [label="Attendace <= 47.5\ngini = 0.625\nsamples = 8\nvalue = [0, 0, 2, 2, 4]\nclass = 5", fillcolor="#f6bdea"] ;
605 -> 609 ;
610 [label="Gender <= 1.5\ngini = 0.375\nsamples = 4\nvalue = [0, 0, 0, 1, 3]\nclass = 5", fillcolor="#ee7bd5"] ;
609 -> 610 ;
611 [label="gini = 0.0\nsamples = 2\nvalue = [0, 0, 0, 0, 2]\nclass = 5", fillcolor="#e539c0"] ;
610 -> 611 ;
612 [label="Gender <= 2.5\ngini = 0.5\nsamples = 2\nvalue = [0, 0, 0, 1, 1]\nclass = 4", fillcolor="#ffffff"] ;
610 -> 612 ;
613 [label="gini = 0.0\nsamples = 1\nvalue = [0, 0, 0, 1, 0]\nclass = 4", fillcolor="#3c39e5"] ;
612 -> 613 ;
614 [label="gini = 0.0\nsamples = 1\nvalue = [0, 0, 0, 0, 1]\nclass = 5", fillcolor="#e539c0"] ;
612 -> 614 ;
615 [label="Gender <= 1.5\ngini = 0.625\nsamples = 4\nvalue = [0, 0, 2, 1, 1]\nclass = 3", fillcolor="#bdf6ec"] ;
609 -> 615 ;
616 [label="gini = 0.0\nsamples = 1\nvalue = [0, 0, 1, 0, 0]\nclass = 3", fillcolor="#39e5c5"] ;
615 -> 616 ;
617 [label="Class <= 0.5\ngini = 0.667\nsamples = 3\nvalue = [0, 0, 1, 1, 1]\nclass = 3", fillcolor="#ffffff"] ;
615 -> 617 ;
618 [label="gini = 0.5\nsamples = 2\nvalue = [0, 0, 1, 1, 0]\nclass = 3", fillcolor="#ffffff"] ;
617 -> 618 ;
619 [label="gini = 0.0\nsamples = 1\nvalue = [0, 0, 0, 0, 1]\nclass = 5", fillcolor="#e539c0"] ;
617 -> 619 ;
620 [label="Gender <= 1.5\ngini = 0.625\nsamples = 8\nvalue = [2, 4, 2, 0, 0]\nclass = 2", fillcolor="#d3f6bd"] ;
604 -> 620 ;
621 [label="gini = 0.0\nsamples = 2\nvalue = [0, 0, 2, 0, 0]\nclass = 3", fillcolor="#39e5c5"] ;
620 -> 621 ;
622 [label="Attendace <= 47.5\ngini = 0.444\nsamples = 6\nvalue = [2, 4, 0, 0, 0]\nclass = 2", fillcolor="#bdf29c"] ;
620 -> 622 ;
623 [label="gini = 0.0\nsamples = 4\nvalue = [0, 4, 0, 0, 0]\nclass = 2", fillcolor="#7be539"] ;
622 -> 623 ;
624 [label="gini = 0.0\nsamples = 2\nvalue = [2, 0, 0, 0, 0]\nclass = 1", fillcolor="#e58139"] ;
622 -> 624 ;
625 [label="Tuition <= 2.5\ngini = 0.113\nsamples = 1210\nvalue = [28, 1139, 14, 14, 15]\nclass = 2", fillcolor="#83e745"] ;
521 -> 625 ;
626 [label="Gender <= 2.5\ngini = 0.079\nsamples = 1183\nvalue = [24, 1135, 7, 9, 8]\nclass = 2", fillcolor="#80e641"] ;
625 -> 626 ;
627 [label="Attendace <= 47.5\ngini = 0.054\nsamples = 1161\nvalue = [21, 1129, 3, 5, 3]\nclass = 2", fillcolor="#7fe63f"] ;
626 -> 627 ;
628 [label="Attendace <= 38.5\ngini = 0.027\nsamples = 1093\nvalue = [4, 1078, 3, 5, 3]\nclass = 2", fillcolor="#7de53c"] ;
627 -> 628 ;
629 [label="Tuition <= 1.5\ngini = 0.073\nsamples = 160\nvalue = [1, 154, 0, 3, 2]\nclass = 2", fillcolor="#80e641"] ;
628 -> 629 ;
630 [label="Gender <= 1.5\ngini = 0.56\nsamples = 5\nvalue = [1, 0, 0, 3, 1]\nclass = 4", fillcolor="#9e9cf2"] ;
629 -> 630 ;
631 [label="Class <= 0.5\ngini = 0.5\nsamples = 2\nvalue = [1, 0, 0, 0, 1]\nclass = 1", fillcolor="#ffffff"] ;
630 -> 631 ;
632 [label="gini = 0.0\nsamples = 1\nvalue = [1, 0, 0, 0, 0]\nclass = 1", fillcolor="#e58139"] ;
631 -> 632 ;
633 [label="gini = 0.0\nsamples = 1\nvalue = [0, 0, 0, 0, 1]\nclass = 5", fillcolor="#e539c0"] ;
631 -> 633 ;
634 [label="gini = 0.0\nsamples = 3\nvalue = [0, 0, 0, 3, 0]\nclass = 4", fillcolor="#3c39e5"] ;
630 -> 634 ;
635 [label="Attendace <= 37.5\ngini = 0.013\nsamples = 155\nvalue = [0, 154, 0, 0, 1]\nclass = 2", fillcolor="#7ce53a"] ;
629 -> 635 ;
636 [label="gini = 0.0\nsamples = 92\nvalue = [0, 92, 0, 0, 0]\nclass = 2", fillcolor="#7be539"] ;
635 -> 636 ;
637 [label="Class <= 0.5\ngini = 0.031\nsamples = 63\nvalue = [0, 62, 0, 0, 1]\nclass = 2", fillcolor="#7de53c"] ;
635 -> 637 ;
638 [label="gini = 0.0\nsamples = 38\nvalue = [0, 38, 0, 0, 0]\nclass = 2", fillcolor="#7be539"] ;
637 -> 638 ;
639 [label="gini = 0.077\nsamples = 25\nvalue = [0, 24, 0, 0, 1]\nclass = 2", fillcolor="#80e641"] ;
637 -> 639 ;
640 [label="Gender <= 1.5\ngini = 0.019\nsamples = 933\nvalue = [3, 924, 3, 2, 1]\nclass = 2", fillcolor="#7ce53b"] ;
628 -> 640 ;
641 [label="Tuition <= 1.5\ngini = 0.011\nsamples = 749\nvalue = [2, 745, 2, 0, 0]\nclass = 2", fillcolor="#7ce53a"] ;
640 -> 641 ;
642 [label="Attendace <= 41.5\ngini = 0.008\nsamples = 744\nvalue = [2, 741, 1, 0, 0]\nclass = 2", fillcolor="#7ce53a"] ;
641 -> 642 ;
643 [label="Class <= 0.5\ngini = 0.027\nsamples = 148\nvalue = [2, 146, 0, 0, 0]\nclass = 2", fillcolor="#7de53c"] ;
642 -> 643 ;
644 [label="gini = 0.062\nsamples = 62\nvalue = [2, 60, 0, 0, 0]\nclass = 2", fillcolor="#7fe640"] ;
643 -> 644 ;
645 [label="gini = 0.0\nsamples = 86\nvalue = [0, 86, 0, 0, 0]\nclass = 2", fillcolor="#7be539"] ;
643 -> 645 ;
646 [label="Class <= 0.5\ngini = 0.003\nsamples = 596\nvalue = [0, 595, 1, 0, 0]\nclass = 2", fillcolor="#7be539"] ;
642 -> 646 ;
647 [label="Attendace <= 44.5\ngini = 0.007\nsamples = 288\nvalue = [0, 287, 1, 0, 0]\nclass = 2", fillcolor="#7be53a"] ;
646 -> 647 ;
648 [label="gini = 0.0\nsamples = 143\nvalue = [0, 143, 0, 0, 0]\nclass = 2", fillcolor="#7be539"] ;
647 -> 648 ;
649 [label="Attendace <= 45.5\ngini = 0.014\nsamples = 145\nvalue = [0, 144, 1, 0, 0]\nclass = 2", fillcolor="#7ce53a"] ;
647 -> 649 ;
650 [label="gini = 0.031\nsamples = 63\nvalue = [0, 62, 1, 0, 0]\nclass = 2", fillcolor="#7de53c"] ;
649 -> 650 ;
651 [label="gini = 0.0\nsamples = 82\nvalue = [0, 82, 0, 0, 0]\nclass = 2", fillcolor="#7be539"] ;
649 -> 651 ;
652 [label="gini = 0.0\nsamples = 308\nvalue = [0, 308, 0, 0, 0]\nclass = 2", fillcolor="#7be539"] ;
646 -> 652 ;
653 [label="Attendace <= 45.0\ngini = 0.32\nsamples = 5\nvalue = [0, 4, 1, 0, 0]\nclass = 2", fillcolor="#9cec6a"] ;
641 -> 653 ;
654 [label="gini = 0.0\nsamples = 4\nvalue = [0, 4, 0, 0, 0]\nclass = 2", fillcolor="#7be539"] ;
653 -> 654 ;
655 [label="gini = 0.0\nsamples = 1\nvalue = [0, 0, 1, 0, 0]\nclass = 3", fillcolor="#39e5c5"] ;
653 -> 655 ;
656 [label="Attendace <= 43.5\ngini = 0.053\nsamples = 184\nvalue = [1, 179, 1, 2, 1]\nclass = 2", fillcolor="#7fe63e"] ;
640 -> 656 ;
657 [label="Tuition <= 1.5\ngini = 0.011\nsamples = 180\nvalue = [0, 179, 1, 0, 0]\nclass = 2", fillcolor="#7ce53a"] ;
656 -> 657 ;
658 [label="gini = 0.5\nsamples = 2\nvalue = [0, 1, 1, 0, 0]\nclass = 2", fillcolor="#ffffff"] ;
657 -> 658 ;
659 [label="gini = 0.0\nsamples = 178\nvalue = [0, 178, 0, 0, 0]\nclass = 2", fillcolor="#7be539"] ;
657 -> 659 ;
660 [label="Attendace <= 45.5\ngini = 0.625\nsamples = 4\nvalue = [1, 0, 0, 2, 1]\nclass = 4", fillcolor="#bebdf6"] ;
656 -> 660 ;
661 [label="Attendace <= 44.5\ngini = 0.5\nsamples = 2\nvalue = [1, 0, 0, 0, 1]\nclass = 1", fillcolor="#ffffff"] ;
660 -> 661 ;
662 [label="gini = 0.0\nsamples = 1\nvalue = [1, 0, 0, 0, 0]\nclass = 1", fillcolor="#e58139"] ;
661 -> 662 ;
663 [label="gini = 0.0\nsamples = 1\nvalue = [0, 0, 0, 0, 1]\nclass = 5", fillcolor="#e539c0"] ;
661 -> 663 ;
664 [label="gini = 0.0\nsamples = 2\nvalue = [0, 0, 0, 2, 0]\nclass = 4", fillcolor="#3c39e5"] ;
660 -> 664 ;
665 [label="Class <= 0.5\ngini = 0.375\nsamples = 68\nvalue = [17, 51, 0, 0, 0]\nclass = 2", fillcolor="#a7ee7b"] ;
627 -> 665 ;
666 [label="gini = 0.0\nsamples = 50\nvalue = [0, 50, 0, 0, 0]\nclass = 2", fillcolor="#7be539"] ;
665 -> 666 ;
667 [label="gini = 0.105\nsamples = 18\nvalue = [17, 1, 0, 0, 0]\nclass = 1", fillcolor="#e78845"] ;
665 -> 667 ;
668 [label="Attendace <= 46.5\ngini = 0.789\nsamples = 22\nvalue = [3, 6, 4, 4, 5]\nclass = 2", fillcolor="#f7fdf3"] ;
626 -> 668 ;
669 [label="Attendace <= 45.5\ngini = 0.773\nsamples = 15\nvalue = [3, 4, 1, 4, 3]\nclass = 2", fillcolor="#ffffff"] ;
668 -> 669 ;
670 [label="Attendace <= 39.5\ngini = 0.757\nsamples = 13\nvalue = [2, 4, 1, 4, 2]\nclass = 2", fillcolor="#ffffff"] ;
669 -> 670 ;
671 [label="Tuition <= 1.5\ngini = 0.735\nsamples = 7\nvalue = [2, 1, 0, 2, 2]\nclass = 1", fillcolor="#ffffff"] ;
670 -> 671 ;
672 [label="Attendace <= 38.5\ngini = 0.64\nsamples = 5\nvalue = [1, 0, 0, 2, 2]\nclass = 4", fillcolor="#ffffff"] ;
671 -> 672 ;
673 [label="Class <= 0.5\ngini = 0.5\nsamples = 4\nvalue = [0, 0, 0, 2, 2]\nclass = 4", fillcolor="#ffffff"] ;
672 -> 673 ;
674 [label="Attendace <= 37.5\ngini = 0.444\nsamples = 3\nvalue = [0, 0, 0, 2, 1]\nclass = 4", fillcolor="#9e9cf2"] ;
673 -> 674 ;
675 [label="gini = 0.5\nsamples = 2\nvalue = [0, 0, 0, 1, 1]\nclass = 4", fillcolor="#ffffff"] ;
674 -> 675 ;
676 [label="gini = 0.0\nsamples = 1\nvalue = [0, 0, 0, 1, 0]\nclass = 4", fillcolor="#3c39e5"] ;
674 -> 676 ;
677 [label="gini = 0.0\nsamples = 1\nvalue = [0, 0, 0, 0, 1]\nclass = 5", fillcolor="#e539c0"] ;
673 -> 677 ;
678 [label="gini = 0.0\nsamples = 1\nvalue = [1, 0, 0, 0, 0]\nclass = 1", fillcolor="#e58139"] ;
672 -> 678 ;
679 [label="Attendace <= 37.5\ngini = 0.5\nsamples = 2\nvalue = [1, 1, 0, 0, 0]\nclass = 1", fillcolor="#ffffff"] ;
671 -> 679 ;
680 [label="gini = 0.0\nsamples = 1\nvalue = [0, 1, 0, 0, 0]\nclass = 2", fillcolor="#7be539"] ;
679 -> 680 ;
681 [label="gini = 0.0\nsamples = 1\nvalue = [1, 0, 0, 0, 0]\nclass = 1", fillcolor="#e58139"] ;
679 -> 681 ;
682 [label="Attendace <= 41.5\ngini = 0.611\nsamples = 6\nvalue = [0, 3, 1, 2, 0]\nclass = 2", fillcolor="#def8ce"] ;
670 -> 682 ;
683 [label="Tuition <= 1.5\ngini = 0.444\nsamples = 3\nvalue = [0, 2, 1, 0, 0]\nclass = 2", fillcolor="#bdf29c"] ;
682 -> 683 ;
684 [label="gini = 0.0\nsamples = 1\nvalue = [0, 1, 0, 0, 0]\nclass = 2", fillcolor="#7be539"] ;
683 -> 684 ;
685 [label="gini = 0.5\nsamples = 2\nvalue = [0, 1, 1, 0, 0]\nclass = 2", fillcolor="#ffffff"] ;
683 -> 685 ;
686 [label="Tuition <= 1.5\ngini = 0.444\nsamples = 3\nvalue = [0, 1, 0, 2, 0]\nclass = 4", fillcolor="#9e9cf2"] ;
682 -> 686 ;
687 [label="gini = 0.5\nsamples = 2\nvalue = [0, 1, 0, 1, 0]\nclass = 2", fillcolor="#ffffff"] ;
686 -> 687 ;
688 [label="gini = 0.0\nsamples = 1\nvalue = [0, 0, 0, 1, 0]\nclass = 4", fillcolor="#3c39e5"] ;
686 -> 688 ;
689 [label="Class <= 0.5\ngini = 0.5\nsamples = 2\nvalue = [1, 0, 0, 0, 1]\nclass = 1", fillcolor="#ffffff"] ;
669 -> 689 ;
690 [label="gini = 0.0\nsamples = 1\nvalue = [0, 0, 0, 0, 1]\nclass = 5", fillcolor="#e539c0"] ;
689 -> 690 ;
691 [label="gini = 0.0\nsamples = 1\nvalue = [1, 0, 0, 0, 0]\nclass = 1", fillcolor="#e58139"] ;
689 -> 691 ;
692 [label="Class <= 0.5\ngini = 0.653\nsamples = 7\nvalue = [0, 2, 3, 0, 2]\nclass = 3", fillcolor="#d7faf3"] ;
668 -> 692 ;
693 [label="gini = 0.0\nsamples = 1\nvalue = [0, 1, 0, 0, 0]\nclass = 2", fillcolor="#7be539"] ;
692 -> 693 ;
694 [label="Tuition <= 1.5\ngini = 0.611\nsamples = 6\nvalue = [0, 1, 3, 0, 2]\nclass = 3", fillcolor="#cef8f0"] ;
692 -> 694 ;
695 [label="gini = 0.5\nsamples = 4\nvalue = [0, 0, 2, 0, 2]\nclass = 3", fillcolor="#ffffff"] ;
694 -> 695 ;
696 [label="Attendace <= 47.5\ngini = 0.5\nsamples = 2\nvalue = [0, 1, 1, 0, 0]\nclass = 2", fillcolor="#ffffff"] ;
694 -> 696 ;
697 [label="gini = 0.0\nsamples = 1\nvalue = [0, 0, 1, 0, 0]\nclass = 3", fillcolor="#39e5c5"] ;
696 -> 697 ;
698 [label="gini = 0.0\nsamples = 1\nvalue = [0, 1, 0, 0, 0]\nclass = 2", fillcolor="#7be539"] ;
696 -> 698 ;
699 [label="Gender <= 2.5\ngini = 0.787\nsamples = 27\nvalue = [4, 4, 7, 5, 7]\nclass = 3", fillcolor="#ffffff"] ;
625 -> 699 ;
700 [label="Attendace <= 43.5\ngini = 0.784\nsamples = 18\nvalue = [4, 3, 5, 2, 4]\nclass = 3", fillcolor="#f1fdfb"] ;
699 -> 700 ;
701 [label="Class <= 0.5\ngini = 0.719\nsamples = 8\nvalue = [3, 2, 1, 0, 2]\nclass = 1", fillcolor="#fbeade"] ;
700 -> 701 ;
702 [label="Attendace <= 40.0\ngini = 0.64\nsamples = 5\nvalue = [2, 0, 1, 0, 2]\nclass = 1", fillcolor="#ffffff"] ;
701 -> 702 ;
703 [label="Attendace <= 38.0\ngini = 0.5\nsamples = 2\nvalue = [0, 0, 1, 0, 1]\nclass = 3", fillcolor="#ffffff"] ;
702 -> 703 ;
704 [label="gini = 0.0\nsamples = 1\nvalue = [0, 0, 0, 0, 1]\nclass = 5", fillcolor="#e539c0"] ;
703 -> 704 ;
705 [label="gini = 0.0\nsamples = 1\nvalue = [0, 0, 1, 0, 0]\nclass = 3", fillcolor="#39e5c5"] ;
703 -> 705 ;
706 [label="Attendace <= 42.5\ngini = 0.444\nsamples = 3\nvalue = [2, 0, 0, 0, 1]\nclass = 1", fillcolor="#f2c09c"] ;
702 -> 706 ;
707 [label="gini = 0.0\nsamples = 2\nvalue = [2, 0, 0, 0, 0]\nclass = 1", fillcolor="#e58139"] ;
706 -> 707 ;
708 [label="gini = 0.0\nsamples = 1\nvalue = [0, 0, 0, 0, 1]\nclass = 5", fillcolor="#e539c0"] ;
706 -> 708 ;
709 [label="Attendace <= 42.0\ngini = 0.444\nsamples = 3\nvalue = [1, 2, 0, 0, 0]\nclass = 2", fillcolor="#bdf29c"] ;
701 -> 709 ;
710 [label="gini = 0.0\nsamples = 2\nvalue = [0, 2, 0, 0, 0]\nclass = 2", fillcolor="#7be539"] ;
709 -> 710 ;
711 [label="gini = 0.0\nsamples = 1\nvalue = [1, 0, 0, 0, 0]\nclass = 1", fillcolor="#e58139"] ;
709 -> 711 ;
712 [label="Attendace <= 47.5\ngini = 0.74\nsamples = 10\nvalue = [1, 1, 4, 2, 2]\nclass = 3", fillcolor="#cef8f0"] ;
700 -> 712 ;
713 [label="Class <= 0.5\ngini = 0.719\nsamples = 8\nvalue = [0, 1, 3, 2, 2]\nclass = 3", fillcolor="#defbf5"] ;
712 -> 713 ;
714 [label="gini = 0.0\nsamples = 1\nvalue = [0, 0, 0, 1, 0]\nclass = 4", fillcolor="#3c39e5"] ;
713 -> 714 ;
715 [label="Attendace <= 44.5\ngini = 0.694\nsamples = 7\nvalue = [0, 1, 3, 1, 2]\nclass = 3", fillcolor="#d7faf3"] ;
713 -> 715 ;
716 [label="Gender <= 1.5\ngini = 0.667\nsamples = 3\nvalue = [0, 1, 1, 1, 0]\nclass = 2", fillcolor="#ffffff"] ;
715 -> 716 ;
717 [label="gini = 0.5\nsamples = 2\nvalue = [0, 0, 1, 1, 0]\nclass = 3", fillcolor="#ffffff"] ;
716 -> 717 ;
718 [label="gini = 0.0\nsamples = 1\nvalue = [0, 1, 0, 0, 0]\nclass = 2", fillcolor="#7be539"] ;
716 -> 718 ;
719 [label="Attendace <= 46.5\ngini = 0.5\nsamples = 4\nvalue = [0, 0, 2, 0, 2]\nclass = 3", fillcolor="#ffffff"] ;
715 -> 719 ;
720 [label="Attendace <= 45.5\ngini = 0.444\nsamples = 3\nvalue = [0, 0, 2, 0, 1]\nclass = 3", fillcolor="#9cf2e2"] ;
719 -> 720 ;
721 [label="gini = 0.5\nsamples = 2\nvalue = [0, 0, 1, 0, 1]\nclass = 3", fillcolor="#ffffff"] ;
720 -> 721 ;
722 [label="gini = 0.0\nsamples = 1\nvalue = [0, 0, 1, 0, 0]\nclass = 3", fillcolor="#39e5c5"] ;
720 -> 722 ;
723 [label="gini = 0.0\nsamples = 1\nvalue = [0, 0, 0, 0, 1]\nclass = 5", fillcolor="#e539c0"] ;
719 -> 723 ;
724 [label="Class <= 0.5\ngini = 0.5\nsamples = 2\nvalue = [1, 0, 1, 0, 0]\nclass = 1", fillcolor="#ffffff"] ;
712 -> 724 ;
725 [label="gini = 0.0\nsamples = 1\nvalue = [0, 0, 1, 0, 0]\nclass = 3", fillcolor="#39e5c5"] ;
724 -> 725 ;
726 [label="gini = 0.0\nsamples = 1\nvalue = [1, 0, 0, 0, 0]\nclass = 1", fillcolor="#e58139"] ;
724 -> 726 ;
727 [label="Attendace <= 46.5\ngini = 0.716\nsamples = 9\nvalue = [0, 1, 2, 3, 3]\nclass = 4", fillcolor="#ffffff"] ;
699 -> 727 ;
728 [label="Attendace <= 43.5\ngini = 0.656\nsamples = 8\nvalue = [0, 0, 2, 3, 3]\nclass = 4", fillcolor="#ffffff"] ;
727 -> 728 ;
729 [label="Class <= 0.5\ngini = 0.56\nsamples = 5\nvalue = [0, 0, 1, 3, 1]\nclass = 4", fillcolor="#9e9cf2"] ;
728 -> 729 ;
730 [label="gini = 0.0\nsamples = 1\nvalue = [0, 0, 1, 0, 0]\nclass = 3", fillcolor="#39e5c5"] ;
729 -> 730 ;
731 [label="Attendace <= 40.5\ngini = 0.375\nsamples = 4\nvalue = [0, 0, 0, 3, 1]\nclass = 4", fillcolor="#7d7bee"] ;
729 -> 731 ;
732 [label="gini = 0.0\nsamples = 1\nvalue = [0, 0, 0, 1, 0]\nclass = 4", fillcolor="#3c39e5"] ;
731 -> 732 ;
733 [label="Attendace <= 42.0\ngini = 0.444\nsamples = 3\nvalue = [0, 0, 0, 2, 1]\nclass = 4", fillcolor="#9e9cf2"] ;
731 -> 733 ;
734 [label="gini = 0.5\nsamples = 2\nvalue = [0, 0, 0, 1, 1]\nclass = 4", fillcolor="#ffffff"] ;
733 -> 734 ;
735 [label="gini = 0.0\nsamples = 1\nvalue = [0, 0, 0, 1, 0]\nclass = 4", fillcolor="#3c39e5"] ;
733 -> 735 ;
736 [label="Attendace <= 44.5\ngini = 0.444\nsamples = 3\nvalue = [0, 0, 1, 0, 2]\nclass = 5", fillcolor="#f29ce0"] ;
728 -> 736 ;
737 [label="gini = 0.0\nsamples = 2\nvalue = [0, 0, 0, 0, 2]\nclass = 5", fillcolor="#e539c0"] ;
736 -> 737 ;
738 [label="gini = 0.0\nsamples = 1\nvalue = [0, 0, 1, 0, 0]\nclass = 3", fillcolor="#39e5c5"] ;
736 -> 738 ;
739 [label="gini = 0.0\nsamples = 1\nvalue = [0, 1, 0, 0, 0]\nclass = 2", fillcolor="#7be539"] ;
727 -> 739 ;
740 [label="Tuition <= 1.5\ngini = 0.378\nsamples = 663\nvalue = [518, 42, 34, 36, 33]\nclass = 1", fillcolor="#eb9e67"] ;
0 -> 740 [labeldistance=2.5, labelangle=-45, headlabel="False"] ;
741 [label="Gender <= 1.5\ngini = 0.174\nsamples = 553\nvalue = [502, 14, 10, 14, 13]\nclass = 1", fillcolor="#e78d4c"] ;
740 -> 741 ;
742 [label="Term <= 0.5\ngini = 0.058\nsamples = 504\nvalue = [489, 5, 4, 3, 3]\nclass = 1", fillcolor="#e6853f"] ;
741 -> 742 ;
743 [label="Attendace <= 51.5\ngini = 0.76\nsamples = 11\nvalue = [4, 2, 2, 1, 2]\nclass = 1", fillcolor="#f9e3d3"] ;
742 -> 743 ;
744 [label="gini = 0.0\nsamples = 2\nvalue = [2, 0, 0, 0, 0]\nclass = 1", fillcolor="#e58139"] ;
743 -> 744 ;
745 [label="Attendace <= 52.5\ngini = 0.79\nsamples = 9\nvalue = [2, 2, 2, 1, 2]\nclass = 1", fillcolor="#ffffff"] ;
743 -> 745 ;
746 [label="gini = 0.0\nsamples = 1\nvalue = [0, 1, 0, 0, 0]\nclass = 2", fillcolor="#7be539"] ;
745 -> 746 ;
747 [label="Attendace <= 58.0\ngini = 0.781\nsamples = 8\nvalue = [2, 1, 2, 1, 2]\nclass = 1", fillcolor="#ffffff"] ;
745 -> 747 ;
748 [label="Attendace <= 55.5\ngini = 0.735\nsamples = 7\nvalue = [2, 0, 2, 1, 2]\nclass = 1", fillcolor="#ffffff"] ;
747 -> 748 ;
749 [label="Attendace <= 53.5\ngini = 0.64\nsamples = 5\nvalue = [1, 0, 2, 0, 2]\nclass = 3", fillcolor="#ffffff"] ;
748 -> 749 ;
750 [label="gini = 0.0\nsamples = 1\nvalue = [0, 0, 1, 0, 0]\nclass = 3", fillcolor="#39e5c5"] ;
749 -> 750 ;
751 [label="Class <= 0.5\ngini = 0.625\nsamples = 4\nvalue = [1, 0, 1, 0, 2]\nclass = 5", fillcolor="#f6bdea"] ;
749 -> 751 ;
752 [label="Attendace <= 54.5\ngini = 0.667\nsamples = 3\nvalue = [1, 0, 1, 0, 1]\nclass = 1", fillcolor="#ffffff"] ;
751 -> 752 ;
753 [label="gini = 0.0\nsamples = 1\nvalue = [0, 0, 0, 0, 1]\nclass = 5", fillcolor="#e539c0"] ;
752 -> 753 ;
754 [label="gini = 0.5\nsamples = 2\nvalue = [1, 0, 1, 0, 0]\nclass = 1", fillcolor="#ffffff"] ;
752 -> 754 ;
755 [label="gini = 0.0\nsamples = 1\nvalue = [0, 0, 0, 0, 1]\nclass = 5", fillcolor="#e539c0"] ;
751 -> 755 ;
756 [label="Class <= 0.5\ngini = 0.5\nsamples = 2\nvalue = [1, 0, 0, 1, 0]\nclass = 1", fillcolor="#ffffff"] ;
748 -> 756 ;
757 [label="gini = 0.0\nsamples = 1\nvalue = [0, 0, 0, 1, 0]\nclass = 4", fillcolor="#3c39e5"] ;
756 -> 757 ;
758 [label="gini = 0.0\nsamples = 1\nvalue = [1, 0, 0, 0, 0]\nclass = 1", fillcolor="#e58139"] ;
756 -> 758 ;
759 [label="gini = 0.0\nsamples = 1\nvalue = [0, 1, 0, 0, 0]\nclass = 2", fillcolor="#7be539"] ;
747 -> 759 ;
760 [label="Attendace <= 53.5\ngini = 0.032\nsamples = 493\nvalue = [485, 3, 2, 2, 1]\nclass = 1", fillcolor="#e5833c"] ;
742 -> 760 ;
761 [label="Attendace <= 49.5\ngini = 0.008\nsamples = 252\nvalue = [251, 0, 0, 0, 1]\nclass = 1", fillcolor="#e5823a"] ;
760 -> 761 ;
762 [label="Class <= 0.5\ngini = 0.034\nsamples = 57\nvalue = [56, 0, 0, 0, 1]\nclass = 1", fillcolor="#e5833d"] ;
761 -> 762 ;
763 [label="gini = 0.059\nsamples = 33\nvalue = [32, 0, 0, 0, 1]\nclass = 1", fillcolor="#e6853f"] ;
762 -> 763 ;
764 [label="gini = 0.0\nsamples = 24\nvalue = [24, 0, 0, 0, 0]\nclass = 1", fillcolor="#e58139"] ;
762 -> 764 ;
765 [label="gini = 0.0\nsamples = 195\nvalue = [195, 0, 0, 0, 0]\nclass = 1", fillcolor="#e58139"] ;
761 -> 765 ;
766 [label="Class <= 0.5\ngini = 0.057\nsamples = 241\nvalue = [234, 3, 2, 2, 0]\nclass = 1", fillcolor="#e6853f"] ;
760 -> 766 ;
767 [label="Attendace <= 57.5\ngini = 0.033\nsamples = 118\nvalue = [116, 2, 0, 0, 0]\nclass = 1", fillcolor="#e5833c"] ;
766 -> 767 ;
768 [label="gini = 0.0\nsamples = 69\nvalue = [69, 0, 0, 0, 0]\nclass = 1", fillcolor="#e58139"] ;
767 -> 768 ;
769 [label="Attendace <= 59.5\ngini = 0.078\nsamples = 49\nvalue = [47, 2, 0, 0, 0]\nclass = 1", fillcolor="#e68641"] ;
767 -> 769 ;
770 [label="Attendace <= 58.5\ngini = 0.128\nsamples = 29\nvalue = [27, 2, 0, 0, 0]\nclass = 1", fillcolor="#e78a48"] ;
769 -> 770 ;
771 [label="gini = 0.153\nsamples = 12\nvalue = [11, 1, 0, 0, 0]\nclass = 1", fillcolor="#e78c4b"] ;
770 -> 771 ;
772 [label="gini = 0.111\nsamples = 17\nvalue = [16, 1, 0, 0, 0]\nclass = 1", fillcolor="#e78945"] ;
770 -> 772 ;
773 [label="gini = 0.0\nsamples = 20\nvalue = [20, 0, 0, 0, 0]\nclass = 1", fillcolor="#e58139"] ;
769 -> 773 ;
774 [label="Attendace <= 55.5\ngini = 0.079\nsamples = 123\nvalue = [118, 1, 2, 2, 0]\nclass = 1", fillcolor="#e68641"] ;
766 -> 774 ;
775 [label="Attendace <= 54.5\ngini = 0.127\nsamples = 30\nvalue = [28, 1, 1, 0, 0]\nclass = 1", fillcolor="#e78a47"] ;
774 -> 775 ;
776 [label="gini = 0.117\nsamples = 16\nvalue = [15, 0, 1, 0, 0]\nclass = 1", fillcolor="#e78946"] ;
775 -> 776 ;
777 [label="gini = 0.133\nsamples = 14\nvalue = [13, 1, 0, 0, 0]\nclass = 1", fillcolor="#e78b48"] ;
775 -> 777 ;
778 [label="Attendace <= 59.5\ngini = 0.063\nsamples = 93\nvalue = [90, 0, 1, 2, 0]\nclass = 1", fillcolor="#e68540"] ;
774 -> 778 ;
779 [label="Attendace <= 58.5\ngini = 0.085\nsamples = 68\nvalue = [65, 0, 1, 2, 0]\nclass = 1", fillcolor="#e68742"] ;
778 -> 779 ;
780 [label="Attendace <= 56.5\ngini = 0.037\nsamples = 53\nvalue = [52, 0, 0, 1, 0]\nclass = 1", fillcolor="#e6833d"] ;
779 -> 780 ;
781 [label="gini = 0.0\nsamples = 16\nvalue = [16, 0, 0, 0, 0]\nclass = 1", fillcolor="#e58139"] ;
780 -> 781 ;
782 [label="Attendace <= 57.5\ngini = 0.053\nsamples = 37\nvalue = [36, 0, 0, 1, 0]\nclass = 1", fillcolor="#e6843e"] ;
780 -> 782 ;
783 [label="gini = 0.083\nsamples = 23\nvalue = [22, 0, 0, 1, 0]\nclass = 1", fillcolor="#e68742"] ;
782 -> 783 ;
784 [label="gini = 0.0\nsamples = 14\nvalue = [14, 0, 0, 0, 0]\nclass = 1", fillcolor="#e58139"] ;
782 -> 784 ;
785 [label="gini = 0.24\nsamples = 15\nvalue = [13, 0, 1, 1, 0]\nclass = 1", fillcolor="#e99355"] ;
779 -> 785 ;
786 [label="gini = 0.0\nsamples = 25\nvalue = [25, 0, 0, 0, 0]\nclass = 1", fillcolor="#e58139"] ;
778 -> 786 ;
787 [label="Attendace <= 49.5\ngini = 0.789\nsamples = 49\nvalue = [13, 9, 6, 11, 10]\nclass = 1", fillcolor="#fef8f5"] ;
741 -> 787 ;
788 [label="gini = 0.0\nsamples = 2\nvalue = [2, 0, 0, 0, 0]\nclass = 1", fillcolor="#e58139"] ;
787 -> 788 ;
789 [label="Attendace <= 56.5\ngini = 0.792\nsamples = 47\nvalue = [11, 9, 6, 11, 10]\nclass = 1", fillcolor="#ffffff"] ;
787 -> 789 ;
790 [label="Attendace <= 55.5\ngini = 0.765\nsamples = 27\nvalue = [6, 6, 3, 9, 3]\nclass = 4", fillcolor="#e3e3fb"] ;
789 -> 790 ;
791 [label="Attendace <= 50.5\ngini = 0.778\nsamples = 25\nvalue = [6, 6, 3, 7, 3]\nclass = 4", fillcolor="#f5f5fe"] ;
790 -> 791 ;
792 [label="gini = 0.0\nsamples = 1\nvalue = [0, 0, 0, 0, 1]\nclass = 5", fillcolor="#e539c0"] ;
791 -> 792 ;
793 [label="Attendace <= 51.5\ngini = 0.767\nsamples = 24\nvalue = [6, 6, 3, 7, 2]\nclass = 4", fillcolor="#f4f4fe"] ;
791 -> 793 ;
794 [label="Class <= 0.5\ngini = 0.611\nsamples = 6\nvalue = [3, 1, 0, 2, 0]\nclass = 1", fillcolor="#f8e0ce"] ;
793 -> 794 ;
795 [label="Term <= 0.5\ngini = 0.444\nsamples = 3\nvalue = [2, 1, 0, 0, 0]\nclass = 1", fillcolor="#f2c09c"] ;
794 -> 795 ;
796 [label="Gender <= 2.5\ngini = 0.5\nsamples = 2\nvalue = [1, 1, 0, 0, 0]\nclass = 1", fillcolor="#ffffff"] ;
795 -> 796 ;
797 [label="gini = 0.0\nsamples = 1\nvalue = [0, 1, 0, 0, 0]\nclass = 2", fillcolor="#7be539"] ;
796 -> 797 ;
798 [label="gini = 0.0\nsamples = 1\nvalue = [1, 0, 0, 0, 0]\nclass = 1", fillcolor="#e58139"] ;
796 -> 798 ;
799 [label="gini = 0.0\nsamples = 1\nvalue = [1, 0, 0, 0, 0]\nclass = 1", fillcolor="#e58139"] ;
795 -> 799 ;
800 [label="Gender <= 2.5\ngini = 0.444\nsamples = 3\nvalue = [1, 0, 0, 2, 0]\nclass = 4", fillcolor="#9e9cf2"] ;
794 -> 800 ;
801 [label="Term <= 0.5\ngini = 0.5\nsamples = 2\nvalue = [1, 0, 0, 1, 0]\nclass = 1", fillcolor="#ffffff"] ;
800 -> 801 ;
802 [label="gini = 0.0\nsamples = 1\nvalue = [1, 0, 0, 0, 0]\nclass = 1", fillcolor="#e58139"] ;
801 -> 802 ;
803 [label="gini = 0.0\nsamples = 1\nvalue = [0, 0, 0, 1, 0]\nclass = 4", fillcolor="#3c39e5"] ;
801 -> 803 ;
804 [label="gini = 0.0\nsamples = 1\nvalue = [0, 0, 0, 1, 0]\nclass = 4", fillcolor="#3c39e5"] ;
800 -> 804 ;
805 [label="Term <= 0.5\ngini = 0.778\nsamples = 18\nvalue = [3, 5, 3, 5, 2]\nclass = 2", fillcolor="#ffffff"] ;
793 -> 805 ;
806 [label="Class <= 0.5\ngini = 0.74\nsamples = 10\nvalue = [1, 2, 1, 4, 2]\nclass = 4", fillcolor="#cecef8"] ;
805 -> 806 ;
807 [label="Attendace <= 53.5\ngini = 0.56\nsamples = 5\nvalue = [0, 0, 1, 3, 1]\nclass = 4", fillcolor="#9e9cf2"] ;
806 -> 807 ;
808 [label="gini = 0.0\nsamples = 3\nvalue = [0, 0, 0, 3, 0]\nclass = 4", fillcolor="#3c39e5"] ;
807 -> 808 ;
809 [label="Attendace <= 54.5\ngini = 0.5\nsamples = 2\nvalue = [0, 0, 1, 0, 1]\nclass = 3", fillcolor="#ffffff"] ;
807 -> 809 ;
810 [label="gini = 0.0\nsamples = 1\nvalue = [0, 0, 0, 0, 1]\nclass = 5", fillcolor="#e539c0"] ;
809 -> 810 ;
811 [label="gini = 0.0\nsamples = 1\nvalue = [0, 0, 1, 0, 0]\nclass = 3", fillcolor="#39e5c5"] ;
809 -> 811 ;
812 [label="Gender <= 2.5\ngini = 0.72\nsamples = 5\nvalue = [1, 2, 0, 1, 1]\nclass = 2", fillcolor="#def8ce"] ;
806 -> 812 ;
813 [label="gini = 0.0\nsamples = 1\nvalue = [0, 1, 0, 0, 0]\nclass = 2", fillcolor="#7be539"] ;
812 -> 813 ;
814 [label="Attendace <= 52.5\ngini = 0.75\nsamples = 4\nvalue = [1, 1, 0, 1, 1]\nclass = 1", fillcolor="#ffffff"] ;
812 -> 814 ;
815 [label="gini = 0.0\nsamples = 1\nvalue = [0, 1, 0, 0, 0]\nclass = 2", fillcolor="#7be539"] ;
814 -> 815 ;
816 [label="Attendace <= 53.5\ngini = 0.667\nsamples = 3\nvalue = [1, 0, 0, 1, 1]\nclass = 1", fillcolor="#ffffff"] ;
814 -> 816 ;
817 [label="gini = 0.0\nsamples = 1\nvalue = [0, 0, 0, 0, 1]\nclass = 5", fillcolor="#e539c0"] ;
816 -> 817 ;
818 [label="Attendace <= 54.5\ngini = 0.5\nsamples = 2\nvalue = [1, 0, 0, 1, 0]\nclass = 1", fillcolor="#ffffff"] ;
816 -> 818 ;
819 [label="gini = 0.0\nsamples = 1\nvalue = [1, 0, 0, 0, 0]\nclass = 1", fillcolor="#e58139"] ;
818 -> 819 ;
820 [label="gini = 0.0\nsamples = 1\nvalue = [0, 0, 0, 1, 0]\nclass = 4", fillcolor="#3c39e5"] ;
818 -> 820 ;
821 [label="Attendace <= 53.5\ngini = 0.719\nsamples = 8\nvalue = [2, 3, 2, 1, 0]\nclass = 2", fillcolor="#e9fbde"] ;
805 -> 821 ;
822 [label="Gender <= 2.5\ngini = 0.444\nsamples = 3\nvalue = [0, 1, 2, 0, 0]\nclass = 3", fillcolor="#9cf2e2"] ;
821 -> 822 ;
823 [label="gini = 0.0\nsamples = 1\nvalue = [0, 1, 0, 0, 0]\nclass = 2", fillcolor="#7be539"] ;
822 -> 823 ;
824 [label="gini = 0.0\nsamples = 2\nvalue = [0, 0, 2, 0, 0]\nclass = 3", fillcolor="#39e5c5"] ;
822 -> 824 ;
825 [label="Class <= 0.5\ngini = 0.64\nsamples = 5\nvalue = [2, 2, 0, 1, 0]\nclass = 1", fillcolor="#ffffff"] ;
821 -> 825 ;
826 [label="Gender <= 2.5\ngini = 0.444\nsamples = 3\nvalue = [2, 1, 0, 0, 0]\nclass = 1", fillcolor="#f2c09c"] ;
825 -> 826 ;
827 [label="gini = 0.0\nsamples = 1\nvalue = [1, 0, 0, 0, 0]\nclass = 1", fillcolor="#e58139"] ;
826 -> 827 ;
828 [label="Attendace <= 54.5\ngini = 0.5\nsamples = 2\nvalue = [1, 1, 0, 0, 0]\nclass = 1", fillcolor="#ffffff"] ;
826 -> 828 ;
829 [label="gini = 0.0\nsamples = 1\nvalue = [0, 1, 0, 0, 0]\nclass = 2", fillcolor="#7be539"] ;
828 -> 829 ;
830 [label="gini = 0.0\nsamples = 1\nvalue = [1, 0, 0, 0, 0]\nclass = 1", fillcolor="#e58139"] ;
828 -> 830 ;
831 [label="gini = 0.5\nsamples = 2\nvalue = [0, 1, 0, 1, 0]\nclass = 2", fillcolor="#ffffff"] ;
825 -> 831 ;
832 [label="gini = 0.0\nsamples = 2\nvalue = [0, 0, 0, 2, 0]\nclass = 4", fillcolor="#3c39e5"] ;
790 -> 832 ;
833 [label="Class <= 0.5\ngini = 0.76\nsamples = 20\nvalue = [5, 3, 3, 2, 7]\nclass = 5", fillcolor="#fce5f7"] ;
789 -> 833 ;
834 [label="Gender <= 2.5\ngini = 0.742\nsamples = 16\nvalue = [4, 3, 1, 2, 6]\nclass = 5", fillcolor="#fbdef4"] ;
833 -> 834 ;
835 [label="Term <= 0.5\ngini = 0.691\nsamples = 9\nvalue = [2, 1, 0, 2, 4]\nclass = 5", fillcolor="#f8c6ed"] ;
834 -> 835 ;
